svm_type atp_svc
kernel_type rbf
gamma 0.125
nr_class 2
total_sv 217
rho 2.81936
label 1 -1
nr_sv 97 120
SV
64 1:1 2:0.0324813 3:-0.568571 5:-0.538462 6:-0.25 7:-0.997193 8:-1 9:-1 10:-1 11:-1 13:-1 14:-0.9462 
-10.33959522982204 1:1 2:-0.428571 3:-0.892857 5:0.846154 6:0.75 7:-0.614035 8:1 9:1 10:-0.910448 11:1 13:-1 14:-1 
17.02681185960218 1:1 2:-0.41594 3:-0.782857 4:-1 5:0.0769231 6:0.75 7:-0.856842 8:1 9:1 10:-0.970149 11:1 13:-0.82 14:-0.63946 
6.710899202771838 1:1 2:-0.601504 3:-0.946429 5:0.0769231 6:0.75 7:-0.701754 8:1 9:1 10:-0.910448 11:1 13:-0.688 14:-0.997 
-2.080966963083672 1:-1 2:0.0126315 3:-0.785714 5:1 6:-0.25 7:-0.0263158 8:1 9:1 10:-0.940299 11:1 13:-0.481 14:-0.96592 
19.9364447547427 1:-1 2:-0.789474 3:-0.267857 5:0.538462 6:-0.25 7:-0.950175 8:1 9:1 10:-0.940299 11:1 13:-0.951 14:-1 
50.51181588895614 1:1 2:-0.857143 3:-0.857143 5:-0.692308 6:-0.25 7:-0.894737 8:1 9:1 10:-0.940299 11:-1 13:-0.88 14:-0.994 
-3.134188995090238 1:1 2:-0.203008 3:0.535714 5:0.384615 6:1 7:0.403509 8:1 9:1 10:-0.671642 11:-1 13:-1 14:-0.976 
-5.808983406566947 1:1 2:-0.656541 3:-0.75 5:0.846154 6:-0.25 7:-0.95614 8:1 9:1 10:-0.791045 11:-1 13:-1 14:-0.85882 
1.525439274424377 1:-1 3:-0.0714286 5:-0.692308 7:-0.637544 8:1 9:1 10:-0.731343 11:1 13:-1 14:-1 
64 1:1 2:-0.774436 3:-0.892857 5:0.230769 6:-0.25 7:-0.894737 8:-1 9:-1 10:-1 11:-1 13:-0.85 14:-0.99984 
-5.191705458081005 1:-1 2:-0.799398 3:-0.940357 5:0.538462 6:-0.25 7:-0.888772 8:1 9:1 10:-0.970149 11:-1 13:-1 14:-1 
22.18374853974744 1:1 2:-0.581353 3:-0.0178571 5:0.230769 6:-0.25 7:-0.596491 8:1 9:-1 10:-1 11:1 13:-0.513 14:-0.99 
-1.506900341271139 1:-1 2:-0.661654 3:-0.9375 5:1 6:0.75 7:-0.927018 8:1 9:-1 10:-1 11:1 13:-0.84 14:-0.8828 
6.930565499993834 1:1 2:-0.581353 3:-0.857143 5:1 6:0.75 7:-0.929825 8:1 9:1 10:-0.880597 11:-1 13:-0.86 14:-0.84912 
-32 1:1 2:-0.41594 3:-0.928571 5:1 6:-0.25 7:-0.947368 8:1 9:1 10:-0.791045 11:1 13:-0.66 14:-0.91858 
15.32153668641165 1:-1 2:-0.473684 3:-0.732143 5:0.846154 6:0.75 7:-0.95614 8:1 9:1 10:-0.731343 11:1 13:-0.819 14:-1 
64 1:1 2:-0.781955 3:-0.785714 4:-1 5:-0.846154 6:-0.25 7:-0.92386 8:1 9:1 10:-0.761194 11:1 13:-0.84 14:-0.99998 
-32 1:1 2:-0.639098 3:-0.964286 5:0.0769231 6:-0.25 7:-0.897544 8:1 9:1 10:-0.850746 11:1 13:-0.688 14:-1 
40.69448227488289 1:-1 2:-0.0276691 3:-0.785714 5:0.0769231 6:-0.25 7:-0.833333 8:1 9:1 10:-0.761194 11:1 13:-0.604 14:-0.91682 
2.352771127277943 1:-1 2:0.651729 3:0.0714286 5:0.384615 6:1 7:-1 8:1 9:1 10:-0.58209 11:-1 13:-1 14:-0.93248 
2.747566736565389 1:1 2:0.894737 3:0.592143 5:0.384615 6:1 7:-0.105263 8:1 9:1 10:-0.970149 11:1 13:-1 14:-0.99782 
64 1:1 2:-0.836992 3:-1 4:-1 5:-0.0769231 7:-1 8:-1 9:-1 10:-1 11:1 12:-1 13:-0.5 14:-0.99998 
60.18950928403626 1:1 2:-0.731729 3:-0.886786 4:-1 5:0.230769 6:-0.25 7:-0.783509 8:1 9:1 10:-0.820896 11:-1 13:-0.92 14:-1 
51.81860680274252 1:1 2:-0.117895 3:-0.973214 4:-1 5:0.0769231 6:-0.25 7:-0.973684 8:1 9:1 10:-0.761194 11:1 13:-0.7 14:-0.99676 
17.32569143991921 1:-1 2:-0.736842 3:-0.395714 4:-1 5:1 6:-0.25 7:-0.827368 8:-1 9:-1 10:-1 11:-1 13:-0.836 14:-1 
-1.156859716236278 1:1 2:-0.641504 3:-0.107143 5:0.846154 6:-0.25 7:-0.915088 8:1 9:1 10:1 11:1 13:-0.86 14:-0.99484 
23.13586998761668 1:1 2:-0.681805 3:-0.526786 4:-1 5:-0.846154 6:-0.25 7:-0.614035 8:1 9:-1 10:-1 11:1 12:-1 13:-0.9 14:-1 
56.5047029273471 1:1 2:-0.71188 3:-0.169643 4:-1 5:0.230769 6:-0.25 7:-0.941404 8:1 9:-1 10:-1 11:1 13:-0.84 14:-0.994 
-0.2537748421372958 1:-1 2:-0.802105 3:-0.285714 5:0.0769231 6:0.75 7:-0.929825 8:1 9:1 10:-0.880597 11:-1 13:-0.95 14:-0.9707 
17.1746197544052 1:1 2:-0.486316 3:-1 5:0.230769 6:-0.25 7:-0.912281 8:1 9:1 10:-0.970149 11:-1 13:-0.798 14:-1 
13.21178828937459 1:-1 2:-0.526316 3:-0.967143 5:-0.538462 6:-0.25 7:-0.962105 8:1 9:1 10:-0.880597 11:-1 13:-0.62 14:-0.99 
27.8886795963488 1:1 2:0.223158 3:-0.964286 4:-1 5:-0.538462 6:0.75 7:-0.722105 8:1 9:-1 10:-1 11:-1 13:-0.82 14:-0.99372 
1.330336019046354 1:1 2:0.283308 3:1 4:-1 5:0.0769231 6:-0.25 7:1 8:1 9:1 10:0.19403 11:-1 13:-1 14:-0.9997 
34.19062710408009 1:1 2:-0.571429 3:-0.857143 5:-0.538462 6:0.75 7:-0.707719 8:1 9:1 10:-0.940299 11:1 13:-0.819 14:-1 
-32 1:1 2:-0.799398 3:-0.868929 5:0.0769231 6:-0.25 7:-0.842105 8:1 9:1 10:-0.970149 11:-1 13:-0.9 14:-0.997 
39.70811526421628 1:1 2:0.0451128 3:-0.696429 5:-0.0769231 6:-0.25 7:-0.991228 8:1 9:-1 10:-1 11:1 13:-0.775 14:-1 
-18.99924093569394 1:1 2:-0.731729 3:-0.25 5:0.538462 6:0.75 7:-0.906316 8:1 9:-1 10:-1 11:-1 13:-0.9 14:-1 
59.30959586557319 1:-1 2:-0.659248 3:-0.818571 4:-1 5:-0.230769 6:-0.25 7:-0.982456 8:1 9:-1 10:-1 11:1 13:-0.63 14:-1 
-8.992153049289557 1:1 2:-0.320902 3:-0.848214 4:-1 5:0.230769 6:-0.25 7:-0.994035 8:1 9:1 10:-0.970149 11:-1 13:-0.95 14:-0.97626 
28.62902697475272 1:1 2:-0.659248 3:-0.877857 5:1 6:-0.25 7:-0.883158 8:1 9:1 10:-0.970149 11:1 13:-0.605 14:-0.9996 
-12.05419515361084 1:1 2:-0.170526 3:-1 5:0.0769231 7:0.0526316 8:1 9:-1 10:-1 11:-1 13:-1 14:-1 
10.09435015665513 1:1 2:-0.754286 3:-0.961429 4:-1 5:1 6:-0.25 7:-0.997193 8:1 9:1 10:-0.970149 11:1 13:-0.16 14:-0.99882 
19.85618668299955 1:1 2:-0.383459 3:-0.785714 5:0.846154 6:0.75 7:-0.479649 8:1 9:-1 10:-1 11:1 13:-1 14:-1 
-9.654599251580217 1:-1 2:-0.821955 3:-0.985 5:0.538462 6:0.75 7:-0.979649 8:1 9:1 10:-0.671642 11:-1 13:-0.92 14:-0.99802 
23.82935875688543 1:1 2:-0.756992 3:-0.982143 5:-0.846154 6:0.75 7:-0.953333 8:1 9:-1 10:-1 11:1 13:-1 14:-1 
13.55615732353887 1:1 2:-0.265564 3:-0.276786 5:1 6:-0.25 7:-0.824561 8:1 9:1 10:-0.820896 11:-1 13:-0.48 14:-0.99608 
-32 1:1 2:-0.714286 3:-0.714286 5:0.0769231 7:-0.982456 8:1 9:-1 10:-1 11:1 13:-0.84 14:-1 
24.5735416078033 1:-1 2:-0.847218 3:-0.684643 4:-1 5:0.0769231 6:0.75 7:-0.789474 8:1 9:-1 10:-1 11:-1 13:-0.76 14:-1 
64 1:1 2:-0.731729 3:-0.988214 5:0.0769231 6:-0.5 7:-0.842105 8:-1 9:-1 10:-1 11:1 12:-1 13:-1 14:-1 
19.85680415019673 1:-1 2:-0.709173 3:-0.943571 4:-1 5:0.538462 6:-0.25 7:-0.894737 8:1 9:1 10:-0.940299 11:1 13:-0.92 14:-0.992 
8.852083444778698 1:1 2:0.62406 3:-0.607143 5:0.384615 6:1 7:-0.0877193 8:1 9:1 10:-0.970149 11:1 13:-1 14:-1 
44.77791218015558 1:-1 2:-0.787068 3:-0.785714 5:-0.230769 6:-0.25 7:-0.997193 8:1 9:-1 10:-1 11:-1 13:-0.9 14:-1 
-14.10577514856036 1:1 2:-0.56391 3:-0.9375 5:-0.0769231 6:-0.25 7:-0.932632 8:1 9:1 10:-0.910448 11:1 13:-0.604 14:-1 
13.49646301958369 1:1 2:-0.829474 3:-0.535714 5:0.230769 6:0.75 7:-0.897544 8:1 9:1 10:-0.791045 11:-1 13:-0.92 14:-0.94092 
-6.055101936570153 1:-1 2:-0.175338 3:-0.535714 5:0.538462 6:-0.25 7:-0.964912 8:1 9:1 10:-0.910448 11:1 13:-0.855 14:-1 
15.07024142263498 1:1 2:-0.543759 3:0.0714286 5:0.0769231 6:0.75 7:-0.625614 8:1 9:1 10:-0.671642 11:-1 13:-1 14:-0.95434 
14.02535193485616 1:1 2:-0.656541 3:-0.571429 5:0.0769231 6:-0.25 7:-0.929825 8:1 9:1 10:-0.910448 11:-1 13:-1 14:-1 
21.39106114343507 1:1 2:0.794586 3:0.267857 5:-1 6:-1 7:-1 8:1 9:-1 10:-1 11:1 13:-1 14:-1 
26.75214935690619 1:-1 2:-0.796992 3:-0.154643 5:0.0769231 6:0.75 7:-0.578947 8:1 9:-1 10:-1 11:-1 13:-0.66 14:-1 
-24.12448126240604 1:1 2:-0.694135 3:-0.892857 5:-0.846154 6:0.75 7:-0.868421 8:1 9:1 10:-0.820896 11:-1 13:-0.8 14:-0.99346 
8.928466667924887 1:-1 2:-0.689323 3:-0.964286 5:0.538462 6:0.75 7:-0.912281 8:1 9:1 10:-0.970149 11:-1 13:-1 14:-0.98644 
37.55807437285414 1:1 2:-0.726917 3:-0.785714 5:-0.0769231 6:-0.25 7:-0.909474 8:1 9:1 10:-0.970149 11:-1 13:-0.74 14:-0.984 
-2.936206754578535 1:1 2:-0.157895 3:-0.931429 5:1 6:-0.25 7:-0.824561 8:1 9:-1 10:-1 11:-1 13:-0.49 14:-0.988 
20.02239398159011 1:1 2:-0.821955 3:-0.973214 5:0.538462 6:-0.25 7:-0.859649 8:1 9:1 10:-0.940299 11:1 13:-0.92 14:-1 
6.529954177256767 1:-1 2:0.739248 3:-1 5:0.0769231 6:-0.25 7:-1 8:-1 9:-1 10:-1 11:-1 12:1 13:-0.816 14:-1 
29.34553586469758 1:1 2:-0.150376 3:-0.985357 5:-0.692308 6:0.75 7:-0.640351 8:1 9:-1 10:-1 11:-1 13:-0.6 14:-1 
21.25153824415248 1:-1 2:-0.884812 3:-0.357143 5:-0.230769 6:-0.25 7:-0.903509 8:1 9:-1 10:-1 11:1 13:-1 14:-1 
-1.498552551037279 1:1 2:-0.461053 3:0.154643 5:-0.846154 6:-0.25 7:-0.789474 8:1 9:1 10:-0.731343 11:-1 13:-0.75 14:-0.9854 
21.17016090350049 1:1 2:0.381053 3:-0.89 5:0.538462 6:-0.25 7:-0.991228 8:1 9:-1 10:-1 11:1 13:-0.74 14:-1 
3.692046174190482 1:-1 2:0.408421 3:0.178571 5:0.538462 6:-0.25 7:-0.22807 8:1 9:-1 10:-1 11:1 13:-0.979 14:-0.78878 
34.94347738783286 1:1 2:-0.125413 3:-0.669643 5:0.538462 6:-0.25 7:-0.678596 8:1 9:-1 10:-1 11:-1 12:-1 13:-1 14:-1 
2.206248134005508 1:1 2:0.130226 3:-0.285714 5:-0.692308 7:-1 8:1 9:1 10:-0.671642 11:-1 13:-1 14:-0.97502 
-8.162428771357236 1:1 2:-0.58406 3:-0.854286 4:-1 5:-0.230769 6:-0.25 7:-0.859649 8:1 9:1 10:-0.910448 11:1 13:-0.63 14:-0.9888 
41.30864683322939 1:-1 2:-0.400902 3:-0.973214 5:0.846154 6:-0.25 7:-0.973684 8:-1 9:-1 10:-1 11:-1 13:-0.7 14:-0.99912 
64 1:1 2:-0.639098 3:-0.946429 5:0.0769231 7:-0.982456 8:1 9:-1 10:-1 11:-1 13:-0.651 14:-0.99954 
64 1:-1 2:-0.551278 3:-0.925714 5:0.0769231 6:-0.25 7:-0.824561 8:1 9:1 10:-0.850746 11:1 13:-0.7 14:-0.9714 
6.593017192780142 1:-1 2:-0.869774 3:-0.973214 4:1 5:0.846154 6:-1 7:-0.298246 8:-1 9:-1 10:-1 11:1 12:-1 13:-0.7 14:-1 
-32 1:1 2:-0.799398 3:-0.5 5:0.0769231 6:-0.25 7:-0.885965 8:1 9:1 10:-0.910448 11:-1 13:-0.8 14:-0.97218 
3.495681841813115 1:1 2:0.0201503 3:-0.821429 5:-0.0769231 7:-0.824561 8:1 9:1 10:-0.641791 11:1 13:-0.59 14:-0.9498 
22.87550285554604 1:1 2:-1 3:-0.714286 4:-1 5:0.230769 6:-0.25 7:-0.877193 8:1 9:1 10:-0.940299 11:1 13:-0.88 14:-0.98 
0.5757358338510551 1:-1 2:-0.799398 3:-0.464286 5:-0.538462 6:-0.25 7:-0.894737 8:1 9:1 10:-0.970149 11:-1 13:-0.84 14:-0.99532 
47.62806188388696 1:1 2:-0.430978 3:-0.357143 4:-1 5:0.230769 6:0.75 7:-0.631579 8:1 9:-1 10:-1 11:1 13:-0.846 14:-1 
51.73104278339823 1:1 2:-0.0902256 3:-0.857143 5:-0.0769231 6:-0.25 7:-0.877193 8:1 9:1 10:-0.940299 11:1 13:-1 14:-0.9997 
64 1:-1 2:-0.170526 3:-0.928571 5:-0.692308 7:-0.842105 8:1 9:-1 10:-1 11:1 13:-1 14:-0.994 
21.65413100153708 1:1 2:-0.461053 3:-0.940714 5:1 6:-0.25 7:-0.906316 8:1 9:1 10:-0.761194 11:1 13:-0.697 14:-0.9342 
64 1:-1 2:-0.263158 3:-0.571429 5:-0.538462 6:-0.25 7:-0.929825 8:1 9:-1 10:-1 11:1 13:-1 14:-1 
64 1:1 2:-0.28812 3:-0.854286 5:0.230769 6:-0.25 7:-0.997193 8:1 9:-1 10:-1 11:1 13:-0.6 14:-0.884 
26.0026023378647 1:1 2:-0.796992 3:-0.285714 4:-1 5:0.0769231 6:-0.25 7:-0.824561 8:1 9:-1 10:-1 11:-1 12:-1 13:-0.96 14:-1 
4.174576867684304 1:-1 2:-0.00992487 3:-0.967143 5:0.846154 6:0.75 7:-0.970877 8:1 9:1 10:-0.671642 11:1 13:-0.56 14:-0.99988 
52.85032443030673 1:1 2:-0.836992 3:-0.321429 5:0.230769 6:-0.25 7:-0.894737 8:1 9:-1 10:-1 11:-1 13:-0.88 14:-0.95588 
11.46465623372762 1:1 2:-0.561504 3:-0.642857 5:0.230769 6:-0.25 7:-0.22807 8:1 9:-1 10:-1 11:1 13:-0.93 14:-1 
31.66537039613569 1:1 2:-0.451128 3:-0.875 4:-1 5:0.384615 6:0.75 7:-0.997193 8:1 9:-1 10:-1 11:1 13:-0.607 14:-1 
-5.345714013963635 1:1 2:-0.35579 3:0.794643 5:1 6:0.75 7:-0.885965 8:1 9:1 10:-0.970149 11:1 13:-0.485 14:-0.99 
64 1:1 2:-0.631579 3:-0.928571 5:0.538462 6:-0.25 7:-0.877193 8:1 9:-1 10:-1 11:1 13:-0.72 14:-1 
20.77845914362925 1:-1 2:-0.639098 3:-0.964286 5:0.0769231 6:0.75 7:-0.938596 8:1 9:-1 10:-1 11:1 13:-0.509 14:-1 
18.87349723757093 1:1 2:0.0475189 3:-0.985357 4:-1 5:-0.538462 6:-0.25 7:-0.982456 8:1 9:1 10:-0.671642 11:-1 13:-0.62 14:-0.94536 
-2.684732732388298 1:1 2:-0.576541 3:-0.928571 4:-1 5:-0.846154 6:0.75 7:-0.789474 8:-1 9:-1 10:-1 11:-1 13:-0.824 14:-0.98926 
-33.08054663095698 1:-1 2:0.263158 3:-0.494286 5:-0.538462 6:0.75 7:-0.526316 8:1 9:1 10:-0.910448 11:1 13:-0.9 14:-0.999 
-30.73205046612248 1:1 2:-0.79188 3:-0.910714 4:-1 5:0.0769231 6:0.75 7:-0.903509 8:1 9:1 10:-0.910448 11:1 13:-0.86 14:-0.9958 
-64 1:1 2:-0.175338 3:-0.904643 5:-0.846154 6:-0.25 7:-0.988421 8:-1 9:-1 10:-1 11:-1 13:-0.832 14:-1 
-34.94031053421897 1:1 2:-0.163007 3:-0.875 5:-0.538462 6:-0.25 7:-0.985263 8:1 9:-1 10:-1 11:-1 13:-0.84 14:-1 
29.14066710504247 1:1 2:-0.827068 3:-0.315357 5:-0.230769 6:-0.25 7:-0.944561 8:-1 9:-1 10:-1 11:-1 13:-0.92 14:-0.993 
-0.4234984166141498 1:1 2:-0.125413 3:-0.910714 5:-0.0769231 6:-0.25 7:-0.0263158 8:-1 9:1 10:-0.970149 11:1 13:-0.648 14:-0.99776 
0.2585874286330426 1:1 2:0.836993 3:0.357143 4:-1 5:-1 6:-1 7:-0.997193 8:-1 9:1 10:-0.940299 11:-1 13:-1 14:-0.99298 
-64 1:1 2:0.491128 3:-0.961429 5:0.0769231 6:-0.25 7:-0.958947 8:1 9:1 10:-0.910448 11:1 13:-0.82 14:-1 
-6.430739520947215 1:-1 2:-0.526316 3:-0.857143 4:-1 5:0.384615 6:0.75 7:-0.859649 8:-1 9:-1 10:-1 11:-1 13:-0.744 14:-0.99966 
4.586590759036127 1:1 2:-0.473684 3:-0.7975 5:-1 6:-1 7:-1 8:-1 9:1 10:-0.850746 11:-1 13:-0.824 14:-0.99708 
-19.46250576070424 1:1 2:0.0526316 3:0.881071 4:-1 5:-1 6:-1 7:-1 8:1 9:-1 10:-1 11:1 13:-1 14:-1 
-64 1:1 2:-0.528722 3:-0.910714 5:0.230769 6:-0.25 7:-0.877193 8:-1 9:-1 10:-1 11:-1 13:-0.8 14:-1 
-31.44836662941707 1:1 2:-0.709173 3:-0.928571 5:0.0769231 6:-0.25 7:-0.964912 8:-1 9:-1 10:-1 11:1 12:-1 13:-0.72 14:-1 
10.35952157579623 1:1 2:-0.551278 3:0.0357143 5:-0.846154 6:-0.25 7:-0.991228 8:-1 9:-1 10:-1 11:-1 13:-1 14:-0.99428 
1.602929321384641 1:-1 2:-0.238195 3:-0.714286 5:0.0769231 6:-0.25 7:-0.789474 8:-1 9:-1 10:-1 11:-1 13:-0.52 14:-1 
-11.90804349991162 1:1 2:0.00992487 3:-0.535714 5:0.0769231 6:-0.25 7:-0.929825 8:-1 9:-1 10:-1 11:1 13:-1 14:-0.99544 
-12.05188392125026 1:1 2:-0.576541 3:-0.714286 4:-1 5:-0.692308 6:0.75 7:-0.596491 8:1 9:1 10:-0.940299 11:1 13:-0.925 14:-1 
-64 1:1 2:-0.79188 3:-0.940357 4:-1 5:0.0769231 6:-0.25 7:-0.859649 8:-1 9:-1 10:-1 11:1 12:-1 13:-0.76 14:-1 
28.86641917727304 1:1 2:-0.543759 3:-0.973214 5:0.0769231 6:-0.25 7:-0.979649 8:-1 9:-1 10:-1 11:-1 13:-0.78 14:-0.9972 
-14.79024520043779 1:-1 2:-0.260752 3:-0.684643 5:0.0769231 6:-0.25 7:-0.991228 8:-1 9:-1 10:-1 11:-1 13:-0.84 14:-1 
-64 1:1 2:-0.821955 3:-0.285714 4:-1 5:-0.538462 6:0.75 7:-0.941404 8:1 9:-1 10:-1 11:1 13:-0.86 14:-1 
-44.05576072529779 1:-1 2:-0.934737 3:-0.794643 5:0.538462 6:-0.25 7:-0.994035 8:-1 9:-1 10:-1 11:-1 13:-0.88 14:-1 
-64 1:1 2:-0.0550377 3:-0.892857 5:0.0769231 6:-0.25 7:-0.824561 8:1 9:-1 10:-1 11:1 13:-0.86 14:-1 
-2.295493461301346 1:1 2:-0.957293 3:-0.5 5:0.384615 6:-0.25 7:-0.929825 8:-1 9:-1 10:-1 11:-1 13:-0.4 14:-1 
-25.90374460596217 1:1 2:0.466165 3:-0.0892857 4:-1 5:0.0769231 6:0.75 7:-0.649123 8:1 9:-1 10:-1 11:-1 13:-0.888 14:-1 
-41.56375075164379 1:1 2:-0.353383 3:-0.773929 5:1 6:0.75 7:-0.736842 8:1 9:-1 10:-1 11:1 13:-0.32 14:-1 
32 1:1 2:-0.62406 3:-0.89 5:0.230769 6:-0.25 7:-0.991228 8:-1 9:-1 10:-1 11:-1 13:-0.9 14:-1 
-64 1:-1 2:-0.553985 3:-0.747143 5:-0.692308 7:-0.964912 8:1 9:-1 10:-1 11:1 13:-0.829 14:-1 
4.819902480447802 1:-1 2:-0.200601 3:-0.419643 4:-1 5:-0.538462 6:-0.25 7:-0.988421 8:-1 9:1 10:-0.940299 11:-1 13:-0.816 14:-0.99964 
1.214884699638644 1:1 2:-0.182857 3:-0.964286 4:-1 5:-0.0769231 6:-0.25 7:-0.964912 8:-1 9:-1 10:-1 11:1 13:-0.87 14:-1 
-0.07832162743157946 1:1 2:-0.400902 3:-0.845357 5:0.0769231 6:-0.25 7:-0.894737 8:-1 9:-1 10:-1 11:-1 12:1 13:-0.88 14:-1 
-14.35906329767473 1:1 2:-0.325714 3:-0.607143 5:-0.692308 7:-0.649123 8:-1 9:-1 10:-1 11:-1 13:-0.79 14:-0.98626 
32 1:1 2:-0.827068 3:-0.979286 5:-0.538462 6:-0.25 7:-0.979649 8:-1 9:-1 10:-1 11:-1 13:-0.72 14:-0.99272 
-64 1:1 2:-0.81203 3:-0.5 5:0.0769231 6:-0.25 7:-0.964912 8:-1 9:-1 10:-1 11:-1 13:-1 14:-1 
3.531898426785133 1:1 2:-0.52391 3:-0.660714 5:-0.0769231 6:-0.25 7:-0.859649 8:-1 9:1 10:-0.970149 11:1 13:-0.54 14:-0.99864 
-21.9721471537616 1:1 2:-0.182857 3:-0.839286 4:-1 5:1 6:0.75 7:-0.298246 8:1 9:-1 10:-1 11:1 13:-0.824 14:-1 
-0.2836777604156366 1:1 2:1 3:-0.607143 5:0.0769231 6:-0.25 7:-0.962105 8:1 9:-1 10:-1 11:-1 13:-1 14:-0.9932 
-18.51690856121817 1:1 2:-0.400902 3:-0.910714 5:0.230769 6:-0.25 7:-0.918246 8:-1 9:-1 10:-1 11:-1 13:-0.88 14:-1 
-18.02962678709694 1:1 2:-0.721805 3:-0.946429 5:-0.0769231 6:-0.25 7:-0.964912 8:-1 9:-1 10:-1 11:1 12:-1 13:-0.68 14:-1 
-38.23676885161132 1:1 2:-0.917293 3:-0.991071 5:0.0769231 6:-0.25 7:-0.988421 8:-1 9:-1 10:-1 11:-1 13:-0.868 14:-1 
8.050031206422071 1:1 2:-0.390977 3:-0.636786 4:-1 5:-0.692308 7:-0.92386 8:-1 9:-1 10:-1 11:1 13:-0.52 14:-1 
-8.741663219651874 1:-1 2:0.303158 3:-0.976071 5:-0.692308 7:-0.929825 8:1 9:-1 10:-1 11:1 13:-0.748 14:-0.95606 
-7.070254232094512 1:1 2:-0.463759 3:-0.946429 4:-1 5:-0.230769 6:-0.25 7:-0.754386 8:-1 9:-1 10:-1 11:1 13:-0.68 14:-1 
-43.29358592734501 1:1 2:-0.441203 3:-0.464286 5:0.384615 7:-0.888772 8:1 9:-1 10:-1 11:1 12:-1 13:-0.58 14:-1 
12.17872240263491 1:1 2:-0.854737 3:-0.592143 5:-0.846154 6:-0.25 7:-0.962105 8:-1 9:-1 10:-1 11:-1 13:-0.88 14:-1 
-64 1:-1 2:0.0601504 3:-0.892857 5:-0.384615 6:-0.5 7:-1 8:1 9:-1 10:-1 11:1 13:-0.9 14:-0.99946 
-64 1:1 2:-0.79188 3:-0.622143 5:0.538462 6:-0.25 7:-0.973684 8:1 9:1 10:-0.970149 11:-1 13:-0.84 14:-1 
-2.03697478718937 1:1 2:-0.606617 3:-0.961429 5:-0.538462 6:-1 7:-1 8:-1 9:-1 10:-1 11:-1 13:-0.9 14:-1 
-64 1:1 2:-0.746767 3:-0.839286 5:-0.692308 6:-0.25 7:-0.991228 8:-1 9:-1 10:-1 11:-1 13:-0.84 14:-0.9998 
7.3952019475482 1:1 2:-0.325714 3:-0.97 4:-1 5:0.230769 6:-0.25 7:-0.979649 8:-1 9:-1 10:-1 11:1 13:-0.691 14:-0.99996 
-19.97085498542958 1:-1 2:-0.142857 3:-0.875 4:-1 5:0.0769231 6:-0.25 7:-1 8:-1 9:-1 10:-1 11:1 13:-0.85 14:-0.99998 
-9.215179168759326 1:1 2:-0.223158 3:-0.642857 5:-1 6:-1 7:-1 8:-1 9:1 10:-0.940299 11:-1 13:-0.983 14:-0.99998 
-63.05332862251819 1:1 2:-0.829474 3:-0.892857 4:-1 5:0.846154 6:-0.25 7:-0.859649 8:1 9:-1 10:-1 11:1 13:-0.9 14:-0.9996 
11.09053729825476 1:1 2:-0.749474 3:-0.833214 5:-0.538462 6:-0.25 7:-0.947368 8:-1 9:-1 10:-1 11:-1 13:-0.82 14:-1 
8.843967912035609 1:1 2:-0.46406 3:-0.964286 5:0.0769231 7:-0.941404 8:1 9:-1 10:-1 11:1 12:-1 13:-0.68 14:-1 
-2.784197613912588 1:-1 2:-0.824662 3:-0.9525 4:-1 5:0.0769231 6:-0.25 7:-0.929825 8:-1 9:1 10:-0.970149 11:-1 13:1 14:-0.99996 
-8.835857354630555 1:1 2:-0.488722 3:-0.886786 5:-0.846154 6:-0.25 7:-0.958947 8:-1 9:-1 10:-1 11:1 12:-1 13:-1 14:-1 
-6.174190037020722 1:1 2:-0.325714 3:0.294643 5:0.230769 6:-0.25 7:-0.994035 8:-1 9:-1 10:-1 11:-1 13:-0.68 14:-0.92896 
32 1:1 2:0.112782 3:-0.958214 5:-1 6:-1 7:-1 8:-1 9:-1 10:-1 11:-1 13:-0.855 14:-1 
-10.56957892996566 1:1 2:-0.0652631 3:-0.5 4:-1 5:0.0769231 6:-0.25 7:-0.885965 8:-1 9:-1 10:-1 11:-1 13:-0.84 14:-0.99996 
14.50505674579315 1:1 2:-0.46406 3:-0.997143 4:-1 5:-0.846154 6:-0.25 7:-0.701754 8:-1 9:-1 10:-1 11:1 13:-0.54 14:-1 
3.5161000221616 1:-1 2:-0.724211 3:-0.910714 5:0.538462 6:-0.25 7:-0.982456 8:-1 9:-1 10:-1 11:1 13:-0.88 14:-0.98382 
-3.644345137282006 1:1 2:-0.83218 3:-0.220357 5:0.0769231 7:-0.958947 8:-1 9:1 10:-0.940299 11:1 13:-0.8 14:-0.99986 
32 1:1 2:-0.847218 3:-1 5:0.538462 6:-0.25 7:-0.953333 8:-1 9:-1 10:-1 11:-1 13:-0.84 14:-0.99998 
-64 1:-1 2:-0.674286 3:-0.952143 5:-0.230769 6:0.75 7:-0.877193 8:1 9:-1 10:-1 11:-1 13:-0.6 14:-1 
-39.59706935967422 1:1 2:-0.776842 3:-0.982143 4:-1 5:0.0769231 6:0.75 7:-0.982456 8:-1 9:-1 10:-1 11:-1 13:-0.72 14:-0.99592 
-15.5295806634309 1:1 2:0.235489 3:0.107143 5:0.384615 6:1 7:-1 8:1 9:1 10:-0.402985 11:-1 13:-0.848 14:-0.9974 
12.39192967330567 1:1 2:-0.636692 3:-0.0832143 5:0.846154 6:-0.25 7:-0.964912 8:-1 9:-1 10:-1 11:-1 13:-1 14:-0.99996 
-53.35018064859182 1:1 2:-0.809624 3:-0.982143 5:0.538462 6:-0.25 7:-0.991228 8:-1 9:-1 10:-1 11:-1 13:-0.8 14:-1 
-64 1:1 2:-0.390977 3:-0.678571 5:-0.230769 6:-0.25 7:-0.929825 8:1 9:-1 10:-1 11:1 13:-0.76 14:-1 
-56.1472427050773 1:-1 2:-0.736842 3:-0.214286 4:-1 5:0.538462 6:-0.25 7:-0.789474 8:1 9:-1 10:-1 11:1 13:-0.732 14:-1 
-1.252189425465245 1:-1 2:0.318196 3:-0.857143 5:-1 6:-1 7:-0.54386 8:-1 9:1 10:-0.970149 11:-1 13:-1 14:-0.9998 
-64 1:1 2:-0.508872 3:-0.925714 4:-1 5:-0.692308 7:-0.964912 8:1 9:1 10:-0.701493 11:1 13:-0.868 14:-0.99944 
-64 1:1 2:-0.704361 3:-0.967143 4:-1 5:0.230769 6:-0.25 7:-0.815789 8:1 9:1 10:-0.820896 11:1 13:-0.792 14:-0.99306 
-6.615381054763404 1:1 2:-0.904662 3:-0.976071 4:-1 5:-0.538462 6:-0.25 7:-0.979649 8:-1 9:-1 10:-1 11:-1 12:-1 13:-0.8 14:-1 
15.09651510994962 1:1 2:-0.46406 3:-0.642857 4:-1 5:-0.230769 6:-0.25 7:-0.403509 8:1 9:-1 10:-1 11:-1 13:-1 14:-1 
-64 1:1 2:-0.766917 3:-0.303571 5:0.0769231 6:-0.25 7:-0.982456 8:1 9:-1 10:-1 11:-1 13:-0.86 14:-1 
-0.599659678719605 1:-1 2:-0.654135 3:-0.0357143 4:-1 5:-1 6:-1 7:-0.859649 8:-1 9:1 10:-0.970149 11:1 13:-0.8 14:-0.99998 
-50.46557157949609 1:1 2:-0.215639 3:-0.964286 5:-0.0769231 6:-0.25 7:-0.982456 8:1 9:-1 10:-1 11:-1 12:-1 13:-0.712 14:-1 
-35.59644978023659 1:-1 2:-0.661654 3:-0.214286 4:-1 5:-0.230769 6:-0.25 7:-0.684211 8:1 9:-1 10:-1 11:-1 13:-0.88 14:-1 
-43.60040700225375 1:1 2:-0.521203 3:-0.946429 4:-1 5:0.0769231 6:-0.25 7:-0.997193 8:-1 9:-1 10:-1 11:-1 13:-0.76 14:-1 
-25.11672652444397 1:1 2:-0.366015 3:-0.821429 4:-1 5:0.230769 6:-0.25 7:-0.789474 8:-1 9:-1 10:-1 11:-1 12:-1 13:-0.8 14:-1 
32 1:1 2:-0.571429 3:-0.785714 5:0.230769 6:-0.25 7:-0.947368 8:-1 9:-1 10:-1 11:1 13:-0.7 14:-0.99866 
-6.546619744770721 1:1 2:-0.729323 3:-0.178571 5:-0.692308 6:-0.25 7:-0.970877 8:-1 9:-1 10:-1 11:-1 13:-1 14:-1 
-31.48388302996113 1:-1 2:-0.46406 3:-0.75 5:-0.846154 6:-0.25 7:-0.789474 8:1 9:-1 10:-1 11:1 13:-0.7 14:-1 
-64 1:-1 2:-0.556391 3:-0.928571 5:0.538462 6:-0.25 7:-0.929825 8:1 9:1 10:-0.940299 11:1 13:-0.833 14:-0.99 
-2.063731744829163 1:-1 2:-0.0502255 3:-0.928571 5:0.538462 6:-0.25 7:-0.991228 8:-1 9:-1 10:-1 11:1 13:-0.737 14:-1 
-1.110463728144609 1:-1 2:-0.731729 3:-0.976071 5:0.538462 6:-0.25 7:-0.947368 8:-1 9:-1 10:-1 11:-1 12:-1 13:-0.84 14:-1 
32 1:1 2:-0.370827 3:-0.922857 5:-0.0769231 6:-0.25 7:-0.918246 8:-1 9:-1 10:-1 11:-1 12:-1 13:-0.972 14:-1 
-48.29682111893194 1:1 2:-0.456241 3:-0.821429 5:-0.230769 6:-0.25 7:-0.473684 8:1 9:-1 10:-1 11:1 13:-0.477 14:-1 
28.39758662584391 1:1 2:-0.398496 3:-0.803571 5:-0.692308 7:-1 8:-1 9:-1 10:-1 11:-1 13:-0.82 14:-1 
32 1:1 2:-0.506165 3:-0.9225 4:-1 5:0.0769231 6:-0.25 7:-0.997193 8:-1 9:-1 10:-1 11:-1 13:-0.83 14:-0.99642 
-18.76862470194541 1:1 2:0.0652631 3:-0.836429 5:-1 6:-1 7:-0.979649 8:-1 9:-1 10:-1 11:-1 13:-0.8 14:-0.99994 
-16.61375871095701 1:1 2:-0.724211 3:-0.987857 5:-0.0769231 6:-0.25 7:-0.994035 8:-1 9:-1 10:-1 11:-1 12:-1 13:-1 14:-1 
-0.4373106483638441 1:-1 2:-0.366015 3:-0.910714 4:-1 5:-0.692308 6:0.75 7:-0.964912 8:-1 9:-1 10:-1 11:1 13:-0.84 14:-1 
15.24103118669331 1:-1 2:-0.413534 3:-0.821429 4:-1 5:0.0769231 6:-0.25 7:-0.824561 8:-1 9:-1 10:-1 11:1 13:-1 14:-0.99996 
0.9601699063562634 1:-1 2:-0.41594 3:-0.839286 4:-1 5:0.846154 6:-0.25 7:-0.754386 8:-1 9:-1 10:-1 11:1 13:-0.8 14:-0.99718 
32 1:1 2:-0.776842 3:-0.9375 4:-1 5:0.0769231 6:0.75 7:-0.982456 8:-1 9:-1 10:-1 11:-1 13:-0.72 14:-0.99592 
12.48458132759392 1:1 2:0.00511272 3:-0.583214 5:0.230769 6:-0.25 7:-0.614035 8:-1 9:-1 10:-1 11:-1 13:-0.535 14:-0.997 
16.4133881504732 1:1 2:-0.22797 3:-0.877857 4:-1 5:-0.0769231 6:-0.25 7:-0.988421 8:-1 9:-1 10:-1 11:-1 12:-1 13:-0.6 14:-1 
-60.97053079896195 1:1 2:-0.704361 3:-0.872143 5:0.0769231 6:-0.25 7:-0.962105 8:-1 9:-1 10:-1 11:1 13:-0.864 14:-0.99998 
-42.43371653225954 1:1 2:-0.641504 3:-0.842143 4:-1 5:-0.230769 6:-0.25 7:-0.719298 8:1 9:-1 10:-1 11:-1 13:-0.812 14:-1 
-10.68832602975605 1:-1 2:-0.553985 3:-0.881071 5:0.538462 6:-0.25 7:-0.830526 8:1 9:-1 10:-1 11:1 13:-0.56 14:-1 
20.9774205923302 1:1 2:-0.724211 3:-0.773929 4:-1 5:0.0769231 6:-0.25 7:-0.988421 8:-1 9:-1 10:-1 11:-1 13:-0.84 14:-0.97884 
-8.438208404732253 1:-1 2:-0.676692 3:-0.925714 4:-1 5:-1 6:-1 7:-0.964912 8:1 9:1 10:-0.910448 11:-1 13:-0.82 14:-0.99706 
32 1:1 2:-0.669173 3:-0.961429 5:-0.0769231 6:-0.25 7:-0.929825 8:-1 9:-1 10:-1 11:1 13:-0.88 14:-0.99998 
-64 1:1 2:-0.761805 3:-0.916786 4:-1 5:-0.538462 6:-0.25 7:-0.824561 8:1 9:1 10:-0.970149 11:-1 13:-0.82 14:-0.9996 
26.40783754114898 1:1 2:-0.674286 3:-0.910714 5:0.0769231 6:-0.25 7:-0.982456 8:-1 9:-1 10:-1 11:-1 13:-0.89 14:-1 
-10.20441888796269 1:1 2:-0.699248 3:-0.142857 5:0.0769231 6:-0.25 7:-0.853684 8:-1 9:-1 10:-1 11:-1 12:-1 13:-0.92 14:-1 
-64 1:-1 2:-0.819549 3:-0.946429 5:0.0769231 6:-0.25 7:-0.944211 8:1 9:1 10:-0.850746 11:1 13:-0.86 14:-0.9999 
-0.5315254349220855 1:1 2:-0.626466 3:-0.940357 5:0.846154 6:-0.25 7:-0.918246 8:-1 9:-1 10:-1 11:-1 13:-0.9 14:-1 
-64 1:1 2:-0.225564 3:-0.883929 5:0.0769231 6:-0.25 7:-0.894737 8:-1 9:-1 10:-1 11:-1 13:-1 14:-0.99368 
21.12490583972479 1:1 2:-0.81203 3:-1 5:-0.846154 6:-0.25 7:-0.964912 8:-1 9:-1 10:-1 11:-1 13:-0.856 14:-1 
-19.83271994736354 1:1 2:-0.46406 3:-0.714286 4:-1 5:-0.692308 6:-0.25 7:-0.994035 8:-1 9:-1 10:-1 11:1 13:-0.589 14:-1 
21.47076489234768 1:1 2:-0.609023 3:-0.678571 4:-1 5:0.0769231 7:-0.824561 8:-1 9:-1 10:-1 11:-1 13:-0.8 14:-0.9758 
6.673092021718345 1:-1 2:-0.66406 3:-0.910714 5:-1 6:-1 7:-1 8:1 9:-1 10:-1 11:-1 13:-0.92 14:-1 
7.377103860041799 1:1 2:-0.882105 3:-0.681429 5:0.0769231 6:-0.25 7:-0.982456 8:-1 9:-1 10:-1 11:-1 12:-1 13:-0.92 14:-1 
4.963929832031517 1:1 2:-0.721805 3:-0.946429 5:-0.0769231 6:-0.25 7:-0.964912 8:1 9:-1 10:-1 11:1 12:-1 13:-0.68 14:-1 
32 1:1 2:-0.79188 3:-0.970357 5:0.0769231 6:-0.25 7:-0.991228 8:-1 9:-1 10:-1 11:-1 13:-1 14:-0.99912 
