solver_type L2R_MODIFIEDPINLOSS_SVC_DUAL
nr_class 2
label 1 -1
nr_feature 47236
bias -1
w
0.2692619560945757 
-0.3640966066087334 
-0.1525782453920993 
-0.2583374260004169 
-0.1525782453920993 
0 
-0.1903676938090686 
-0.1559482660537976 
0 
0.4073618305496878 
-0.2245977466177277 
0.05728509637057801 
-0.08805208678118158 
-0.02826404693092409 
0.1171558811909824 
0.02891827686108683 
0 
-0.01457601063315231 
0 
0.1457346084556581 
-0.2535186867732417 
-0.2594899522384987 
-0.1997396881461372 
0 
-0.1562095281000913 
0.1850139110337748 
0 
0.123091371807808 
0.1632265452084288 
0.3000319669417659 
-0.1854052074850469 
-0.205480362633635 
0.052521523653004 
0.0791395791824108 
0 
0.06316746487578513 
-0.09468692248259189 
0 
-0.01599716421542341 
-0.298308964543283 
-0.1818858752743862 
-0.05265137666416984 
-0.05282739535862171 
-0.2024328685470735 
0.03251609478268138 
0 
0 
0.1960861631450616 
-0.07855403401486827 
0.03987000282793257 
0.02815312407665615 
0 
0.002519700070490267 
-0.1459704132766215 
-0.110060618284892 
0 
0.0798851200457855 
0.02119928154792495 
-0.03111720232820686 
0 
0 
0.4997139091469798 
-0.02451833328341388 
-0.03218089735127683 
-0.03637989903929204 
0.3257590659672625 
-0.3335332809707743 
0 
0 
0.09094822470392518 
-0.1222449863675803 
0.137772656324756 
-0.2428531850267893 
0.1967918120390755 
0 
-0.1037097266964744 
0 
-0.02012692084267834 
-0.1039830125107886 
0 
0 
0.435002428309455 
-0.1221088564557292 
-0.05560927963179044 
0 
-0.05134916411513275 
0 
0.2022356953173188 
0.0483610463175942 
-0.3644039403753617 
0.01141068718757114 
-0.163996611670209 
-0.03959608268901767 
-0.277046734743792 
0.5352824418011586 
0 
0 
0 
0.00711404927289958 
0.2438211692838408 
0.139259334724822 
-0.1619345997139239 
0 
0 
0.03203451106018096 
-0.1303674700583929 
0.006474186843608385 
0 
0 
0.1625802731612201 
0 
0 
-0.2628913877588471 
0.01508342180644728 
0.1093976984626635 
0 
0 
-0.06461935235762946 
-0.2195012592707553 
0.1303534955121043 
0 
0.2065521178912459 
-0.04213401629187413 
-0.03098373389499594 
-0.04213401629187413 
0 
-0.01041553075794818 
-0.1842572726684441 
0.2749495217866222 
0 
0.2066504083711777 
-0.1094843289150128 
0.03670543276603067 
0 
0 
0 
-0.06552656239847754 
-0.125717938339731 
0 
-0.06552656239847754 
0.136607822954048 
-0.06552656239847754 
0.0406857678655918 
-0.180247886297533 
0.005760109759484644 
-0.04807544124875364 
0 
0 
-0.179630109697914 
0 
0.1172750135854348 
0.2790344978242154 
-0.01888306567207872 
-0.1350168339618108 
0 
0 
0.0405337424268831 
0 
0.008054880585575758 
0.03306220764030977 
0.1536057689699935 
-0.08367728068091525 
0.415771607557443 
0.03759241175667194 
-0.1636282645269909 
0.3369105295929909 
0.2830392777874586 
0 
0.001124075891581221 
0.08780540099915353 
0.2262446783156149 
0 
0 
0 
0 
-0.01427276495320253 
0 
0 
0 
-0.096848276499825 
-0.1880649515926628 
0 
0.01305688098730941 
-0.0004925918546371823 
-0.3696197278396694 
-0.03611653558636339 
-0.0625835367420276 
-0.1275307167297574 
-0.1495871416342671 
0 
0.07661033454278782 
0.146045039737882 
-0.03722330007065579 
-0.04213401629187413 
0 
0.2492498111887167 
0 
0 
0 
0.1370323930882215 
0 
0 
0.15466637979077 
0 
0 
0 
0 
0 
0 
0 
0 
-0.2902385857258142 
0.1008664931593915 
-0.2717798003781914 
0.194899438609274 
0 
-0.250378757682282 
0 
-0.007340437433059482 
-0.338868642048439 
0 
0 
0 
0.03792634115830143 
0.2358950365081176 
-0.1070338242400241 
-0.04230976147566107 
-0.02349142957822667 
-0.07254827598882503 
0.1517006916686739 
0.075548156579898 
-0.149101247270658 
0 
0.071713688848818 
-0.170188340032974 
0 
-0.4132969579973186 
0 
0 
0.02419856775335915 
-0.171597456208522 
-0.1437361391061329 
-0.034666706268518 
0 
0 
-0.006263990251312714 
-0.08866032118253381 
-0.1319038584874593 
-0.3934358803239402 
-0.2855646301786521 
0.06686081032031992 
-0.4310041671911925 
-0.1336951487820129 
0 
0.01928665428616793 
0.06939091440248947 
-0.109976580880937 
0.06394285930562917 
0.08528196325586249 
-0.3346692766851158 
0.179081580958203 
0 
-0.08511055145054723 
0.03889898338212384 
0 
0.0265350257609254 
-0.08355724070476758 
-0.2206834581936712 
0 
0 
0.2359758277044092 
-0.2376782990615488 
0 
-0.4382066286228166 
0 
-0.0921104622211463 
0.265484355714537 
0.1957870030688567 
-0.07776438716486016 
0 
-0.08896994647839383 
-0.02850424394819482 
0 
0.0750106877432405 
-0.1158471789922213 
0.5718066854239637 
0.150125481445419 
0.03218758383578563 
0.06443712647588599 
0.2888782129092118 
0.2916101121394956 
0 
0.1960861631450616 
0.1058169276920175 
0 
0.02198519328193307 
0.005935729162973935 
-0.08669310199497081 
0.1407586426876042 
0.1886647972335027 
-0.007779214376399856 
0 
0.4123188600813455 
-0.04833095426879735 
1.0556615886538 
0 
0.02208872639510201 
0.2270072618295418 
-0.7039314384424514 
0 
-0.0826625302255653 
-0.03586339610303477 
-0.2969473408440599 
-0.07477511562846183 
-0.1022174109974115 
0.07406745901395284 
0 
-0.1819907299196505 
0.3406136695655271 
0 
0.09000417376520359 
-0.141942223672725 
0 
0 
0 
-0.09481282258407375 
-0.07970077337947862 
0 
-0.1733929472466116 
0 
-0.1988075725954169 
0 
0 
0 
0 
0 
0.588362987313463 
0 
0 
-0.01324287050239857 
0 
0 
0 
0.08923769292556838 
0.02230775083755102 
-0.061716757833204 
0 
0.1418867759284367 
0 
0 
0 
-0.1331941474945861 
-0.01352802554230936 
-0.1432517126393755 
0.08970506542752651 
0.007005758948773189 
0 
-0.2164668399407341 
0.05619197413981152 
-0.01018695964295684 
0 
0 
0 
0 
0.07826160290070035 
-0.2403036416215037 
-0.591659796462529 
-0.1180786613463189 
-0.1340744770185927 
0.7546557369598981 
0 
0 
0.05963573178731502 
-0.09398048530453613 
0 
0.06764700992056714 
-0.8869819312203517 
0.2633043497036061 
-0.105673087779048 
-0.08418640479603802 
0.1389305844602484 
0 
0.326590115442393 
0.1827303563161426 
0.1474257009119803 
-0.03695873892357386 
0.013675306189679 
0.08295404014548854 
0 
-0.2537628254768344 
-0.2301459088877495 
-0.6429209439085016 
0 
-0.1422069744095348 
0 
-0.07232665966437983 
0.04093352276365542 
0.1965005149925461 
0 
0.12284869662178 
0.2092379667281977 
-0.06653229544323042 
0.02446887991323937 
-0.1157848799479595 
0.2509567314392966 
0 
0 
0 
-0.1830650508926571 
-0.209120699290455 
0.05022621709425924 
0 
0.2108231141634389 
0.1506695317067661 
-0.1203458923209812 
0 
0.08707199386129265 
0.5291083674261635 
0 
0 
-0.04570136340879886 
0.0570256836811505 
0.2544226474232968 
0.03088115688602041 
0.02402735709432218 
0 
0.04445851902040378 
0 
0.1282574274356295 
-0.1211355954734592 
-0.003300379556603238 
0.2180724769525501 
0 
0 
0.07483447044475552 
0.2195431633707774 
0 
0.001322811845224181 
0.1402297020178596 
0.2849547233182969 
0.04375429068962925 
0 
-0.05933652963703611 
0.0954147223808761 
-0.03218089735127683 
0 
-0.1517411861652669 
0 
0.001895455458331532 
0 
-0.06572405372159336 
0.04338080836144377 
0.2783748522953281 
0.1139095209390411 
0 
-0.1482910281297904 
0 
0.02862913189582893 
0.1539247437434326 
0.07498823416331052 
-0.1283800533841901 
-0.04110097211684811 
-0.004588314982163678 
0 
-0.09079724704401494 
0.002993894438208061 
0 
0 
0 
-0.08108246170472758 
-0.1209164167956315 
-0.04119037535491706 
0 
0 
-0.113373575488569 
0 
-0.001170139999091793 
0.06931654562302776 
0 
0.519489735842952 
0 
0.1016250773133966 
0 
-0.0650661467556384 
-0.1805474686391698 
0.008658101306728895 
0.2606172458876055 
0 
0 
0 
0.1453763598509105 
-0.007249882703235922 
0 
0 
-0.03962408371597996 
0.3369057224832775 
0 
-0.02659893844120226 
0 
0.08814439748297134 
0.3545540604729065 
-0.1564149013170915 
0.0458008918464121 
-0.1817872946602201 
0.1058257406832669 
-0.09147380826535513 
0 
0 
-0.08738301801689193 
0.04854770949477064 
0.1340355310717367 
0.3840260604113842 
0 
0.002449965211596675 
0 
-0.1225419192629744 
0.04058345913453574 
0 
0.2301070213403736 
-0.0404285789029244 
0.3076892846250985 
0 
0.5763768149814102 
0.0605001495873855 
0.04846695162747464 
-0.1260189718426935 
-0.09626141888133484 
0.07463423785237605 
-0.02307871591626253 
-0.07975797231715298 
0 
-0.1239159907025257 
0.008500518959130633 
0.1655531376870684 
0 
-0.04930788035415134 
0.09902111080494549 
-0.07776640089479708 
-0.2658645828786703 
0 
0 
-0.06418270052420923 
0.1588534318420845 
-0.03881122842254928 
0 
0 
0.4432496196059801 
0.439960348293401 
0 
0.3318767579171 
0 
0 
-0.1175688397898386 
0 
0 
0 
-0.0255417513395864 
0.1755462289578515 
0 
0.045402783135564 
-0.05076883342200711 
1.068487772981405 
0 
0.06786541002518218 
0 
-0.04664375121449854 
-0.01227538683845687 
0 
0 
0 
0.09294160181598198 
0.1835532291201957 
0.02938230116348946 
0 
0.2901199408695664 
0 
-0.5264224128497358 
0.03768774554773578 
-0.02484974677378527 
-0.1127805746279585 
0.2090308337462555 
-0.1472970054758022 
-0.01512158117661447 
0.2267599172894391 
-0.05407128116247864 
0.03882770750371588 
0.03291159985018392 
0.1341177286976974 
0.01092503956533316 
-0.1268064896325634 
0 
0 
-0.01418317501676401 
0 
0 
-0.02243588196347274 
0 
0.6747525290209483 
-0.219584743494556 
0 
0 
-0.2041987392468912 
-0.08994623881734994 
0 
0.06074210435303227 
-0.1545712125045308 
0.5519623594834134 
0.07184525647480616 
0 
0 
0.07798584239005814 
-0.01131079691206908 
0.03813180367412719 
-0.2673003708497348 
0.1297337362144188 
0 
-0.07375606143808495 
0 
-0.0362685393563455 
-0.103169312695361 
0 
-0.03342387793588965 
0 
0.1616399648820975 
-0.04315672525781596 
0 
0.05918584460876955 
-0.07837919435383064 
0.14939671805357 
0.08679475197831019 
-0.0750546570043891 
0.03420280839864421 
-0.05980665682018113 
-0.05953481518206848 
0.5567758887787008 
0.08480114266524778 
-0.1081068887480315 
0.06563685722603098 
0.02831679251249465 
0 
-0.008462127039154855 
0 
0.09172398679031636 
-0.7065070865256167 
0.1557812071785556 
0.1315186271109197 
-0.2730510873629297 
-0.1189227357420813 
0 
-0.1394834236787603 
0.237818377373432 
0.05011377503297913 
-0.05943221342404555 
-0.1617594212980661 
-0.9563437434568524 
0.4072828140806682 
-0.2250850997555141 
0.003763505458773284 
0 
0 
-0.1035589844865167 
0.2421760241214486 
0 
0 
-0.1994985344746392 
0.0631017575998235 
0.08889386547571169 
0 
0.03019592978524694 
0 
0 
-0.3424469627010923 
-0.4267588177521114 
0 
0.01922908266206261 
-0.197175788493386 
0 
0 
-0.1689192931460209 
0 
0.2329413217444855 
0 
0 
-0.2800017373405385 
0.01362262149374566 
0 
0 
0.02311882271963451 
0 
0 
0 
0 
0.02245514365393621 
0.143222731348671 
0.1909465309725615 
0 
0 
0 
-0.0292168810653849 
-0.008660665295544247 
-0.9800528119122532 
0.1784263857267803 
0.02310027723103273 
0.01327004973765062 
0.006742708283745887 
0.10104155390406 
0.03899553066036497 
0.08854194786940518 
0 
0.100194065931311 
0.05512964593648356 
0 
0.03085920157452782 
0.1544254440642555 
0 
-0.03858704432651046 
0 
0 
0.06787925636337175 
-0.03006306917896533 
-0.132756302921716 
0.2802180862083706 
0 
-0.194408372496331 
0 
0.07753803447848051 
0 
0 
0 
0.6572566884935178 
0.3172737695728757 
0.1522716208814881 
0 
0.1120937436567483 
0.009721186259154109 
0.061968285930222 
0 
-0.05564040536809459 
0 
0 
-0.05866762269266858 
0.2565481691873512 
-0.05285392671257347 
0.2045284298725382 
-0.07161517565329296 
-0.06901326997052858 
0 
0 
0 
-0.1311784023963045 
0 
0 
0 
0.1370690324635034 
0 
-0.3891955958067886 
0.217050850453266 
-0.3320350280495038 
0.05649254768146013 
0 
0.3732309740695422 
0 
-0.181504004471276 
-0.1434526755411336 
0 
-0.2486177143072752 
0.2295772398017348 
-0.1433273970919625 
-0.1942346187146345 
0.2014762796686168 
0.1137844639145309 
0 
0 
0.2136782036705783 
-0.03240385219873903 
-0.103290527714312 
0 
0.125539507583559 
0 
0 
0 
0 
0.006976182235439493 
0.08528196325586249 
0.09900853081605275 
-0.1430109323309654 
-0.1647665394840125 
-0.3191188849298047 
0.1215768261906766 
0 
0.05512957860970869 
0.02657600928701104 
0 
0 
0 
-0.02918387556040624 
0 
-0.002537757138013507 
0.05947744270051404 
0 
0 
0 
0 
0 
-0.06006900922618151 
-0.08083627210229498 
0.03400925654330738 
0.2251152234906326 
0 
0.1853991141598721 
-0.008632514987189706 
-0.04632336671555069 
0 
0.03128622135795463 
0.2971869462691656 
0 
-0.1673207573766621 
0.03921523000895741 
0 
0 
-0.3131241298170558 
0.2058318966924306 
-0.213090035790332 
-0.3265427275865345 
0 
0.03468062667975729 
-0.3348571600591742 
0 
0 
0 
-0.9861074762899551 
-0.4126909561192739 
0 
0 
0 
0.2767429504838304 
-0.09624739178116967 
0.05866519759121312 
0 
0.0100020682712589 
0 
0 
0.1410203318547928 
-0.03031948384540269 
0 
0 
0 
-0.0088781789375314 
-0.1026301299986268 
0.03653312191196526 
0 
0 
0.1443949156392805 
0 
0.03169651416380857 
0 
0 
-0.01979206688244047 
-0.1157046436405161 
0 
0 
0.08844587533616702 
-0.03135460423660562 
-0.1747370585227839 
-0.03954286122693536 
-0.02998869398295613 
-0.2023592504478736 
-0.1386610803083599 
0.06951772536560437 
-0.1724256460455181 
0 
0 
0.08629670010241837 
-0.02639692335102352 
0 
0 
0 
0.05801181877912456 
0 
0 
0 
-0.1423946905602669 
-0.09923169191939339 
0.1692471105957336 
0 
-0.02250982823239128 
0.0996015859074275 
0 
0.3225792867291032 
-0.145612522814915 
-0.3193989133381441 
0 
-0.0583326938766213 
0.05523651457077151 
-0.1405504855679535 
0.05611289016618828 
0 
0 
-0.2996782384478333 
-0.1629183360152479 
-0.03382520324439458 
0.03776282362212149 
0 
0.255139440596465 
-0.04241106840982786 
0.01936154418706468 
0.2850473920635089 
0 
0.136607822954048 
0 
-0.150351650488395 
0 
0.2114166933502253 
-0.1174146564363705 
0.537248629736871 
0.1695945645033975 
0.0523453658664917 
-0.0486351350316526 
0 
-0.002692540709409758 
0 
-0.06089376638632113 
0.107685173456968 
-0.0957668456380389 
0.1083830899014267 
0.2391645038570241 
0 
-0.1538296217964424 
0.5384042708272425 
0.0672990956672735 
0.2128227740502558 
-0.08026082217432386 
0 
0.05918584460876955 
0 
0 
0.04023906540696264 
-0.4259555282157814 
0.1475217204514934 
0 
0.1277147062780568 
-0.02776228060142991 
-0.009807085163086723 
1.13770971676724 
0.1740883680439897 
-0.2441832607036678 
0.03864248550951002 
0.07881594178076674 
0 
0 
-0.3704387765596424 
0.3627329230994476 
-0.004398263849156536 
-0.1738517371227385 
-0.1694413728534212 
0.09774043833443474 
-0.1257429293736524 
0.07940525794952567 
0.01639886672104898 
-0.09911321766590692 
0 
-0.3122286501264182 
0 
0.052521523653004 
0 
0 
-0.2234388623067021 
0 
-0.07133909089025371 
0 
-0.07605284611262211 
-0.1335005467089614 
0 
-0.008453261258160248 
0 
0 
-0.05693313516298112 
-0.03006738808515022 
0.01474498222627677 
0.123922513454649 
0 
0 
0.2373279408651784 
-0.1622438242964642 
0 
0 
-0.0275847892279523 
0.06572205044214612 
-0.03930828878410635 
0.2331230148769708 
0 
-0.2894452404507116 
-0.06985610715267478 
0 
0 
-0.07596854480292049 
-0.09295808873219299 
0.136607822954048 
-0.216201889427749 
0.07874360702922728 
0 
0 
0 
0 
0 
-0.1521241059788481 
0.6824079067415144 
0 
0 
-0.1630439956207231 
-0.01851473064512639 
0 
0 
0.01106697302918486 
-0.06552656239847754 
0.169643300240437 
-0.149092812995482 
0 
-0.06552656239847754 
-0.06552656239847754 
-0.1171440539645504 
-0.0827075591700721 
0.1785795372196422 
0 
-0.02131681463489755 
-0.0241319912775874 
0.1040581677326842 
0 
-0.342070704731421 
0.003603988652798632 
0 
-0.1104469427683034 
0 
0.073552630725715 
-0.2539229659401085 
0 
0.05379871948209876 
-0.1197784233454931 
-0.08243417734955075 
0 
-0.1310158357589933 
0 
0 
0.1149755674369066 
-0.08936252929102526 
0.04276503413421474 
-0.1398251987505537 
-0.1722244377743375 
0 
0 
0 
0.165264838738679 
0 
-0.06967066826403399 
0.002259821372252132 
0.1219022830630724 
0.008243627467850203 
0.3314835792559852 
-0.0522584441994567 
0 
0.02226128748950721 
0.1289896453819922 
-0.003411515074404016 
-0.1600605539320849 
0.4074258351870311 
0.01422515093648583 
-0.06552656239847754 
-0.02843662902860385 
0.2169559705481625 
0.01041498100803153 
0 
-0.1010978305983224 
0 
0.01998825001388948 
0 
0.01836462145379655 
-0.2030305379428862 
0 
-0.538848779885204 
0 
-0.481030638167185 
0 
0 
0 
0 
0.1954789720810761 
0.02025422778494192 
0.2849685311509477 
0 
0.2908250263132474 
0.1625175211079806 
-0.0166048599709989 
0.01780928905073572 
0.1555625862922761 
0.08038780101775807 
-0.07480728677764341 
0.2997372043810161 
0.1654764684202903 
0 
-0.06383160369991117 
0 
0.0746552378413855 
-0.3269133730132693 
-0.1694570698193029 
0 
-0.16333564990236 
-0.0760605947812721 
-0.02533010070692197 
-0.064357481713187 
-0.176428088019345 
-0.1899605481868009 
0 
0 
0 
0.2187599402158988 
0 
0 
0.2625042974329261 
-0.1041875861941665 
0 
0 
0.1688513688470209 
0 
-0.1001052377162409 
0.08924963721885165 
0.03430461075889163 
0 
0 
0 
0 
-0.06130759438807888 
0 
0 
0.03936303965261296 
0 
0 
0.224548653610256 
-0.02015856286332194 
-0.1504988065526416 
-0.07450613987123057 
0.01397198939827695 
0 
-0.005744214956668273 
0 
0.259712668887461 
0.009801355165540915 
0.02859153917164225 
0.09112798455323196 
0.2539378116193722 
0.03617034652231845 
0.2354891243683813 
0 
0.00223885018781687 
0 
0 
1.892756243954246 
0.01570664472787446 
0.04631937096660943 
-0.02032506421590833 
-0.02308767374716781 
0 
0.4183173658793185 
-0.4285384199592817 
0 
-0.1947718696446443 
-0.2168548759683737 
-0.1293854456749102 
0 
-0.1482896798042657 
0 
0.1235064733964362 
0.0003780169633902448 
0 
0 
0 
-0.1429108331312698 
-0.2486533122475191 
0 
0.07244819984645202 
-0.0595267219331251 
0.052202173196655 
-0.07123664183405946 
0 
0.1504561548628634 
0.2896382390853659 
0 
0.114665155207334 
0.1349966943059343 
0.05795397328106867 
0 
0 
0.1101941543978292 
0 
-0.2740648482433257 
-0.2339223523374869 
0 
-0.2861135785578163 
-0.225043396070654 
-0.002038423130734767 
0 
-0.002038423130734767 
-0.2504240094620815 
-0.08026082217432386 
0.5600778408978254 
-0.08699299679961064 
0 
0.02731110707630434 
-0.06868965980495507 
0 
0 
-0.249246277215118 
-0.09160704884494224 
0 
0 
-0.05266925253845502 
-0.1711712588605483 
-0.1167191962361273 
0.3541186744331337 
0 
-0.04823620181155233 
-0.200520427213189 
0.03249694051492272 
0 
-0.1342429463328188 
-0.04901646320929764 
0.08134854519998296 
-0.2039581326857685 
0.1602505924248141 
-0.05823914293320805 
0.09031590249849654 
0 
-0.06552656239847754 
-0.1954792840898228 
0 
0.06686081032031992 
-0.03289655391189513 
-0.005744214956668273 
0 
0 
0 
0 
-0.07721379558170666 
0 
0.06638605406690516 
-0.07345678683285689 
0.01362262149374566 
0.04128635293810879 
-0.2499764670540923 
0 
0 
0.05401334092448667 
0.1855996586855728 
-0.07346171871459338 
-0.02179687549920563 
-0.08942025557553987 
0 
-0.04047634441156937 
0 
0 
0.02040857303832267 
0.2566124239232974 
0 
0.04868219990590599 
0.1511445214541869 
-0.143813878413124 
0 
0 
-0.1251796598610888 
0.08485915604423284 
-0.0945327098677287 
0.06391439169202449 
-0.01983497732886391 
-0.2692037571041735 
-0.01352802554230936 
0 
0.1127743830033898 
0.3547030859638304 
0 
0.2089327386981534 
0.2214896025053582 
-0.02627147914538764 
0.008387767236941011 
0.05360612070439184 
-0.232981554993127 
0 
0 
-0.05082104306658666 
-0.3065175011061715 
-0.01789949051405408 
0.1727301341025047 
-0.1751379440744036 
0.04738531610964716 
0.004519566628168541 
0 
-0.1558325132741957 
0.2776752320358791 
0.5918265253292 
0.002024083955638372 
-0.189310606045234 
0 
-0.1896008890768455 
-0.1615620545311423 
0 
0 
0.03034439021981294 
0 
0 
0 
-0.7464870137136884 
-0.89972333411863 
-0.05580347492353713 
0 
-0.009238820593835373 
-0.6086348086314667 
0 
0.058735935091619 
0.2518818294279909 
0 
0 
0 
0.1539816595405789 
0 
0 
-0.01528374824354142 
0 
0.2679769354041699 
0 
0 
-0.09828331580994525 
-0.156906390230885 
-0.01944357272099197 
-0.4328667817434622 
0.158873887806005 
-0.09468962970967461 
-0.04665940317018211 
0.1118617863390185 
0.07696003812018767 
0 
-0.01874597559680171 
0 
0 
-0.1612227482493866 
-0.08928696676111481 
-0.1181144397961236 
0 
0 
-0.05302119860668875 
0.001124075891581221 
0.09346630453208439 
-0.04742926505973551 
0 
-0.0161505933446876 
0 
-0.003470183466220994 
0.0634853649324659 
-0.2682573256860011 
-0.01979206688244047 
0.02411028041353149 
0 
-0.0625882638068076 
-0.08176899623840336 
-0.03666951290639949 
-0.07482822044287477 
0.3426278290736182 
-0.119988325712778 
0.2256447605062167 
0 
-0.05599114153539424 
0.3840523738596094 
-0.151175976032331 
0.01143091373669992 
0.2189094823575077 
0 
0 
0 
0.1251955838175661 
0.1033558403724932 
-0.05787385167306697 
-0.04125007189385244 
0.01132545875241391 
0.04457151002835893 
0.1059797321397725 
0.2085802337776684 
0.6632978862883073 
0.03900254022012305 
-0.051576863578273 
0.1071615622789266 
-0.006325191656948638 
-0.08761298029129659 
0.105502875846876 
0 
0.1062327807618711 
0 
0 
-0.1090117361702752 
-0.2658083313211729 
0.01261894279832696 
0.09598640789391434 
0.1625191158976583 
0 
-0.2486551156504862 
0.249266170190188 
-0.1621718904829794 
0.137772656324756 
0.06504922502463585 
0.123192639723608 
-0.04777274979406589 
0 
0 
0.3956500623711087 
-0.08818362705712639 
0.02519304906933308 
0 
-0.2375384277892102 
0.183799923744399 
0 
-0.05994618071019624 
0 
0 
0 
6.505213034913027e-19 
0.4630603007355096 
-0.192721209849699 
0.4813688724967792 
0.1940499496961458 
-0.04119037535491706 
-0.108946034933587 
-0.04857524113169185 
0.1561306141676612 
0.1395505145736996 
-0.1173981408607893 
0 
0 
0.1687463677892183 
0.243616001933677 
0.1567710712723772 
-0.1616968464686794 
0.0003199985268753154 
0.0003686154239344488 
0.1251252898761179 
0.01433981101549694 
-0.04078088603304105 
0 
-0.05052421575538089 
-0.01823817216893936 
0.1201908362760038 
-0.1190866007657446 
0 
-0.00707751225545598 
0 
0.04616647003168645 
-0.3647316950796858 
-0.05570379078959715 
-0.05570379078959715 
0 
0 
0.03073021181607586 
0 
0 
0.06957707588198883 
0.003806737921196973 
-0.1915626376986125 
0.4229307232649684 
-0.1214769832049057 
0 
0.1196933443975034 
-0.12053759115521 
0.08916807413744614 
0.2010768651937686 
0 
0.01318105744683245 
-0.08395538143701585 
0 
-0.1314564832746555 
-0.1653364292325553 
0.0373536059216831 
0.1912437358783191 
-0.01881914407867266 
0.3466661475602264 
0.104013708222984 
0 
-0.590474845702805 
0.0194961896593085 
-0.01048393906096847 
-0.08812176893465568 
0.0727372584391185 
0.5372189324272035 
0 
0.06633341808655456 
0 
0 
0 
0 
-0.05607709671807941 
0 
0 
0.1613405624358178 
0.1348923427383511 
-0.08004720867242193 
-0.0522584441994567 
-0.006760368065340562 
0 
-0.01665317827142869 
-0.03489850823398769 
0 
-0.1924935578557645 
0.102985722689297 
0.01752348693379003 
-0.15895039794142 
-0.06455203806490642 
0.04043456870314339 
0 
0 
0 
0 
0.5640888707828576 
-0.2653566090836297 
0.3161738889190702 
0.1887380877497657 
0.04310013598069243 
0 
0.02389549600451846 
0.1361261301109505 
0.01766014238599049 
0.03441709189858193 
0.1783996988997953 
0.5392769455604981 
0.003963584692245205 
0.09902111080494549 
0.4905823195977975 
-0.1841711034810552 
0 
0 
0 
0.144860050423054 
-0.2761996732293276 
-0.1179263564999865 
0 
0 
0 
0 
0.140678448920553 
0.03122491514405209 
0.4446796086156287 
0 
-0.11870830636437 
-0.3488294582799685 
0 
0.0448084688783455 
0.1619957108520956 
-0.08946065919052866 
0.02769732802758547 
0.03056725463418764 
-0.04623254368321419 
0.147129188224021 
0 
-0.170188340032974 
0 
-0.003940157706512355 
0 
0.09864650269678682 
0.03790931675774945 
0 
0 
-0.2058882656603706 
0 
-0.1867938885355305 
0.4148922434641826 
0.3691787179957864 
0 
-0.3006985807542484 
0.03195595357550295 
0 
0 
0 
0 
0.12404701143953 
0 
0 
-0.3420669649379676 
0 
-0.2164915030271335 
0 
0.0566885021947375 
0 
-0.6364323062422613 
0.04997549650580453 
-0.1379633871889766 
-0.2104588756728273 
0.02937771234627254 
0 
0.07333437708580801 
-0.09617120450825919 
-0.1824828968751682 
-0.01607498717487126 
0.140963954944729 
0 
0.00471538593578851 
0 
0.1252258039636216 
-0.322216344711874 
0 
0 
0.1618640691454057 
0 
-0.009812091425697713 
0 
0.1536880466882763 
-0.1274312781432981 
-0.131721262525154 
-0.330944795245695 
-0.136528261222697 
-0.1579541295141069 
0 
-0.1480239300550399 
0 
-0.04159546502997293 
-0.09645842181817041 
-0.1317550525448597 
0 
0 
-0.06572405372159336 
-0.05339559062601501 
0.102821046116392 
0.1098174748164378 
-0.08974350870108387 
0 
-0.3433490769999729 
0.08017165490829274 
0 
0 
0.5284708384673695 
0 
0.4905056819137857 
0 
-0.1874228624046547 
-5.551115123125783e-17 
0.7449398522303442 
0 
0 
0 
0.1401506914536919 
0 
-0.1313777732751723 
0 
0 
0 
-0.01626128884715847 
0.172129186925071 
0.2728965732237126 
0.1792385955846706 
0 
0 
0 
-0.111661963228525 
0.03783704107973656 
-0.1685217933118857 
0 
-0.3405801937148789 
0.3591574816822933 
0.07948750608821686 
-0.1033634951356399 
-0.01881914407867266 
-0.0204849810154892 
0.0001889962848767116 
0.0001889962848767116 
0 
0.3258041146676751 
0 
-0.07819332096826208 
0 
0 
0 
0.3548391174717785 
0 
0.1554814907367832 
0 
-0.03044062302119483 
-0.0653263873141524 
0.0625812565673465 
0.8094811289273518 
-0.03056218531526517 
0 
-0.04319265521535082 
0 
0.07887777544661578 
-0.1744830540169697 
-0.02417903514810965 
0 
-0.01273907894204625 
-0.06007152294724487 
-0.1568251025317972 
0.1697617174563883 
0.01256411157419876 
-0.01746621463714847 
0.1431390333099105 
-0.08684361069524446 
0.200660872035469 
0 
0 
0.08062738685078251 
-0.1479088761696915 
-0.1372890208496967 
0.08275962497317403 
-0.03133682912209093 
-0.05922764053201716 
-0.04522115549497933 
0 
0.1103129885004645 
-0.07751549096042093 
-0.06430459668919361 
-0.009318025793036245 
0 
-1.387778780781446e-17 
0.00146847982700794 
-0.02604954233172303 
-0.08085836266653423 
0 
0.3191743872827396 
0.001134935671039475 
0 
-0.4057857021040353 
0.005282668095789477 
0 
-0.07247789280297355 
0 
0.08141145455929 
-0.151645396904154 
0 
0.02274771340472872 
0 
0 
0 
-0.0005425656756002623 
0.05076196521238591 
-0.1243004022858933 
-0.1040273765499531 
1.137883266601772 
-0.1960360414475971 
-0.003444426213925196 
0.08107083438949546 
-0.2965442361405489 
-0.04849414726136626 
0 
-0.01062173369067444 
0 
0.05555136229790848 
0 
-0.05541816288308433 
-0.235092246198939 
-0.2238284874236323 
-0.3211824528446545 
0.1956668910653408 
-0.03850058522430777 
-0.03480997436854043 
-0.08007484069036414 
-0.1002292965828238 
0 
0 
-0.0566267701527867 
-0.09054110345125907 
-0.2198184172541174 
0 
0 
-0.02908343430861864 
-0.1265240225893031 
0 
0 
0 
-1.387778780781446e-17 
0 
-0.09718480811169672 
0 
0.17805023908078 
0 
0.01998825001388948 
0 
0.03551452985260582 
0 
0 
-0.1926601222045962 
0.2049940332285442 
0.1852475047287109 
0 
-0.1140121625579121 
0 
0 
0 
0 
0 
0 
0.05119670385224874 
-0.03049601900380773 
0 
0 
0.02393479986061274 
-0.4173096564166717 
0 
-0.7342305836943043 
-0.07508569021841205 
-0.03795067576327273 
-0.2264285058640574 
0.1013875596084139 
-0.033395005176643 
0 
0 
0.240460535984188 
0 
-0.1419980767475058 
-0.1175708478266537 
0 
0 
0.576760481223249 
0.2014044954545579 
-2.775557561562891e-17 
0.005044736324561928 
0.09329122588815411 
0.03884795037145385 
0.3449084886867749 
-0.2742040155047664 
0.2126401726911517 
0 
0 
-0.07489684229312715 
0.2005890236157657 
0.07977885415230332 
-0.07053969256284796 
0 
0 
-0.08750635988122583 
-0.1450163532883876 
-0.3047602189013663 
0 
0 
-0.271471306482223 
-0.3253078883622826 
0.344280491959095 
0 
0 
0 
0 
-0.3620842616262622 
0.390597594262094 
-0.159621412471588 
-0.1038057096679049 
0.007187331308357128 
-2.775557561562891e-17 
-0.06528277595986513 
-0.234407475758381 
0 
-0.005744214956668273 
0.03040384788653985 
0.137109143152411 
-0.07884869234814745 
0.00874076740915441 
-0.1061450268956318 
0.09429398372055717 
-0.0361184443147617 
0.02290707528443123 
0 
0.1424331968761326 
-0.3549143226537263 
0.01066320623108781 
0 
0 
-0.1457791779037594 
0.1146635084040173 
-0.01979206688244047 
0.05310367378074016 
0.01362262149374566 
0.0103832157392926 
0.2956930129854963 
0 
-0.01470542111116047 
-0.1956879046685213 
-0.08442111334845744 
-0.08487929588616619 
0 
0.208432769895833 
0 
0 
-0.2273936577454087 
0 
-0.06272134589813859 
-0.03556696867408422 
0.08829756732081893 
0 
0 
-0.03805816928154875 
0.2959229103173864 
-0.1629193844940437 
-0.05198390818158145 
0.4506878978977383 
0.3569004381047913 
0.2253856927971241 
0.171928652824309 
0.8529404256833157 
0.07600315099129085 
0 
-0.06247766857311107 
0.9037995243542026 
0 
0 
0 
0.4366395227730369 
0.0494648681563931 
-0.01524655979069062 
0.05557718353112696 
0.09035632391239549 
-0.084133560693454 
-0.1320621080315328 
0 
0 
-0.04072797817208246 
0 
-0.128826039793218 
-0.1091032278535143 
0.0001889962848767116 
-0.07748395024870046 
-0.08928696676111481 
0 
-0.01866568210456359 
-0.2196780285668553 
0 
0.03584694445484356 
-0.04751066038774943 
0 
0.07975109111464428 
0.1907658930029017 
0.01827046684457071 
0.3756426463002673 
-0.3123127601821625 
-0.5432341292275299 
0 
0.1320513223973651 
-0.1026082443569095 
0.2104180353886224 
-0.07152190677389669 
-0.06926431120982567 
0 
0 
0 
-0.2190239697010082 
-0.1335525354346776 
0 
0 
0 
-0.01973669545085643 
-0.09115997892798222 
0.0004237635626913683 
-0.0563441220787645 
-0.2404411855351464 
0 
-0.04908452553854579 
0.05446519812643062 
-0.68279900991055 
0 
0.1424467896594159 
0 
-0.08719502635225708 
0 
0 
0.1158376995095629 
0.09799726769199299 
0 
0 
0 
0.1529265048845506 
0 
-0.03105472951667631 
-0.1165621383970949 
0 
0 
0.06600486954477996 
0 
-0.1564174704806449 
0 
0 
0.06279175984414199 
0.5484455412158323 
0 
-0.0362092528588113 
0.07763982889709291 
0 
-0.210925482496724 
0 
-0.2083936994850649 
-0.1070126496117106 
0.05318721561875191 
0 
-0.07983158953655629 
0.08422623558310768 
-0.02902522603624591 
-0.127779600802382 
-0.3806501420055102 
0 
0 
0 
-0.1274312781432981 
0 
-0.06552656239847754 
0 
0.1342495977366465 
0 
0.02998901870351606 
-0.437226008415754 
0 
-0.1042050210460012 
-0.08634208682023627 
0 
0.02046533169185075 
0 
-0.09543754227227923 
0.4919577893629138 
-0.005913045514563415 
-0.505441602296857 
-0.08846342135957781 
0.3932228022520689 
0 
0 
-0.07226803958382776 
0.01986491069383705 
0.167553260377683 
0.1115384880374802 
-0.065259507348193 
-0.01546375123119152 
0 
-0.04702429129514343 
-0.009644090728353471 
0 
-0.06010373225615533 
0.061968285930222 
-0.05041289322739343 
-0.187023399722705 
0.2388227310798701 
-0.06109237294484018 
-0.09201781462334001 
0 
-0.09149508345314911 
0.05043919078230701 
0 
0.4908492384439834 
0.172757425731659 
0.07096806826789108 
-0.1172303333722833 
0.1946676347552415 
-0.168653246306345 
-0.09779802858846731 
0 
-0.139476834753151 
0.6653985294178926 
0 
0 
0 
-0.16477203717605 
0.121053035229078 
-0.02892692198524169 
-0.09904812543999758 
0 
0.08689686869121652 
-0.1000034947884036 
0 
0.4655327541182527 
-0.3266862163030438 
0 
0 
-0.02816891536355892 
0 
0 
0 
0 
0.09902111080494549 
-0.03744726791228212 
0 
0 
0.03040384788653985 
0.005293689201404172 
0 
0 
-0.3749955361442986 
-0.1106841907209776 
-0.1647961661162416 
0 
0 
0 
-0.1934092683898044 
0 
-0.0553908822367247 
0 
0 
-0.02378376710555145 
-0.09090414863959817 
-0.1529999957148103 
0.1522371023678362 
-0.07433237698808288 
0.06089256033075773 
-0.1353995722512426 
0.05847412078214731 
-0.2984719318891276 
-0.02126225802484347 
0.168789790971088 
0 
0 
0 
-0.198112865343138 
-0.0616068794965082 
0.3406046090940849 
0.3112183496431751 
0.03513695776298217 
0.02467865500803654 
0.05382814325376086 
0 
0.02038665663215319 
0 
-0.1003537968615359 
-0.02346793628428383 
0 
0.04750608826527278 
0 
0.3463473903695199 
0.3732726021122122 
0 
0.2917287829847221 
0 
0.2878945777918778 
0 
-0.06231927468001107 
0 
0.002675634553911873 
-0.2414784611239944 
-0.07414135682088799 
0 
-0.05937506610382193 
0 
0.5372109292738073 
-0.158886648502046 
-0.4083790164492043 
0.1544533890983584 
0.864042235027446 
0 
0.1808435171963552 
0.2461198989035793 
-0.2943368063912021 
0 
-0.2752592382708595 
-0.04411835087989328 
-0.01674806085049276 
-0.05977534368246117 
0.136836482208009 
0.0476846972704647 
-0.1710315614715874 
0.0182044872666902 
0.2417124147084378 
0 
0 
-0.7311744649925765 
0 
0.06390973667657618 
0.0519483253829111 
0.4892735589664355 
-0.209319951667325 
-0.02892692198524169 
-0.0262296438478407 
0 
0.1239482962792038 
0.1132043771902971 
0.2566124239232974 
0.04950047472987299 
0 
0.006367422213625091 
0 
0.07036504871870961 
0.0542336990955795 
0.127084917355988 
0.2024663880177467 
0.2271672693419567 
-0.08716557189094276 
0.01401905950042369 
0.1468445085226158 
0 
0.07816820584131623 
-0.09079635853810196 
-0.3769469574927566 
0.04504852163803116 
0.2582158723964093 
-0.0768105589146285 
0.2651155754934071 
0.3130502219459195 
0.2930332530526676 
0.153057637919264 
0 
0.1022111063714697 
0.04367783623175168 
-0.28624935438402 
0.223893851441822 
0 
0.004985322348516191 
-0.04635452222178623 
-0.3618900454098661 
-0.07011790622568821 
0.04373385635477911 
-0.2134910762879489 
-0.08838029140417362 
0 
0 
0 
0.0213838904215593 
0 
0 
0.07535837881123589 
-0.09590499213765959 
0 
0 
0.522176031597699 
0 
0 
-0.1157582776344765 
-0.1228639087987036 
0 
0.0665335720073445 
-0.5039918537819075 
0.02492141916889095 
0.1513464736645221 
0.2467191108642722 
0.380424696996248 
0 
0 
0 
-0.09217743845667871 
-0.07184367111142151 
-0.193513677885059 
-0.06959168514617219 
0 
0.01141068718757114 
-0.3618618834469232 
0 
0 
-0.07802131085131842 
-0.1384678639985092 
0.1453175567526021 
0 
0 
-0.01944357272099197 
0 
-0.08281337578010203 
-0.09926945910851763 
0.1577067227552977 
-0.2220913854284675 
-0.09288535718328833 
0.1032128360533097 
0.1511010127948449 
0.4809657279203617 
-0.1732178198612778 
0 
0 
-0.1215886695157413 
0.1175160510068049 
0 
0.165052227405521 
0 
0.01973868432582792 
0.08689686869121652 
-0.03414415666017982 
-0.110226681899196 
-0.0965666703606468 
0 
0.03086069282661401 
0 
0 
0.07255117686362422 
-0.025204308694647 
0 
-0.2442179283844329 
0 
-0.02681211130228808 
0.03670543276603067 
0 
-0.0595267219331251 
0 
0.07847357453232164 
-0.1624875355409831 
0.09960236050599927 
0 
0.05124426835267103 
0 
0.1199635523771243 
-0.1378213468791002 
0.0751913917919295 
0.2404492674452283 
0.2184352867685183 
0 
0 
-0.191393417472301 
0 
-0.06239767570830829 
0 
0 
-0.1889535826098745 
0 
-0.132583746755209 
0.07169805115206114 
-0.1750202380228568 
0.08363988530621076 
0 
0 
0.1621466498458192 
0 
0 
-0.0250293140265977 
0.03020202183664446 
-0.1800721717556933 
0 
0 
0.0310590274172318 
-0.05556331989374146 
0 
0.1536057689699935 
0.01100927258139803 
0.1386730310047571 
0 
0.0672010450733085 
-0.478053801990192 
-0.08860589283291399 
-0.2085819017948784 
0 
0 
0 
0 
-0.0159682073141488 
-0.1796083999301436 
-0.1559407312810403 
-0.4765648385630803 
0.4640336724519399 
0.001879973866513174 
-0.08407200280271106 
-0.04694289763798827 
0 
0.2328172218860574 
-0.09189869438493439 
0.068005848438454 
0.0922097661981077 
0.1071615622789266 
-0.156442418350522 
0.0486086715998692 
0.1109053086147334 
-0.07324624729001548 
0.1457162813115156 
-0.06972252420569842 
0 
0.1389145364087439 
0 
-0.3946937806114079 
0.01414951636359795 
0.1639244440948196 
0.1804657156378716 
0 
-0.09463274494963746 
0.5824766222794716 
0 
0.07364493637108148 
0.3440200763213265 
0 
-0.126896607229569 
0 
0.188133309200218 
0 
0 
-0.1916124757099154 
0 
0.228890887219273 
-0.7369217297962987 
0 
0.2622910953019812 
0 
0.234856813765135 
0.008037526216551127 
0.1329648650403395 
-0.01608986187612717 
0 
-0.09824996769804116 
0.01981849360836426 
0 
-0.144172164777183 
0 
0.5153838764652271 
-0.02020637255037199 
0 
0 
-0.02458554823664365 
0 
-0.53730324565748 
-0.1292481605330901 
0.04100395756351239 
0.02198168821470701 
-0.1609093220245274 
-5.551115123125783e-17 
0 
-0.05801478345485495 
0 
0.04605969480117329 
0 
0 
0 
-0.09904812543999758 
-0.08894737582897008 
-0.06409389826957082 
-0.03261222748159517 
0.1450020227000267 
-0.1129024837953446 
0.03903106532168694 
0.3593817429974905 
-0.5907064070788063 
-0.1175708478266537 
0 
0 
0 
0 
-1.387778780781446e-17 
-0.09399236503678329 
0.217191239019781 
0.1654598673247163 
-0.338462804578359 
0 
-0.2858331889004631 
-0.02023901712590631 
0.1808753132856303 
0 
-0.04667345064088695 
-0.510074271741126 
-0.13912677587097 
-0.03228584088799607 
-0.0659347784146376 
-0.05457881136402995 
-0.1070870576414614 
0 
0 
-0.1828187211968515 
0 
-0.1733234318587281 
0 
0.4820372090403496 
-0.05129432127105397 
0 
-0.7197246902537886 
-0.08467429768149526 
0.174305013654705 
-0.3774483921589215 
0.09431214292276015 
0 
-0.1132434870350756 
-0.08910291661563512 
-0.09733882484825623 
-0.7108839359385745 
0 
0 
-0.06239767570830829 
-0.0925620385245145 
0 
-0.1350434270084059 
0.04312150265900774 
-0.2457358483380613 
-0.2999628654215019 
0 
0 
0 
-0.07779204022730417 
-0.05083562582157474 
-0.02691149227178153 
-0.09565161258874337 
-0.197879452909327 
-0.03340191827817251 
0 
0 
-0.1801448118986585 
-0.03363821938324273 
-0.291094739323301 
0 
-0.05212522175015504 
0.04071351093955022 
-0.08373748704424698 
0.007619886427385297 
0.0006970394636020725 
0 
-0.01768091606188147 
-0.1373695430071565 
-0.28478301306159 
0 
0 
-0.2651542788645243 
-0.28478301306159 
0.2076133765519519 
0.06323492378465276 
-0.08107140958850953 
-0.256757976213162 
0 
0.02954663443145969 
-0.02998869398295613 
-0.1916913643283035 
-0.06138853368323622 
-0.01944357272099197 
-0.5288455098877612 
-0.1697122336036517 
-0.05524485017720621 
0 
0 
0.0001889962848767116 
-0.4668377851375697 
-0.2385665508241854 
0 
-0.2149735243413231 
-0.2059037545052251 
0.04752297650209044 
0.002525760795939175 
0 
0.01248448929942803 
-0.07909632204692964 
0.04136614493186841 
0 
-0.2616631247151409 
0 
0 
-0.1529888294859637 
0.3208384799191138 
0.05162186106231573 
-0.07500601960941468 
0 
0 
0 
0 
0 
0.22233830841158 
0 
0 
0 
0.02038055102695231 
0 
0 
-0.0279112138948346 
0 
0.02490977516549717 
0.123339397261454 
-0.3692055785418809 
-0.09536127059303162 
0 
-0.04619843456549656 
-0.02289610988526307 
0.08218469110603933 
0 
-0.1034621281559512 
0.161525730422883 
0 
0.03658233672953692 
0.05162144664864438 
0 
-0.07955622039087433 
-0.1291874551164937 
0.2043409118327684 
0 
0 
0.1327366925730346 
0 
0.04435090183519872 
-0.1291874551164937 
0.2772775140721519 
0 
0.03108412731961815 
0.03388290548656094 
0.2283811950240387 
0 
0.05396745276844056 
0.1176047222705926 
0.03380440330011149 
0 
0 
0 
0.0345646971844854 
0.00857559594731498 
0 
0 
0 
0.124831101734035 
-0.03098373389499596 
0 
0.2892078598556778 
-0.07805908331383149 
0 
0.04058345913453574 
-0.1217815050694489 
0.105502875846876 
-0.3026010793648737 
-0.1182346971470593 
-0.06302530398253975 
0 
0 
0.4947658350852037 
0 
-0.02816702497072593 
0 
0.1026330706032186 
0 
-0.02521389154325025 
-0.0998618848749116 
0 
0 
-0.01967725116561916 
0 
0.2357416826553765 
-0.2964807663346193 
-0.169262778136531 
0.4035727878525109 
0 
0.02443167197377231 
0.01027454276484966 
-0.3253094780259382 
0.02301425246759113 
0.1653311391248677 
-0.04736361149756357 
-0.1013636527660829 
0.04096257704708645 
0.05773199621788037 
0.1152980439360906 
0 
0.2434987723078917 
0.03196450943129377 
0 
0.03548361610350807 
-0.01457887894820645 
-0.06654893106999993 
0 
-0.01213991251999853 
0 
0.04998369144254854 
-0.4619795277430904 
0 
0.06346095764056761 
-0.3267445404110927 
0.2221192096068546 
0.1076086347153836 
0 
-0.01979206688244047 
0 
0 
-0.06631034690394834 
0.07342675897926233 
0 
0.160223368168782 
-0.01167364998729306 
0.08585354015969682 
-0.08514941819607356 
-0.2970183120405578 
0 
0 
1.264114848049278 
0 
-0.180247886297533 
0 
0 
-0.2380008790851952 
0.8432393791052113 
0 
0 
0 
-0.440980809131108 
-0.09904812543999758 
-0.07584962595162031 
0 
0.1476084148903544 
0 
0.168335119215055 
0 
0 
0 
0.05071437257676985 
0 
-0.2224420944985192 
0.150392532573853 
-0.06067474471578758 
0.165264838738679 
0.1373730997634985 
0 
0.2514961505513977 
0 
-0.04058900181074131 
-0.007825304894405203 
0 
0 
-0.005744214956668273 
0 
-0.09225082892074679 
0 
-0.1080394208132647 
-0.3860967353155173 
0 
0 
0.05612768627778096 
0.189041839661787 
0 
0 
-0.6958351270306891 
0 
0.0586043399849 
0 
-0.2502657258496324 
0 
0.006333849718012892 
0 
0 
-0.1953685616994559 
-0.2999953843678232 
0 
-0.01628509583655035 
0 
-0.0581993301486025 
0 
0 
0 
-0.042809439767863 
-0.07450512657023833 
0 
0.01580373060733518 
-0.06465834230327461 
0.1084048246399613 
0 
-0.2586328303576977 
-0.2998078135976338 
-0.001169740587640508 
0.1819869537287551 
0.4328660721459484 
-0.1025443775061763 
0 
0 
-0.01708262754113476 
0.002530604507963744 
-0.01882322837904233 
0 
-1.387778780781446e-17 
0.04843936271660765 
0.01489594340465131 
0 
0 
-0.02436837764222691 
0.1783421211149587 
0 
0 
0 
0.1817936028458555 
-0.08117542731792486 
0.1202098343896621 
0 
-0.1130947097354801 
-0.1006486070643387 
0.01455885121449599 
0.310717889170852 
0 
-0.309528929883782 
0 
0 
-0.07143125215559526 
0 
-0.160445418833418 
-0.3950402903000825 
-0.5567634213857849 
0 
-0.7594218287713778 
0.004331247081886036 
0 
0 
0.1976941772810683 
0.05801181877912456 
0 
0.05143173834112055 
0.0001889962848767116 
0 
0.1323112467201834 
-0.105243599913037 
-0.06920494048075705 
0.03085920157452782 
-0.3317701549902569 
-0.3098541093353814 
0 
-0.147104984351151 
0 
-0.2565932184382823 
0.2428784279294688 
0.206548643137796 
0 
0 
-0.05393396258428946 
0 
-0.09001523645758938 
-0.0545106005158315 
-0.128788526388396 
0.03193088435915804 
0.2136230970966059 
0.0274176751602355 
-0.128153412224343 
-0.0197535015643936 
-0.02890426434316861 
0 
0.186555208169948 
0.0002857896358296526 
0 
-0.06476073382508368 
0.05198624597541182 
-0.01394334280616679 
0 
0.262809471331431 
0 
0 
0 
0 
0 
0 
0.0001889962848767116 
-0.02538986121604011 
0.06837425144463441 
-0.0797382215555491 
-0.2297643330285997 
0 
-0.04213401629187413 
-0.1424449772275286 
0 
0 
-0.03499584232960654 
-0.601117159278408 
0.06761215753611806 
0 
-0.8015886146630763 
0 
-0.5424615147275492 
0 
0 
-0.09025352129943466 
-0.1013223726748103 
0.053881783451957 
0.0554971069284255 
0.007509496468468079 
0.3694208274303661 
0.0542921305161945 
0.01994028827620849 
0 
0 
-0.3403866174227214 
0.1387022889736884 
0.05335293691572729 
0.7522357461314204 
-0.2229697778570355 
0.002617086839961053 
-0.07478235340685079 
-0.02010456761335547 
0 
0.04363018547631384 
-0.38203529758974 
0 
0.07162499846320973 
-0.1897269808178841 
0.05523651457077151 
0 
0 
0.08156889779001673 
-0.1543328567458667 
0.01733903915191682 
0 
0 
-0.8054971084144045 
0 
-1.474832488523804 
0 
0 
-0.3302900139131013 
-0.06025095580570192 
0 
-0.008921636018513382 
-0.01878471242193938 
-0.1918140218645474 
0.08586941584052156 
-0.2297472610400957 
0 
0.2227596642521778 
0.1520872444538317 
0.1289896453819922 
0 
0.1623956770869991 
-0.2512127595939393 
-0.02131681463489755 
0 
0.4062325722194641 
0 
0.07796198250901819 
0 
0.162863953327782 
0 
-0.2222870448552154 
0 
0.09437652751006791 
0 
0 
0.1340885928546946 
-0.1552836034543924 
-0.1730161218180822 
0 
0 
-0.2831147714951083 
0.01508586774950137 
0.2158830180924829 
0 
-0.08107140958850953 
-0.03099812798499121 
0.006583431560530807 
0 
-0.001179212912986759 
0 
-0.1212550327426782 
0 
0 
-0.244637838905246 
-0.07176500953499458 
0 
-0.1272388170002837 
-0.3195130037146641 
0 
-0.01958830023505054 
0 
-0.2061851898778367 
0.2848574608803549 
-0.1025828006220748 
-0.01046345037565164 
-0.05063614432554817 
0 
0.07096806826789108 
0 
-0.6239463809714775 
-0.1016229955515698 
-0.5385172226615855 
0 
0.008585247779319793 
0 
0 
0 
0.1264675609543677 
-0.06937608218893157 
0 
0 
-0.05073731913040465 
-0.1792781475129152 
0.1685982052296962 
-0.04776394306909251 
0.02578885776761961 
-0.360009661992458 
0 
0 
-0.002687001005455061 
0 
0.4458701482517637 
0.08453953917035294 
0.08751485644452592 
0 
0 
0 
-0.02257106273076436 
0 
-0.1963823896071679 
0.2280859815127548 
-0.300386637180889 
0 
0.3414523976575854 
-0.1977032050400881 
0 
-0.02922250482761403 
-0.2216726701814085 
0.09601268172264713 
0.03084694247202602 
0.1077034804249245 
0 
0 
-0.109441474311182 
-0.01087060564949069 
0 
0 
0 
0.165772425296014 
0.06806658270893226 
0 
0 
0.1280216795540911 
0.2835811063588237 
-0.1786173155483836 
-0.07450596495205915 
0.08089942992272178 
0 
0 
-0.2162419853366033 
0 
0 
0 
0 
0 
0.001569389256842502 
0.00543748978240627 
0.01103131029907013 
-0.1148043365598711 
-0.0546521393570248 
0 
0.127665648185343 
0 
-0.03850693437939397 
-0.05082001093801709 
-0.0272694116394549 
0 
-0.04563492500403848 
0.068931294399248 
0 
-0.07819332096826208 
-0.3043313309843028 
-0.05641975473536475 
-0.03216564845352761 
0.2359689550946844 
-1.148101479135151 
0 
-0.00381915523897064 
0.3367948382361711 
0.05595660050490994 
-0.1188791267148345 
0.1253848120297967 
0 
-0.2079692792645995 
-0.02700726511617915 
0.08708421217173738 
0.2637810109747243 
-0.1291230690356065 
0 
0 
0.9479246472394233 
0 
0 
0.2313752417767471 
-0.08764250382480417 
0.009372945389813018 
0.008677400750618269 
0 
0 
0 
-0.09586072395124397 
0 
0 
0 
0.6085031241066687 
0.09462977720982815 
0 
0.04974856037332549 
0 
0 
0 
0.1072333518674679 
-0.128257764352056 
0.2612221289489798 
0 
0 
0 
0 
0 
0 
0 
0 
-0.2257799715762833 
0 
0.02210447168224357 
0 
-0.2730510873629297 
0.02704182436685502 
0.1781311494923091 
0 
0 
-0.214954728223145 
0.1573119284308812 
0 
0.2042969706191878 
0 
0.07498823416331052 
0.02200976941595827 
0.1255206773388634 
-0.1379374804036268 
-0.3027812728908578 
-0.1070338242400241 
-0.5130002156535973 
-0.1585102249640556 
-0.008313465426202041 
-0.3310788974359849 
-0.1516077989426716 
0 
0 
-0.20203558925089 
-0.06369320949481352 
0.5155352360061359 
0 
0.120286615000998 
-0.09536127059303162 
0 
0 
0 
0 
0.5831791539556921 
0.3272159287995428 
0.1063378282657291 
0.04375429068962925 
-0.03313852124677523 
-0.1576062296037092 
0 
-0.281097118314688 
-0.142050049837958 
0.1865131291015096 
0 
0.06116908995161008 
0 
-0.1747615266355911 
0 
-0.5005123230134657 
0 
-0.1329811122979015 
0 
-0.00292313560216162 
-0.03109439799466441 
0 
-0.02797792736316305 
0 
-0.02584875907227894 
-0.01656685215093955 
0 
-0.4821870723212138 
0 
0.05783525334125546 
0 
0.06682010139254195 
0 
0 
0 
-0.06115061039964408 
-0.09584931189070817 
-0.02730935835571417 
0.02706685182916888 
0 
-0.09225082892074679 
-0.01342263910092524 
0 
0.01686871514423184 
-0.1884128919903686 
0 
-0.005658745622969736 
0.04806533644489625 
0 
0.01776193337309279 
-0.03943975192990373 
-0.05239986311063664 
-0.1109461143767678 
-0.01165944086133389 
0.107688251580923 
0.3185173219096941 
0.2177862809293852 
0 
0.125375712433635 
0.04406597682947581 
0.2078267403593898 
0 
-0.167382846971384 
0 
0 
0 
-0.216494083480364 
-0.05678781450796489 
0.5075255927806129 
0.248051539893491 
-0.1056317039455265 
0 
0.03801634422226639 
0 
0 
0.1828235582727192 
-0.2139675648551653 
-0.2607442675599374 
-0.3018451726973416 
-0.07924697344935781 
0 
-0.02486658649870622 
0 
0.2193118124053719 
0 
0.1680571586150162 
-0.1789193921843333 
-0.02127096212067675 
-0.106880332788476 
-0.3853867371999099 
0.0005684428292128494 
-0.117467025171702 
-0.2224573182272374 
0.1115037144545982 
-0.05526091575910989 
-0.19462746431612 
0 
0.3142124890099496 
-0.1256960953378846 
-0.2040816110016452 
-0.005744214956668273 
0 
0.01045194855136922 
0 
0 
-0.3526408269219553 
0.06254920065501839 
0.04447334299363992 
0 
0 
-0.1133288423358601 
-0.001579410225851651 
-0.01977399266509493 
-0.136084542055838 
0 
0 
0 
0 
-0.500564649436175 
0 
0 
0.1244044042981158 
0 
-0.1005685758927703 
0.187351923127773 
0.172796705243574 
-0.103290527714312 
0.1952540307195901 
0 
0 
0 
0 
0 
0.05461943468209526 
0 
0 
0 
-0.1967647608855255 
-0.3163415998862485 
0.1346970819198008 
-0.1458889831800233 
0.1375139190213409 
0 
0 
-0.3237969080443258 
-0.7419868200112106 
-0.04663781894558686 
0.0699100408396809 
-0.1289433662441025 
-0.1050272569226798 
-0.06963221788754995 
0 
0.187495418704022 
-0.01210208481648604 
0.1336349471025929 
0.03222009905557244 
0.03695940544086346 
0 
-0.2319451675646577 
0 
0.008792227744251112 
0 
-0.1808888172674487 
0.01524624894774161 
-2.775557561562891e-17 
-0.1170420357630861 
0 
-0.03481391659931493 
0 
0.1033675391808225 
-0.2270714591223389 
-0.05410871390024985 
-0.114991167600096 
0 
0.07632416103397752 
0.001546081094284581 
0.03490433836816843 
-0.1011662406831069 
0 
0.02144757975380241 
0.2754990275782555 
-0.09538526170329414 
0 
0 
-0.2324912525516346 
-0.01979206688244047 
-0.04335271604115459 
0 
-0.1503501239335589 
-0.04045547809215112 
0.149418541322996 
0.2226979938509257 
0.01487898940820624 
-0.08342944851461949 
0 
0 
-0.3700863262528247 
0.1703625657524567 
-0.2244885583211888 
-0.1213266901953852 
-0.02921688106538489 
0 
0 
0 
-0.01307312565571317 
0.2355429251003751 
-0.006333307493403107 
0 
0.01318105744683245 
-0.2666118741687529 
0.05829290714969442 
-0.046472334277435 
-0.09178908975360073 
-0.5553397940787234 
0.06423739819586068 
0 
0 
0 
0 
-0.4478750542568245 
0.02531389461116903 
-0.1525168825281839 
0 
0 
0 
0.258163167805914 
0 
0 
-0.143713140517576 
-0.0008535320513346537 
0.104740796396018 
0.03003907877594143 
0.2437441415211136 
0 
0 
0 
0 
0.04848964655108517 
0 
0 
0 
0 
0.1352224782862659 
0.01719521622354803 
0 
-0.2537591500694046 
0.03839281114084332 
0 
0.1485668007461144 
-0.3256695731768712 
0.1372046967446963 
0 
0.0445071750710363 
0.0290182695640886 
0 
0 
0 
0 
0.03112630819803378 
0 
0.2115189439309997 
0.150125481445419 
0.02331392261386591 
-0.04116166318755499 
0.1274752589280816 
-0.02542888928121456 
0 
0 
-0.05732555002139535 
0.004966325229888916 
-0.164609274640888 
0 
0.1632703761069819 
0 
0.06837425144463441 
0.05801181877912456 
0.4128509040663841 
0.03394539369126227 
-0.02966095710429929 
-0.2765026858841478 
-0.02966095710429929 
-0.07302185324085907 
0.06222375581268254 
0.149633826124078 
0 
0 
-0.08238274583652833 
0 
0 
0 
0.02031791892426494 
0.1043903806871634 
0 
0.1021431813372869 
0.1030925773718778 
0.09272880978296739 
0 
0.002978170426779799 
0 
0 
-0.116687098190903 
0 
0 
-0.2018404657224583 
0.1800609739508161 
-0.220328150059162 
-0.08911958920599004 
0 
0.01344393576213879 
0.04239248793501426 
-0.05049173690511684 
0 
0 
-0.05181840531881733 
-0.01878471242193938 
0 
0.1769269093211694 
0.375767727021486 
0 
-0.003129130890394439 
-0.5282721278846932 
-0.06930067317118996 
0 
0 
-0.02155055084731931 
-0.05633120222600058 
0.04780457431588247 
0 
-0.05246059059996824 
0.2295322027298318 
0 
-0.05348582743762079 
0 
-0.055773853320833 
0 
0.4295529245245938 
-0.060655500126793 
-0.1332217718285064 
0.04309433712846143 
0.171775122414899 
-0.008774267886761972 
0.02873526695421689 
0.07808791337694447 
0 
0.02496730071208354 
-0.1519633419141691 
-0.09222121077932949 
0.0003780169633902448 
0 
-0.1158043375963132 
0.1474342913431057 
0 
-0.3344117933023072 
0.383990134083811 
-0.3762310308909284 
-0.1842386217682443 
-0.0268483808120893 
0.07343565763955658 
0 
0 
0 
-0.1296858510577342 
0 
-0.00447440883733695 
0 
0 
0.0423790562562229 
0 
0 
0.00117461512875767 
0 
0 
0 
0 
0 
-0.07451922704691778 
0.009991544286846092 
0 
-0.01481929261142432 
0.06245857003359243 
0 
0 
-0.1648032932237 
0 
-0.10766439902926 
0.0002490846327683926 
0 
0.09221360009676959 
0 
0 
0 
0 
0.005293689201404172 
0.0230651031739707 
0.07575023513744425 
0.1715188437648996 
-0.159621412471588 
0.06719251113335256 
0.0674829425030495 
-0.01856625279097231 
0.4644629078086841 
0 
0 
-0.1998313069403196 
0 
0.2698601332949734 
-0.420814632678578 
0 
0 
-0.01181064253159861 
0 
0.4111276786470359 
0 
0 
-0.07215787285790362 
-0.04712703252945758 
-0.01580424110539725 
0 
0 
0.2514011233569238 
-0.481273423311072 
0 
0.3429902713567343 
0.1401506914536919 
0.1188697503647642 
0.1284317555801009 
0.5030051430434409 
-0.3756535667617343 
0.1090975093871498 
-0.06010373225615533 
-0.0792370808557054 
0.1210729618261062 
-0.1274312781432981 
0 
-0.01470470110252654 
0 
-0.0591970371705528 
-0.388810313444877 
0 
0 
-0.07368011128847 
0 
0 
-0.01607498717487126 
-0.1205714517398365 
0 
-0.007578897996137899 
0.002807338321821332 
0.1923422504522115 
0 
-0.249330121510872 
0 
-0.2149701690583471 
-0.09731701949357879 
0 
-0.2702492120342618 
-0.1243004022858933 
-0.1115337405072007 
0.0134072250712802 
0 
0.03121253569803577 
0.2293451908542191 
0 
-0.01561152021836443 
-0.0714196352484448 
0 
0.1981778658034448 
0 
0.00223885018781687 
0.0241028626790531 
0.09932548577751645 
0.1159780994223474 
-0.2359702597206977 
-0.008908252559425218 
-0.1064239061749394 
0 
-0.5018115457802509 
0.08856441078288749 
-0.01363392834936386 
0.02184989998878982 
0.019356285261739 
-0.09923991825641935 
-0.3484573139077664 
0.1030920510506046 
0 
-0.0918208778178095 
0 
-0.05315405905876955 
0.2127047196758693 
0 
-0.1636791724127661 
0.1081433920208793 
-0.086402868127543 
-0.05192962774638123 
0.432590582252902 
-0.1287308259818711 
0 
0.04592798898214372 
-0.1077039775395675 
0 
0.3306931122039463 
0 
0.2112802937857926 
-0.01507205771036332 
0.1765215287498944 
0.01531124710890917 
0 
0.01931997283988757 
-0.03973131666372513 
-0.04625942197895753 
0 
0.04688056853020996 
0.03213951371509102 
0 
-0.4420052573658949 
-0.06459431988407859 
0 
-0.09464324010311517 
-0.2108235776207731 
0 
0 
-0.0525213597361323 
0 
-0.03341084758532639 
0 
0 
-0.3144996856751321 
0.06930242609334393 
0 
0.06220683444276821 
0 
0 
0 
0.07754765089688358 
0 
-0.1805474686391698 
-0.1805474686391698 
0 
0 
0 
0 
0.535279586879845 
-0.09700894249496346 
0 
0 
0.02629266621874165 
0 
0 
0.1382862445842359 
0 
-0.00800530994305731 
0 
0.01858805861307318 
0.1252818187971894 
0.02504276328621951 
0.3345980904501441 
0 
0.161525730422883 
0 
-0.2925845415076216 
-0.1189693231901861 
0.006398114335901807 
-0.1423989647609794 
0 
-0.1299695236118397 
-0.2666757595904203 
-0.02930280599225797 
0.02516907257596719 
-0.05600052345213061 
0 
0 
0 
0.408756945099833 
-0.4456674990882743 
-0.07136865768375598 
0 
-0.4792235577570721 
0 
0 
0 
0 
-0.2205947548724197 
-0.06605852791274056 
0 
-0.0625835367420276 
0.09030185811616283 
0 
-0.1403986635858055 
-0.0792166459790215 
0 
-0.3496356377707988 
-0.8953280871291034 
0.1018070484837055 
0.053095175413295 
0.09327593162525982 
0 
0 
0 
-0.2884028272174907 
0.127192097566576 
-0.04450670341479305 
0 
0 
0.1003428659043038 
0.110068950309121 
0 
0 
-0.2976089634088779 
-0.07218420672923635 
0.1336121632171391 
0 
-0.01979206688244047 
0 
0.09249035999410565 
-0.07153529724400728 
-0.1291874551164937 
0.3216583609886209 
-0.170818629756842 
0 
0.1106499100327693 
-0.01979206688244047 
0.1750001141021189 
-0.05038330813949101 
0.1695755507432724 
-0.1187665680861437 
0.1922189831815068 
0.251625124793758 
0.2659004243910927 
-0.3006628235861848 
0 
-0.1754587837402789 
-0.06552656239847754 
0.1747768378998931 
0 
0 
-0.1760839184332864 
0.05595055735410455 
-0.07307924413069976 
0.04239248793501426 
0 
0.04373385635477911 
0 
-0.06550327131965171 
0.1100713415335868 
-0.3625540633167001 
0.221934472877435 
2.775557561562891e-17 
0.3071510029276689 
0.01612156209244723 
0.1218899198658756 
0 
0 
0.1386802094536369 
-0.01629733924373373 
-0.03201763763616364 
-0.1011004689738493 
-0.1116923313376822 
0 
0.156738597364439 
0.1300871765971092 
0 
0.2924170960599048 
0 
-0.005744214956668273 
0 
0.05976678694811941 
0 
0.0481557588641653 
0 
0 
-0.0601233961060386 
-0.0001115186972007728 
0 
-0.03228217794462556 
0.12404701143953 
0.147471012265775 
0 
0.002250970536568958 
0 
-0.271282107241441 
0.008674487210275694 
0 
0 
0 
-0.1030753236511044 
-0.08086233015038213 
0.02057455599473658 
0 
0 
0.1932737218607728 
0 
-0.2078372783981672 
-0.09617120450825919 
0 
-0.05263546502585632 
-0.146511056964547 
0.03055937481893803 
0.8496246613990431 
-0.3732321326321651 
0 
-0.1484839166412565 
0.1763246778654271 
0.187942010869849 
0.03688746498613219 
0 
0.5051038087683101 
0.1292404656003448 
0 
0 
-0.262902261244704 
-0.07244394753700528 
-0.09467229701104525 
-0.1248193374629954 
0.0570256836811505 
-0.1038995558949809 
0.06507599183100991 
-0.1422294300821205 
0.003568620958365456 
-0.002093703739951824 
0.1710352474566388 
-0.09605432680587538 
0.06296936375488259 
-1.073263972661391 
-0.3563708123080933 
-0.1965750463707 
-0.1376438819588477 
0 
-0.2508942489196371 
0.175612482852585 
0 
-0.02151246089357522 
-0.157526613280528 
0 
-0.05143904889670544 
0 
0 
0.002307413550811735 
0.2529924645854215 
0 
0.16751049626901 
0.194899438609274 
0 
0.153313692075217 
0.07135279282879621 
0 
-0.1595771465802446 
-0.3066771557117778 
0 
0 
-0.02439984738607423 
0 
-0.07404767760872241 
-0.03220792557262132 
-0.2419661669871968 
-0.1155262728444335 
-0.5298809392198233 
-0.1371718950948821 
0 
0 
0.1401753079924309 
0.005071795509434969 
0.466806311683957 
0.07624857365149215 
-0.123572633553027 
-0.4491087525216641 
-0.06983216281233801 
0.03944631888356877 
-0.05002808019270179 
0.212228148495562 
0.0625812565673465 
0 
0.02144757975380241 
0 
-0.0683905601428387 
-0.01210208481648604 
0.09211532160837378 
-0.1000495514257312 
0 
0 
0 
0.04854650223228409 
0.04696313668089068 
-0.05245538747373104 
0.06755997421513366 
0 
0.005387615620740452 
0 
0 
0.1558502614737241 
0 
0.02314324496802768 
-0.05026818002546788 
0 
0 
-0.152151618293107 
0.117930275964004 
0 
0 
0.09422175598371008 
-0.06483601630588541 
0 
0 
0.2007617857183323 
0 
-0.1178606829457428 
-0.2063476926478912 
0.02908725885827766 
-0.06577265436019701 
-0.2790106786522071 
-0.1679720734869748 
0.1475668410645274 
0.05251447306912681 
0.1912271483389358 
-0.007914946902698176 
-0.02459197987087962 
0 
-0.1546696306640151 
0.247351807831211 
-0.01979206688244047 
0 
0.3364754489377995 
-0.003094076934858384 
0.04633308857719688 
0.06982134483226873 
-0.03285037355542286 
0 
-0.05732555002139535 
0 
0.0748803981563259 
0 
0 
-0.5780082262440455 
0.305316880525545 
0 
0 
-0.1326070723025715 
-0.09543734021947768 
0.2964356388555847 
0 
0 
-0.07099846003026955 
0 
0 
0.2313235495621885 
-0.1235898519751977 
0.03941917419335774 
-0.2175352378006244 
0 
-0.01979206688244047 
0.1766070032770149 
0.09812180207007649 
-0.1509636812259605 
0.01362262149374566 
0 
0.1287162272507467 
0 
0 
-0.09000410910075997 
0 
0 
-0.218162664314494 
0 
0 
0.08740340851291706 
-0.2633090575370716 
-0.117356724749352 
0 
0 
0 
0.05625175593967697 
-0.1991785670655503 
0.2773018860852671 
-0.4628569364524973 
-0.04726068722403105 
0.4456121526544569 
0.1611547413248613 
0 
-0.4121976763931869 
-0.2403611011832697 
-0.0274700788538655 
-0.01611462379948934 
-0.3218602124564823 
0 
-0.109940062653247 
0.009789427804606775 
0 
0 
-0.2631801105689126 
0 
0.05678096909422579 
0.3761170089835422 
0.0531147184215101 
0 
-0.2960315391397695 
-0.1830048284596902 
-0.3556263895644541 
-0.1624559030290531 
-0.2137193270884 
0 
0 
-0.04171227429253881 
0 
-0.01577822322470775 
-0.03576288065358362 
0 
0.2776870823628467 
-0.2652888050060287 
0 
-0.1503119143496754 
0 
-0.08086899187608029 
0 
-0.005370638436044785 
0 
0 
0.02552180619516585 
-0.06341822764109251 
-0.01010722754926625 
-0.4878422186157946 
-0.3330065391553516 
0 
0.1906366882627396 
0 
0.175391596079671 
0 
0.03743722652118298 
-0.4418684328862454 
0.06350598860534405 
0.1403969653763261 
0.1858797095015908 
0 
0 
0 
0.04614212020048563 
0 
-0.08342734231264372 
0 
-0.09775988543507064 
0.03778158456754344 
-0.1122376427906233 
0 
-0.2325209735057578 
-0.02101456924900863 
0 
0 
0.03851234136131687 
0.079444199034714 
0 
0 
0 
-0.0563441220787645 
0 
-0.1001382450023845 
-0.0595267219331251 
-0.08936252929102526 
0.04819831590228638 
0.3960322232088903 
0.02869346100110863 
0.04806533644489625 
0 
0.112870536840498 
0.290540792371643 
0 
-0.224201286017621 
0 
0 
0 
-0.08600366075080623 
-0.119715036903219 
0.1821208434670027 
-0.215416414631518 
0.006397571816955206 
0 
0 
0.05893106124316779 
0 
-0.003786041151125367 
-0.1341499743646955 
-0.1272799758746798 
-0.1291874551164937 
0.1308830467376501 
0 
0 
0 
0.07462561186763082 
-0.07837173481721724 
-0.02357638796160286 
-0.124433101209808 
0.03816657109556854 
0 
-0.1439432238029721 
0 
0.01150758999110788 
0.008232983141060751 
0 
-0.136096756603056 
0.154558488273651 
0.44693631156866 
0 
0 
-0.02578597368298531 
0 
0 
0.4823157168029656 
-0.380358086607139 
0 
0.4647689695433958 
0.01554531450387901 
0 
0.058425524111612 
-0.04262861989968629 
0 
0.1440249252421407 
0.007871245964176777 
0 
-0.1225165954904054 
-0.1423946905602669 
0 
0 
0 
0.1919930361900565 
0 
0.185662760757383 
-0.09483550059801261 
0 
0 
0.100226997894372 
0 
-0.06065612613942385 
0.2013551131130741 
0 
-0.1395506722681543 
-0.1500736172017734 
-0.09149508345314911 
-0.08310674576412314 
-0.2682760457443125 
0.2252274890239013 
0 
0 
0.07220429993490968 
0.1849156133962948 
0.4229325617065389 
0 
0 
0.007406003864373142 
0.1055849935047512 
-0.3827715604105064 
0.09213398161011704 
0.06819470130064827 
0.08908191100216098 
-0.2049357029492641 
0 
0.01356059037179141 
0 
0 
0.1095019082777593 
0.004608921510240845 
0 
0.07570187310368104 
0 
0 
-0.003866857088941209 
0 
0 
-0.159095310677371 
0.0792468569198915 
0 
-0.0122978423043053 
0 
-0.01979206688244047 
-0.06552656239847754 
0.05801181877912456 
0 
-0.3690709784175965 
0 
0.08620936668514813 
-0.03256203470926847 
0.1349843801998331 
0.2216492235001806 
0.1265880250501997 
0.02774188604757074 
0 
-0.3213812661766366 
-0.04578967456376301 
-0.009587106124640421 
0 
-0.2455496250099435 
0.1713762866496164 
0.03500628343871041 
0.209327375778538 
0 
0.02274771340472872 
0 
0 
-0.05851266013170235 
0.6250127897689469 
-0.1562023159119508 
0.3942386608116524 
0.4585214444462545 
0 
0 
0 
-0.0455913572521356 
0 
0 
0 
-0.2005807577717269 
0.04373385635477911 
-0.102698689025133 
0 
0.06905217001090028 
0 
0.08504037786333686 
0 
-0.2098912937009532 
0.1890053471818711 
0 
0 
-0.130948529025784 
0 
0 
-0.01791803010589334 
-0.06251548781898042 
0 
0 
0.3445084323746044 
-0.2154498599059738 
0 
0 
0.009693033863580648 
0.2471353441253721 
0 
-0.1597056991428382 
-0.01306185236592633 
-0.3953021965175564 
-0.6641076501488833 
-0.00723108488513294 
-0.0876804883426146 
-0.102698689025133 
-0.1223540205988522 
0 
-0.1564080911351051 
0.2259946790586808 
-0.09217756568365632 
-0.05009588583978615 
0 
0.103002812867316 
0.5474938055601494 
-0.1519633419141691 
-0.267201463136515 
0 
-0.2395762936277393 
-0.0652759970707982 
-0.1246451426559155 
0 
0.01205021246478082 
0 
0 
0.0534184026967317 
0.02845406011358214 
-0.07138783705327222 
0 
0 
0.01227255005280408 
-0.2335780851488732 
-0.1223846375903077 
0 
-0.08433828722972099 
-0.005656911805207051 
-1.332287127231854 
0.1144577915097005 
-0.06631321792192159 
-0.2543189088505785 
0.38102216988145 
-0.02662420722086501 
0.03009193144815485 
0.3585064211266241 
-0.3188050843977475 
0.05311932172868137 
-0.14408819089112 
0.3012125391995964 
0.0691977859956356 
0 
0.2501147780409406 
0 
-0.104370753428642 
-0.0130143718010362 
0 
-0.01979206688244047 
-0.3745555537384851 
0.004988520737322532 
0.05309595157497325 
0 
-0.04901853004936317 
0.4347944955296485 
-0.1289627112233451 
0 
-0.01851473064512639 
0.4131238579302881 
-0.3969692793847305 
-0.394775729431276 
0 
0 
0 
0 
0.0671710907036611 
-0.1616554115759619 
0 
0 
-0.05667813033545826 
0 
0 
0 
0 
-0.0272694116394549 
0.1825845680886395 
0 
-0.1011965200838284 
0 
-0.105599203166928 
0 
0 
-0.02720833467313338 
0 
0.2154285226876966 
-0.01122519561574391 
-0.1990004118197733 
-0.0327672169072999 
-0.07824525323798449 
0 
0 
-0.02282847052622783 
0 
0.1245992933649946 
0 
-0.03196958349383545 
0 
-0.4416477555676872 
-0.05541816288308433 
0.1698977202591617 
0.056134479443358 
0.008037526216551127 
-0.01753939475244529 
0 
-0.0346781225517518 
0 
0 
0.1081899681369043 
0.009320461212676745 
0 
0.04908091586468479 
0 
-0.08423214771436734 
-0.2494790080440128 
0.147471012265775 
-0.05596106878748645 
0.02200375922558695 
0.002081611997198067 
0.4275149155573072 
-0.1309098389480029 
0.05637407526920008 
0 
-0.0604897393308431 
-0.07324101136488705 
0 
0 
-0.01842789415363391 
0.01640368454363772 
0 
0 
-0.04344899353999783 
0 
0 
-0.1628493738811386 
-0.3056355697796 
0.04812553217129718 
0 
-0.04883701467080054 
-0.1480239300550399 
0 
0.04354213234207405 
0 
-0.01979206688244047 
0 
-0.002286154622164112 
-0.03235875437415001 
-0.2120908350795677 
-0.3695902995234243 
0.06361095609899776 
0.08012512752218066 
0 
-0.1056103056883728 
-0.0747837679546529 
0.01235113712474364 
-0.08388362784734592 
0 
-0.1738662825042913 
0 
0.09964524874431029 
-0.2932721526705331 
0.06262459027553043 
-0.04723890199435239 
-0.1404742636489396 
0.4586968186529768 
0.2392781545630097 
0.02402735709432218 
-0.0441058166196388 
0.2930664469679031 
0 
0 
-0.3975578493987647 
-0.02195532921701744 
0 
0.008162007101680333 
0.06544205231532015 
0.2626914864368552 
0.01872067029985997 
0.04389548345804336 
1.143137755577213 
0 
0 
0 
-0.05245538747373104 
-0.4149098131647421 
-0.06965617904079995 
0 
-0.03906651129777707 
-0.1632182280669241 
-0.09830320215273444 
-0.2841148376000859 
0.05022621709425924 
0 
-0.0539879826346145 
0 
0 
0 
0.01235584443115403 
-0.1054526505053549 
0.04457839970998828 
-0.04506974583762394 
0.0492490103261101 
-0.1505141640693711 
0.106863159685609 
0.09184571460628266 
-0.01824391393458766 
0.07643417206582245 
0 
0.03206997666636383 
-0.05459247307492117 
-0.1550418079233218 
0.2752505794591619 
-0.01852746953200634 
0.04474471808260062 
-0.2075415216702916 
-0.176924191598471 
0 
0 
-0.07645562259833454 
-0.2227394666201942 
-0.202027895226691 
-0.0426670154421408 
0 
0.04919142182726588 
0.07165402781949125 
0.08537539181006015 
0 
0.07830527195687044 
0 
-0.1138944600323532 
0 
-0.07816873760273585 
0.03617034652231845 
0.01530236304935926 
0 
-0.06053589834584033 
0 
0.03903769019863049 
0 
0.5401741207857308 
0 
0 
0.161667110236554 
0 
0 
0 
0 
0 
0 
0.1751639884160981 
0 
0 
0 
0 
-0.01843515297513354 
-0.1079439879367221 
0 
-0.01002611196417264 
0 
0 
0 
0.07529868912019391 
0 
-0.05475479691800404 
-0.03241435944897669 
0 
-0.05932889742705975 
0 
-0.08602069279970351 
0.4014624087248232 
-0.1411723604153835 
0.2631601429365975 
0.5117302399658495 
0 
-0.08093945459781972 
0.225180505215119 
0.1331983624564132 
0 
-0.3594327538777534 
-2.775557561562891e-17 
0 
0.08187630739158649 
0.01059773959763454 
-0.06048211087217869 
-0.06048211087217869 
-0.06048211087217869 
-0.271977431698514 
-0.2652888050060287 
0.1242305932271652 
-0.0402429895675332 
0.2427459141879119 
0.01035552562357092 
0 
0 
-1.387778780781446e-17 
0 
0 
0 
0 
-0.03478363378366704 
-0.06923161944531152 
0 
-0.103450968397124 
-0.02017286007923197 
0 
0 
-0.05299617891940362 
-0.1054017972386763 
-0.0141901361600024 
0.07638451588379645 
0.005460471340586342 
-0.130742237064753 
-0.1291874551164937 
0.211579049216106 
0 
0.08472532086053991 
-0.0594647760770587 
-0.2167787128702624 
0 
0.02162072474002177 
-0.143713140517576 
0.8066885779896821 
0.06203594294326837 
0 
-0.07247718878578222 
0 
0.02276716420167906 
0.07728569707908399 
-0.09223888842156736 
0 
0 
0 
0 
0.006498626938790107 
0.1262418085771576 
-0.01630949536802044 
0 
0.00674443332846263 
-0.006755840516005004 
0 
-0.09449669348062401 
-0.1352603511345213 
0 
-0.03550379197358859 
-0.02658782515823152 
0 
0 
0 
-0.1374850565633736 
0 
0 
0 
0.3086043258500852 
0.05957014583419605 
-0.09058510407526452 
0 
0 
0 
0.06480076912925127 
-0.5266423996662868 
0 
0 
0 
0 
0.1939530488114257 
0.265811909811759 
-0.02601360592888194 
-0.06307167920468032 
0.06826410734777102 
-0.1364704268876763 
-0.1093735279650097 
0 
-0.102980530346645 
0 
0 
0 
0.03460404867878759 
-0.1353669675593627 
0 
0.1534491294599703 
-0.654536597477396 
0.3008985915110112 
0.09331882918062551 
0 
0 
0 
0 
0 
0.1713077420120487 
0 
-0.182922729503677 
0.1830030139122787 
-0.1805474686391698 
-0.0885509958795045 
-0.2086492321781001 
0.1007329498810816 
0 
0 
-0.1328738078969273 
0.00223885018781687 
-0.2056595928845155 
-0.07819332096826208 
0.02602033241824009 
0.108517471204906 
-0.01596871044056 
0.003313948567386502 
0 
0 
0.5017312277828448 
0.6003510140673028 
0 
0.2210139916262669 
0 
0 
0.04189725552624791 
0 
-0.05675471936595827 
0 
0.0480638125022672 
-0.1891779089758319 
0.09150151886667782 
0.04140572393510566 
-0.3555755051226367 
0.02555480975341375 
-1.671600949900556 
0.1179314293806017 
0.3641226206203764 
-0.09400802964076323 
-0.0002718953245091927 
0 
-0.158159570788206 
1.562892887144738 
-0.2481978047532571 
-0.2000830000780516 
0.1926358651477784 
0 
0.1010532474949001 
-0.3788836327549276 
0.08419705615917879 
-0.04625942197895753 
0 
0 
0 
0 
-0.2410547435127371 
-0.03971718509091292 
0.177854757791939 
0 
0.03085920157452782 
0.2710804335232779 
-0.08008760303497151 
-0.03009884697798242 
-0.1306905087238275 
0.002617086839961053 
0.1605844957203906 
0 
0.1102495048482086 
0 
0 
0.2553028357785941 
0 
0 
0.298230862313019 
0.005707630988430224 
-0.06710809979789983 
0 
0.09932548577751645 
0 
-0.1123573865297677 
-0.09724882301112546 
0.05818146399510248 
0 
0 
-0.226420309003014 
0 
0 
0 
0 
0 
0.1312359961442588 
0 
0 
0.2222018568596284 
-0.1032776447357509 
0 
0.1216309901441962 
0.4299131141329017 
-0.08792450280631255 
0 
0 
0 
-0.3509834657045784 
0.02068353307112971 
0.1244044042981158 
0 
0 
0.09047826618088091 
0 
-0.1930765109953703 
0.08915183186902541 
0 
-0.05369920422314225 
-0.05231715872605357 
0 
0 
0.02620706812767843 
0 
0.07152323820381042 
-0.2406916524480161 
0.09151871278766513 
0.05150186069023606 
0 
0.07178871054209421 
0 
-0.3241558055552369 
0 
-0.132583746755209 
0.08504037786333686 
-0.042257408963053 
-0.06494433955105114 
0.0966625991890895 
0.09598640789391434 
-0.1184434701885738 
0 
-0.08064378020039556 
-0.165424321733681 
-0.2097079313900263 
0.06438166576511549 
0 
0.03335530281512029 
-0.1984846299955989 
-0.1870045081951765 
0 
0 
0.00223885018781687 
0.5410006122560749 
0 
0.01677692176123746 
-0.143713140517576 
-0.125717938339731 
-0.01772337398838739 
-0.273882508099829 
0 
-0.04498238327646449 
0.1006581083839249 
0.01161366798176061 
-0.05457881136402995 
0 
0 
0 
0.00223885018781687 
-0.6595411345867916 
0 
0 
0.1466916026754009 
0.06938802253287039 
-0.1132176743955658 
0 
0.06251618287339537 
0.01555170697660127 
-0.2598425903603134 
0 
0 
0 
-0.08140947526458155 
0 
0.03055937481893803 
-0.2001533010739072 
0 
-0.1230733771937589 
-0.3387984408409341 
-0.03599889681060815 
-0.03835131932897288 
-0.566133520657629 
0 
0.058672553893707 
-0.02077943352241871 
0 
-0.256861361756897 
0.06203594294326837 
0 
0.06544205231532015 
0 
-0.08548095049182429 
0 
0.001215364094425921 
0.05071334921768909 
0.104013708222984 
0.05871295539603801 
0 
-0.1564185551516306 
-0.1122839203077007 
-0.1001382450023845 
0.133658859934622 
0 
0 
0 
0.01561721628488296 
0 
0.0306946908275675 
0.03126263917030567 
0.1655278231305922 
-0.1335565398904099 
0 
0.1329009547896056 
0.2975938771756977 
0.06686081032031992 
0 
0 
0 
0 
-0.0823364798079103 
0 
0.01092503956533316 
0 
-0.2380062650058325 
-0.02797792736316305 
-0.003795960083969453 
0 
0 
0.07418126052255661 
0.05994072771800341 
0.4442978449044974 
0 
-0.05122669492493934 
0.01440276870537205 
0.02861141815885733 
0.118207542814783 
0 
0 
0 
0 
-0.2547947110388452 
-0.01056196993006255 
-0.05492558753583922 
-0.0462931324400843 
0.08054707467218081 
0 
-0.01355416795959604 
-0.04936021980251079 
-0.1393185943729974 
0.0541828316360264 
0 
0.0370509769213177 
0 
-0.1117081833102452 
-0.09857673377463205 
-0.1029579090124366 
0.005293689201404172 
0 
-0.08812176893465568 
-0.02237892816598316 
0 
-0.08458214449156523 
-0.04650812001367134 
0 
0 
-0.1157353155780535 
-0.2624593883964976 
0.09249094912930579 
0.03699250429517006 
-0.0387922059681732 
-0.2204133699050135 
0.245614843418389 
-0.3092995800412676 
0.0678091900223312 
-0.00507334149696698 
-0.4937004615131282 
-0.464294037951739 
0.24769531689383 
0 
0 
-0.1549029334944395 
-0.1063683182458886 
-0.07580584834607537 
0 
-0.103169312695361 
-0.2058766527422853 
0 
0.005293689201404172 
0 
-0.3996464142091829 
-0.004349245614102798 
-0.1543421322363164 
-0.172322807698892 
0.4435338049857124 
-0.1402534400731448 
-0.128856710302605 
0 
0.2353065053378749 
-0.06194953720889651 
0 
0.1548824060732836 
0.0951412825849195 
-0.1816580498483326 
0 
-0.06646459874076302 
-0.01448161461980526 
-0.2451997191952417 
-0.2034963077309131 
-0.05958027912610916 
-0.001397871634726212 
-0.110060618284892 
0.1050910970412712 
-0.1166785964639928 
-0.2042481704055745 
0.193211434612127 
0.02038289020305705 
0.124156816136497 
-0.5458531209892022 
0.01915906047325426 
0.07631299785572333 
0.03441709189858193 
0 
0 
0.02522368059644523 
0 
0 
-0.1984740034042394 
0.03391412511583227 
0 
-0.09229399411475399 
-0.4479411148393249 
0 
0.0991081842905175 
0.05610457972902956 
-0.02229569318525796 
0 
0.07119074044619698 
-0.08892824254353754 
0.0006618728191224789 
0 
0 
0.105158987123464 
0.1139095209390411 
-0.1215308150438308 
0 
-0.04700562712622533 
0.0462773617531118 
0 
0 
-0.04896925534143205 
0 
0 
-0.01139576605320103 
0.0789947426638847 
-0.06278793846152449 
-0.1390048076926982 
0 
-0.7044404799803503 
-0.08026082217432386 
-0.07356233372498693 
0.04979420647572379 
-0.09091473780090917 
0.04871075680692265 
0 
0.03839281114084332 
0 
0.01213443316300837 
-0.1455434565933146 
-0.09140960058191699 
-0.02994131508771528 
-0.1591519641493228 
-0.1714239453931485 
-0.04502811990372133 
0 
-0.07385484889065964 
0 
0 
0.04512425595717477 
-0.08120388508069848 
0.138820216286773 
0.2464096305025732 
0 
0.06892811381753421 
-1.055901694257691 
-0.3698981069061799 
-0.08600997805169873 
0 
0.12404701143953 
0 
-0.1758684610427613 
0.3312701909753889 
-0.148732119422831 
-0.552127866795313 
-0.08170702463400459 
0.1130802725736488 
0 
-0.1179910706026246 
0 
-0.07001153235628191 
0.08533244241745962 
0.1536461058920979 
-0.114628668154688 
0.1768692503513802 
0.1501928353187572 
-0.6530064439937622 
0.1859605314336276 
0 
0.07522512737843139 
0.1134114200378219 
-0.04892530202051062 
0 
0 
0.6555520088225266 
-0.05073845747442074 
0 
-0.3374052176124201 
-0.07199016643561075 
0.3139668819419817 
-0.6065248817157407 
0 
0 
0.5466261092459098 
0 
0.03040384788653985 
0.370139101568443 
-0.07858191267108246 
0 
0.0789947426638847 
-0.1180762320568141 
-0.2475370002257075 
0.1289896453819922 
-0.112939702208432 
0.0003780169633902448 
0.240008711946708 
-0.1109461143767678 
-0.02518517927202135 
-0.1594758242384921 
-0.0947977433725935 
-0.1991638247437064 
-0.1709813596041775 
0 
0.01362262149374566 
-0.04625942197895753 
0 
-0.2347964801434558 
-0.05180537772425431 
-0.005669681053768703 
0 
-0.3212049008344707 
0 
-0.07529730682693077 
0.125047044974485 
0.2679068677082676 
-0.1245409086297397 
0 
-0.19072129090922 
0.01227336941742679 
-0.2257742933741979 
0 
0.4234989814550134 
0.1121293184895145 
0.2125637715810972 
-0.007250073787148353 
0.064059146544469 
0 
0.2140795173949601 
0.4420764536789457 
-0.1157582776344765 
-0.2912385658796667 
-0.02502425502638 
0.02831679251249465 
0.01266255942572848 
0.04476323624980576 
0.169286060470578 
0.02933684897581141 
0.1048636110877404 
-0.02236952254900015 
-0.1287822948275224 
0.1802302501798173 
0 
0.02483025361962259 
0.12404701143953 
0 
0 
0 
-0.192865500306015 
0.0577921261906817 
-0.02966095710429929 
-0.02865174749833225 
0 
0.1454744701516249 
0 
-0.2047308872512391 
-0.08704961590370164 
0.1361691561259684 
-0.1745222222621303 
0 
-0.1812705741542149 
-0.1281043058183358 
0.009230472266327052 
0.2009536978573861 
0.03458872726215399 
0.05812618767468302 
0 
0.0699220271343428 
0.08478579527686902 
0 
0 
-0.02763080875458053 
-0.1367157465222369 
0 
-0.07819332096826208 
0.01362262149374566 
0.03884795037145385 
0.05421190165026887 
-0.2295202477343358 
0 
-0.03185078610172605 
0 
0 
0 
0 
0 
-0.1442050275375681 
0.01216385525298311 
-0.2610904716743545 
-0.23257672006705 
-0.4345169201331849 
0.06960109445461564 
0 
-0.03446737348276212 
0.211384687175721 
-0.06336888961126176 
0 
0 
0 
-0.004101878125299732 
-0.2635211734658005 
0 
-0.3657857613071723 
-0.1367760236651865 
0.1175117944303275 
-0.08210808975686737 
-0.01977399266509493 
-0.1156584921268422 
0.00223885018781687 
-0.5220860377164073 
-0.08294737299597953 
-0.3769830713796782 
-0.1056252140697688 
0 
-0.05681854566358681 
-0.1519633419141691 
-0.6684822869266581 
0.2010591612420707 
-0.4729828707915031 
-0.06321155460389234 
-0.07313524479864515 
0 
0.4222613089055398 
-0.1745616996809674 
0.208432769895833 
-0.2211159996817779 
0 
0 
0 
-0.6275772896652838 
0 
-0.0706112948698028 
0.637101463860507 
-0.01057294074151395 
-0.115750813529198 
0.118974481768883 
-0.3387180120159113 
0 
0.01760062596445973 
0 
0 
0 
0 
0.06609420465397099 
-0.07819332096826208 
0.01489751209230581 
0.05026088785831699 
0.24514668168331 
0 
0.04131079197741013 
0 
-0.1672403629919463 
-0.04836927245894564 
-0.1099733750652293 
-0.1331368084245241 
0.2445717370218879 
-0.2836132175342843 
-0.2623478753762029 
-0.1294443455714999 
0 
0.008569302684272195 
0 
0.01143681050789277 
0 
0 
-0.1255405715170073 
0 
-0.06668939714747238 
-0.00473579584162928 
0.0003616475555325974 
0 
0.3113531082798776 
0 
0 
0.09169664101827055 
0.0551123430001395 
-0.008121494682097006 
0.1802947529907259 
0 
-0.06484501343609524 
-0.002921801403429714 
0.1148635931754625 
0.28608608734658 
0 
0.3771640593878516 
-0.1932806377758969 
0.05039159559814446 
0 
0 
-0.09718480811169672 
0.1142205622119931 
-0.2797477354885264 
0.01260309593415478 
-0.3507587208555344 
0 
0.000116088006693714 
0 
-0.1386692982819174 
0 
0.2098583950081339 
0.02265250815010468 
-0.09178908975360073 
-0.1001382450023845 
-0.3322394108555819 
0.07963096496985196 
-0.1374850565633736 
0.1343103593829368 
0.2711068387919311 
0.03490337805076538 
0 
-0.2230426042528559 
-0.08129521036510445 
0 
-0.04915708009075301 
0 
0 
0.2587225871571328 
-0.05712240396260446 
0 
-0.0284366192738799 
-0.2634510923146452 
-0.1374850565633736 
-0.132492718384168 
0 
-0.07062268443094985 
0 
0 
0 
0.1152546319118054 
-0.01033188597523223 
-0.0741011143298114 
0.2527764582270424 
0.01216385525298311 
0 
0 
-0.09921523570891919 
-0.1229612522874507 
0.1065055191892819 
0.2147854655890962 
-0.07016112477319807 
0 
-0.1071029605050329 
-0.2309947064389559 
0.0006373523944551533 
0.0006373523944551533 
-0.1364559245490491 
0 
0 
-0.218923832158346 
0 
-0.1024000369571071 
0 
0 
-0.1401817086878827 
-0.04625942197895753 
0 
-0.04625942197895753 
-0.1974040395905242 
0 
0.1150054312804967 
0.05702959574623277 
-0.165287482847963 
-0.06552656239847754 
0 
-0.01979206688244047 
0 
0.60155547124299 
0 
-0.02839937554775167 
-0.02394793712444294 
0 
-0.3026593465347753 
-0.04132150883015839 
0 
0.5140131649436007 
0.03617034652231845 
-0.4084044536096791 
0 
-0.07017902305471234 
0 
0 
0.3920527034334965 
0.224509876817013 
-0.3514190788205644 
-0.04005527815271632 
0.03349274267318304 
-0.08013130779468304 
0.4759030315633926 
0 
-0.004681434556011961 
-0.1694700337790151 
0 
-0.02177019691740779 
-0.07782375018650113 
-0.08485192795843448 
-0.05626655459788987 
0.08603974261359656 
0.2183458227851544 
-0.1547392899092973 
-0.005159158117846134 
0 
-0.1141181579912751 
0 
0.124201996527116 
-0.1523637982509941 
0 
-0.470543509055859 
0 
2.775557561562891e-17 
0 
-0.02102263058218018 
-0.1312944889990624 
0.146654165647514 
0.01980333043283665 
-0.04213401629187413 
0 
0 
0.02330306667571484 
0 
-0.1730082445492089 
0 
0.007197876417880917 
0 
0.278697479627246 
-0.2175455526761465 
0 
0.008185233989657686 
-0.1817872946602201 
-0.04213401629187413 
0 
0.150125481445419 
-0.001260256706064583 
-0.01979206688244047 
0 
0.04166067817262169 
-0.1243004022858933 
0 
-0.2814287947580458 
0 
0 
-0.4996762423603417 
-0.2177335251885375 
-0.03279194736385047 
-0.08265765125515161 
0 
0 
0 
0.1952370704706211 
-0.04908452553854579 
0 
0 
0 
-0.0346781225517518 
0.14388002931906 
-0.1081068887480315 
0 
0 
-0.3835664647172546 
-0.05038330813949101 
-0.6027265323460582 
0 
-0.1496037904733105 
0.1220782297868007 
0 
0 
0 
-0.0978312459347711 
0 
0.04050865357330854 
-0.104520286953444 
0.1837419757521909 
0 
-0.1529888294859637 
0.2930324374270734 
0.05089313721192488 
-0.1273812384325625 
-0.3470667823198815 
0 
0 
-0.03541193148549417 
-0.07929946352636391 
-0.09255261937942001 
0.05225075225359982 
0.2680904462657398 
0 
-0.06273740271487099 
0 
-0.01555365375616692 
-0.3583046786070484 
0.1207524896525575 
0 
-0.3744622647331183 
-0.05517474047883974 
0.4575192034164512 
-0.04730542830763804 
0 
-0.09887155790611932 
0 
0 
0 
0 
0.2124358563364003 
-0.3433922867097789 
0 
-0.0007947021598174781 
0.0295906123742197 
0.2556459217620259 
-0.2145922002185189 
-0.08600997805169873 
-0.004463617973344786 
-0.03276409029073962 
0 
-0.2855082489801555 
0.9192817099051606 
0.4501863240245442 
0.3668349998941399 
-0.156150688671587 
0 
0.009566367558893807 
-0.05710779926222833 
-0.143713140517576 
0 
0 
-0.02921688106538489 
0 
0 
-0.0356355988929951 
0.0751913917919295 
0.05627936181894527 
0.169852349887321 
-0.06860994879434799 
-0.06128180613631279 
-0.05647480593166044 
0 
-0.002097689386816614 
0.03715044075605137 
0.08333871118349177 
-0.01190950601136745 
0 
0.183408495808199 
0 
-0.7977293317646257 
0.1487673188263436 
-0.08417350593587072 
0 
0 
0 
-0.5869867581596904 
0 
0 
-0.09579537342069458 
0.01796122038572868 
-0.1274460867347272 
-0.04213401629187413 
0.01362262149374566 
-0.05180537772425431 
0 
0 
-0.091262982017336 
0 
0 
0.3839331768722121 
0 
-0.4497044560267828 
0.2341624064476377 
-0.1813860319187083 
0 
-0.143066252435582 
0.0449751230181756 
-0.026429316231482 
0.8996853339709582 
0 
0 
0.1416642288515042 
0 
-0.02271461630489272 
0 
0.3201578425123233 
0 
0 
-0.03802580965809857 
0 
-0.09716652444826994 
0.03249765474945999 
0.083124489998446 
0.1336073021582287 
0.118780632737749 
0.1299668466623404 
-0.3261721927261064 
0.05162186106231573 
0 
-0.3824150229126606 
-0.2009628379175854 
0 
0.1737305901450121 
0.2065519917800742 
-0.08559373213475667 
0 
-0.1961255255470168 
-0.2651344934483099 
0 
-0.005493285431368154 
-0.221338323419051 
-0.08285761693104514 
0.1093770871229967 
0 
0 
0 
-0.3026923955757536 
0.1403197223244287 
0.1149527440024694 
0.08830469527619246 
-0.2480003410162976 
0 
0.2782205191583044 
-0.066728721542096 
-0.1148517185802298 
0.1501359344908644 
0.0244420193365349 
-0.09102679553619439 
-0.4437801918716859 
-0.10615188075721 
-0.02989693351751301 
0 
0.04422348286468624 
0.061954606676717 
0.1105169857311379 
0.0880888113534804 
0.09518901111568444 
-0.04900755358119394 
-0.07294252256729543 
-0.2051796886862653 
-0.09132744707278311 
0 
-0.2034943479112644 
-0.08496556003366475 
-2.775557561562891e-17 
0 
0.04282502687165545 
0 
-0.194353473792398 
0 
-0.2921469663423152 
0 
0.07889785638677445 
-0.2918927966101035 
-0.254142801819353 
-0.08279523417113169 
-0.05632944429384026 
0 
0 
0 
0.01216385525298311 
0.04726069812556521 
-0.07260869752331743 
0 
0 
0.06536365490747863 
0.079446527902788 
0 
0.1457162813115156 
-0.8562393935551554 
-0.0890457704588806 
0.04483338155476682 
0.002309914519385404 
0 
0 
-0.01612091404141051 
0 
-0.199924552542813 
0.03943523862356237 
0.1372516572126497 
0.06796967773087038 
0 
0 
0.01552146658815329 
-0.1530098815093739 
0 
-0.1783696552570135 
-0.141393356144926 
0 
-0.003200176506167382 
0 
-0.026429316231482 
0.02309785590748492 
0.03776336407623353 
0 
0 
0 
0.02474882955113306 
-0.1584912876451835 
-0.0225014097653553 
-0.07381251911511082 
-0.07668521072646163 
0.002478225832120359 
0 
0.1456022825817906 
-0.02238270830985251 
0 
0 
0.0401048148522995 
-0.03117389378286877 
-0.03375905488938916 
-0.1282401802260475 
0 
-0.1229612522874507 
0.3691009258117048 
-0.0381333887797556 
0.002004335594889449 
0 
0 
-0.1666703741241597 
-0.02416527225384403 
-0.1887049831599259 
-0.03357462994592277 
-0.1002575620356585 
0.02084830634920632 
-0.3347311255324987 
-0.1175708478266537 
-0.04366455094615322 
0.0788463514907758 
0 
0.1027396043891002 
0 
0.004919729285721688 
-0.006185341718255524 
0.0437191250900342 
0.03582474967971818 
0.02974198839646311 
0.04687274994622884 
0.116826264458844 
-0.3017989348269028 
-0.06532325021420528 
0 
-0.1170420357630861 
-0.1957082880832961 
-0.002633074374639729 
0.1026716840857891 
0.1055256772227085 
0 
0.3456932946773874 
0 
0 
0.1619535580098285 
-0.02503553744912664 
0.01245217424271443 
-0.032203728022804 
0 
0.0637224469426845 
-0.460325317142291 
0.04238597733631933 
-0.1626913481385013 
0 
0.003563116181023502 
0 
-0.07317609528733492 
0 
0 
-0.09908861414307354 
0.3003169849758424 
0.0514772577821415 
0.00103614704479931 
-0.1501489577078091 
0.1897025339469778 
-0.06461903773245632 
0.06686081032031992 
-0.1794105290567573 
0 
-0.1255343641137725 
0.004296002212735081 
0.2171309600921649 
0 
0.3464190577610144 
0.1682101534790036 
-0.01099739078325085 
0.161667110236554 
0 
0 
-0.11733597365354 
0.05162186106231573 
0 
0.02696881027817702 
0.1025059073147135 
0 
0 
-0.3578337157852723 
0 
-0.9131381218314013 
0 
0.8032623283401537 
-0.122642344430945 
0 
-0.1622438242964642 
0 
-0.1463412033954032 
0 
0.4685244802245437 
-0.08467722272393982 
0 
0 
-0.144411479282125 
0 
0 
-0.09161976732406492 
0.1004342503717039 
0.2210291086209123 
-0.01612091404141051 
0 
-0.07773968249265477 
0 
-0.06841119789653732 
-0.1576797305301648 
0 
0 
-0.219126954522198 
5.551115123125783e-17 
0 
0.2887358985823462 
-0.06374535114864339 
0 
-0.03109688524074862 
0 
0 
-0.09709320529526486 
0.5637781977804904 
0 
-0.295930484832241 
-0.1736169940044022 
0.2539605722948433 
0.02806182722319814 
0.2171145336094116 
0.2261920465276975 
-0.1423284737326665 
0.006436951990444581 
0.1982228209244677 
0 
0 
-0.04216117459448664 
0.4740874176132209 
0 
0 
0.04858252124296138 
0.1606534695939605 
0.292570254293205 
-0.3981552625471003 
0 
0 
-0.1109414662574428 
0.129399123822656 
0 
-0.1241308009236409 
-0.05978903673721794 
0.02802716414938827 
0 
0.2243756245908042 
-0.1845134875189327 
-0.1411750608267885 
0.05266181033667854 
0.0008186022084960053 
0 
-0.006594751537685444 
0.01612156209244723 
0.04884316101334456 
0 
0.03845382387761147 
0.1826427773651105 
-0.0272837784159267 
0 
0 
0.01027454276484966 
0.04288820543804845 
0.09171336245632868 
0.330531030479968 
-0.01548800382961487 
0 
-0.1297448435492708 
-0.3137913861843933 
0.06731881761120845 
0 
0 
-0.2632765221594135 
0 
-0.04544543699941888 
0.04920120794994172 
-0.01979206688244047 
0.04548419463643667 
0.00706259846846486 
0.316149361212721 
-0.07029999725665399 
-0.1090278107798913 
0 
-0.1545989948189884 
0.03845422679140678 
0 
0.1592679351547489 
0.2940949649764966 
-0.01814255351956956 
0.001371166464776915 
-0.102698689025133 
-0.4208776230121697 
-0.159086549224144 
-0.03218721646438753 
0.2017464503772615 
0.4254815803270349 
-0.05746120822930243 
-0.3052730918956326 
0 
0.06780458673071774 
0.04913220129716568 
-0.1721919684925791 
0 
0.5536361329482026 
0.1213091566545685 
0 
-0.2705608517404982 
0 
0.4298298034617445 
-0.4711274096610562 
0 
-0.1985185202876656 
-0.7181653606415996 
0.3530507898920107 
-0.07780847602193779 
0.06444869265772583 
0 
-0.2060660798560124 
0.08137910862517513 
0.1316642252837002 
-0.2022833645750079 
-0.07528887558224037 
0.1143155744903263 
0 
-1.210733921176067 
0.2346421205927275 
0.2505021013948265 
0.09517124670476236 
0.1467518132193771 
0.09822933734616551 
0.02126665101549161 
-0.0635512633526335 
0 
-0.1587196970735525 
-0.02991972827173202 
0.055288996000192 
-0.02127933997659904 
0 
0.0770158876937201 
0 
-0.3659908594808346 
-0.1341499743646955 
0.1010490181754088 
-0.08946436543835749 
0 
0 
0 
0 
0.0153218633855948 
-0.2223793268691074 
0.04982250875952345 
-0.06532325021420528 
-0.02521389154325025 
-0.122642344430945 
0 
0.1025993627786284 
0 
0 
0.09122220268381465 
-0.09033811571273569 
0.00223885018781687 
0 
-0.186877298882157 
0 
0 
0 
-0.1056244559751264 
0.2296004670403164 
0.1511955241077995 
-0.08058126284186738 
0 
-0.009862899168997689 
-0.3699134760881228 
0 
0 
0 
-0.1044299042216949 
0 
0 
0.0625812565673465 
-0.1411332293643868 
0 
0 
0 
0 
0.0736063550631413 
0 
-0.1123868854161246 
0.09953463370205401 
0 
0.08537539181006015 
0.02891446524911342 
0.1406901262736722 
-0.1431007974382613 
-0.07660445373254611 
-0.1000003787924127 
0 
0.1724764220235085 
0.134823290501862 
-0.06563980581115544 
-0.08321817233886532 
0 
0 
0 
0 
0 
0.05162186106231573 
-0.04607378898764124 
0.1269616001672105 
-0.02601360592888203 
-0.01612091404141051 
-0.09104903362181685 
0.4381852183064507 
-0.1685040631831594 
-0.7573967895822872 
0 
-0.03581218685334307 
-0.03657124069974091 
-0.005362594394531062 
0.067633022488006 
0.141132513200357 
0 
-0.05039834198743532 
-0.06748195718633432 
0 
0 
0.0308423347499452 
0.01900190748196093 
0 
0 
0.06777133250450962 
0 
0 
-0.0706057221802134 
0.03247645778815087 
0 
0.1739636027686987 
0.06394285930562917 
0 
0.03741415390487287 
-0.01977399266509493 
-0.2865947383478722 
0 
-0.1206779815168082 
0.007822982377375927 
0 
-0.5290043070281014 
0.04668140594385968 
-0.1450491424929647 
0.147568938749311 
0.5740895318487068 
0.07478854087126539 
-0.1101550492758731 
0 
-0.4700792269469997 
-0.02492150940137861 
-0.07467599078367743 
-0.11299038019797 
0.142220972824995 
-0.1343643652846493 
-0.009422998090196541 
0 
-0.01394334280616679 
0 
0 
0.4574617256148775 
-0.12945700611029 
0.01161433816222873 
0.009332257576995545 
0.08392338080446141 
-0.4317119486214525 
-0.003814298429075269 
0 
0 
-0.6612684858434852 
0 
0 
-0.3010834560556622 
-0.3378706688912971 
0.5148976198432609 
0.04182517034863579 
0.06928767327364931 
0.2159943801283833 
0 
0 
0.2364405422204376 
0 
-0.01876993254444312 
0 
0.040190173364176 
0 
-0.2911267724491195 
0 
0 
0 
-0.2062025084982318 
-0.1148554530264261 
0 
0 
-0.3286854798606266 
0 
-0.07975882342593847 
0 
-0.0486351350316526 
0 
0 
-0.1268971478373951 
0 
0 
-0.1093872592328763 
0 
-0.01531749393932153 
0 
-0.0230222926044288 
-0.152093629745416 
0 
0.4438945103744925 
0.1312359961442588 
0.005680191273147738 
0 
-0.277046734743792 
-0.04611915168481494 
0.513904412967055 
0.3791566186693369 
0.2931651039644875 
0.3037756140422284 
0 
0 
-0.1095695781425616 
-0.03861669616804612 
0 
-0.1048980243965636 
-0.06580139042167039 
-0.02042653139473581 
0 
0.01044575876139636 
-0.197550511501166 
0.08384988557425389 
-0.09062739035068831 
0 
-0.07659787800406083 
-0.1512684982767617 
0.1364087276696706 
0 
0.03479756550939858 
0 
-0.006032236904822578 
-1.457812476296722e-05 
0 
-0.5697427785049342 
0 
-0.009186238464527969 
0.1013875028898988 
-2.775557561562891e-17 
0 
-0.06226842415165555 
-0.05140654213853155 
-0.01993417247407836 
-0.052796060623661 
0.2259946790586808 
0.04422348286468624 
0.01445828784101666 
0.1647798247878824 
-0.09984226477360945 
0 
0.1563173362238991 
-0.1047024224623757 
0.06042035399078263 
-0.01913145198455207 
-0.2381451672932452 
0.04336032814776544 
0.08721551818579257 
-0.1246438516817422 
0.1355174459036003 
-0.01243409620652062 
0 
0.4170399553535176 
0.01362262149374566 
0 
-0.4070281640615686 
-0.078877339542246 
-0.009976363285467849 
0 
0.01225491587295393 
-0.01623299250285899 
-0.03349258006284899 
0.6167590930219753 
-0.03056218531526517 
0.2272884156396361 
-0.14960434237022 
0.121894061334958 
0 
0.04617682698219331 
0.2912303603857104 
-0.299679252214078 
0 
0.2247205103872258 
0.2159423910224729 
0 
0 
0 
0 
0.02308217983774664 
0.008068798323631179 
-0.04856235923133546 
0.225467048824272 
-0.08034090579351442 
0 
-0.001137862241816244 
0.05300987889570868 
0.2272113672152315 
-0.05226915078429599 
0.3633193038142936 
0.03228763956280891 
-0.3700988309912746 
0.01273273258820276 
-0.03098373389499596 
-0.4133826143717317 
-0.1063994521834458 
0.1680360258734527 
-0.1966720017968176 
0 
0.02933536479818731 
0.2841902844588922 
0 
0 
-0.08476847681975344 
0 
0.03080880931044371 
-0.08850420097566426 
0.1245072935811835 
0.3383633390625391 
0.04605145458652128 
-0.4141554082748761 
-0.1932516711367908 
0.0005134934239132555 
0.07185357687860479 
0.04099885689881998 
0.07430950372175191 
0.3105393128945311 
0 
0.08412956139396366 
0 
-0.08397502763279169 
0.1801544858512499 
-0.1019101106421854 
0 
-0.137724610627762 
0 
-0.1832439741910966 
0 
0.2000468697207262 
-0.08240526120316335 
0 
-0.1400393652150633 
-0.1044299042216949 
-0.1044299042216949 
0.1281833401137642 
0 
-0.02865638849278844 
0 
0 
0.09558083545473658 
0.08065541515016338 
-0.1107021631634648 
0.2459625922135453 
0 
0 
0.05920220889132804 
0.01706962191697287 
-0.04468641028216134 
0.03839281114084332 
-0.1125086392770212 
0 
-0.052796060623661 
0.01242724945493986 
0 
-0.05043921328542018 
0 
0.1249067436284208 
0 
0 
0 
0 
0.05022621709425924 
0 
0 
0.04313956986822014 
-0.0726617884109985 
0 
0.08753899551755262 
0 
-0.1587111287278855 
-0.2372777239589784 
0.01572910584551662 
0.002836641858881137 
0 
0.04676436361336304 
0.01504798257921611 
0 
0.02329231844292635 
0 
0 
-0.1163313836115245 
-0.13958731000265 
0 
0 
0.06696164693688629 
0 
0 
-0.0907020183858088 
-0.188191695247923 
0 
0.3405913386142501 
-0.339895320840475 
0.1343904359269277 
-0.01577880317758453 
0.348069102556072 
0 
0 
0 
-0.1221101390877785 
-0.06624757545160383 
0 
-0.1064762867679023 
-0.122268162636365 
-0.0437019169646879 
-0.05082001093801709 
-0.002800709690578047 
-0.1879312759389405 
-0.005591695983764457 
0.2733134801805882 
-0.2012836560363436 
-0.1182562392053545 
0 
0.0003780169633902448 
0.3602512528622281 
-0.3372719873161591 
0.08492215503606923 
0 
0 
0.0721777078918332 
0.3759374873657274 
0.1157985673677327 
-0.091157526166079 
-0.002797005785119005 
-0.1440694384473345 
0 
0.02811220413779402 
0.1752026624225526 
0 
0.060369926259752 
-0.06722418759229409 
0 
0.00223885018781687 
-0.1371958338901451 
0 
-0.1229612522874507 
-0.05230407506635344 
-0.01573662640874672 
0.04080969398846217 
0 
0 
-0.251877523085127 
-0.09888539244791222 
0 
0 
0 
0.2031780565626179 
0 
-0.1281030891387731 
0 
0 
-0.1299469956247439 
0.05934957764694821 
0 
0 
-0.2597616790257075 
0 
-0.0004890235353933099 
0.01112449115010092 
-0.4553032124338225 
0 
-0.08393373667296861 
0.5012826204175909 
0 
0 
0.02478585618756212 
-0.1025447992487111 
0 
0 
0 
0.1125623594731315 
0.04450576394221864 
0.1917703217644732 
0 
0.01362262149374566 
0 
0.1365156288620198 
0.1000148009109739 
0.1427667073079898 
0 
0 
-0.1510948496786289 
0 
-0.1024000369571071 
-0.180331230597198 
0 
0 
0.312216050666083 
-0.1251191634977432 
0 
-0.4325567687153383 
0 
0.2392847228160638 
0.1000078604694745 
0.1139239198109909 
0 
-0.2093250841908835 
-0.4697146059180798 
0 
0 
0.005637567135452656 
-0.1870137731323062 
-0.5219437184608683 
-0.1026381925481932 
-0.05850200638952231 
0 
0.1335609816068091 
-0.1876795653017161 
0 
0.3528104578296756 
0 
-0.2966029493757045 
0 
0 
0 
-0.0233700518596233 
0.1155552422532205 
0 
-0.009219913301663604 
-0.111253179497771 
0.061227307593531 
0 
0.457580586354157 
0.05022621709425924 
0 
-0.02423864968496615 
0 
0 
0.2895092724070849 
0.3831573240648656 
-0.1180786613463189 
0.1004450342759045 
0.02819833924730523 
0 
0.003905894176490835 
0.0563272470084145 
0.1978256487859611 
-0.005917002839705294 
-0.003814298429075269 
-0.0809504392016004 
-0.163437701442777 
0 
0.06779686933615824 
0 
0.1186864911477622 
-0.197700331427769 
0.340896681749589 
0.1183614075680982 
0.2653859144382486 
0.3688629640710601 
-0.07556589381151019 
0 
-0.1257305438585636 
0 
-0.02407007975668276 
0.5056999061543376 
0 
-0.06231927468001107 
-0.1894566851963018 
0.09698801732980833 
-0.11425171674636 
0.05665770983083001 
0.04316595157412313 
-0.2363288909749856 
0.04363416421316363 
-0.07299246972096129 
-0.09747494238059634 
0 
0 
0.06560982735912331 
0 
-0.202898819850861 
0 
-0.3920680104326592 
0.09893439754812841 
-0.1333691785475405 
0.03728470966926478 
0 
-0.1007991406301505 
0.1256480585304205 
-0.1053464473402213 
-0.3096264733567093 
-0.07369887279324573 
-0.002887410161466788 
-0.1374850565633736 
0.01325062575219749 
-0.06036802505624147 
0 
0.1624692606428713 
0.005786143222771696 
0 
0.07414220919506 
0.3055218099515324 
0 
0 
0 
-0.4890175470931512 
-0.09342631087229393 
0.00283031046874921 
-0.6573681074852885 
-0.1337229615331502 
-0.06166724553361215 
-0.213601369178735 
-0.05180537772425431 
0.05887600650608109 
-0.09617120450825919 
0 
0 
-0.1428296778344906 
0 
0.2912932478858355 
-0.3338726875559415 
-0.149332379768542 
0 
-0.1648807479132908 
0.2801343580495213 
-0.1428296778344906 
0 
0.04018731944262584 
-0.8401640868437823 
-0.0505546123517929 
0.1210403337974772 
0.04605969480117329 
-0.03888973685056008 
-0.5067947805679984 
0 
0.03396711054574511 
0 
-0.2375384277892102 
0.06069415293540756 
-0.06810210068875926 
0.02263907453347545 
0 
0 
0.0206399559117861 
0 
0 
0 
-0.07010772889115799 
0 
0.1174616977323039 
0.01836248920829391 
0.1746278322378807 
0.08707199386129265 
-0.03164507822586842 
0 
0.2943304391168751 
-0.008091825533554402 
0 
0 
-0.1462409707176573 
0 
-0.2432184796870913 
0.153313692075217 
0.02712749977509377 
0.2252377405133403 
0 
-0.06582480190356281 
-0.1080451259072454 
-0.01876958260641403 
0 
0 
0 
0 
-0.08144572478526395 
0 
0 
-0.05920374661339887 
0.4863428530094037 
-0.1594758242384921 
-0.1315719466080559 
0 
0.02898615049222415 
-0.1208021505842311 
2.775557561562891e-17 
0.3021339170967633 
0 
0 
0 
0 
-0.006718164773421915 
-0.06171478554934699 
0.2374719762620753 
0.3386599770227159 
-0.02814104101816291 
0.09865173330802385 
0 
0.01997711069675012 
0.3491321450509161 
0.1031504673905763 
0 
-0.1428986719657502 
0.5440443637435175 
0 
0.3944638366924916 
-0.2013136456311445 
0.05149613554707948 
0 
-0.2024272498214207 
0.02483025361962259 
0 
0.6659573278259709 
0.03817280948005687 
0.04812553217129718 
0 
-0.06317893000155568 
0 
-0.2060342498342367 
0.02586583338813362 
0.01609093729936005 
0 
-0.01020798591965057 
0 
0 
0.1572994886776599 
0.09529033523385755 
0.1476830923879392 
0 
0.01066320623108781 
0.08565268454281653 
0.2577896904432135 
0 
-0.02251673582859978 
0 
0.1404535629392822 
-0.2149281654847492 
-0.4474524618575153 
-0.01019581918569863 
-0.178659063013408 
0 
-0.2687543508312603 
-0.05428459262268739 
0.04889775574269423 
-0.1607420839979375 
0.5219974037442074 
0 
0 
-0.3422356674381335 
-0.04727086999703423 
-0.159868299650467 
-0.147955161128376 
0 
0 
-0.02956827177640218 
-0.09415423499110452 
0.4758294204127429 
-0.1643805431280563 
0 
0.04675207791117018 
0 
0.01602277119619571 
0.1652347204941712 
0 
0 
-0.02077656467056067 
0 
0 
-0.03546180350555395 
-0.3819577309624331 
0 
0 
0 
0.3569935642240611 
-0.0209967243768301 
0.01416354407196505 
0 
0.0699729893840301 
0.1345284019144138 
0 
-0.1421558198441992 
-0.06253746286645148 
0.00680242925905326 
0.0556502471157155 
0.01620120176303017 
0.3038298521553485 
0 
0 
-0.2652747663010928 
-0.123572633553027 
0.1540056407091795 
-0.4707138770596318 
0.07572313611532086 
-0.03813744292613667 
-0.09068897521275986 
0.5766159239078867 
-0.078654045758504 
0.009540631716835541 
0.4167980078434331 
0.02358832046541104 
0.008649375470216374 
-0.003453604208907661 
0.8542460204127057 
-0.7588432321852649 
-0.2602790514661605 
-0.6369355264142631 
-0.00772722506974866 
