solver_type L2R_MODIFIEDPINLOSS_SVC_DUAL
nr_class 2
label 1 -1
nr_feature 47236
bias -1
w
0 
-0.2776194185391398 
0.09470698216778511 
-0.1576873658960319 
-0.1770027273510695 
0 
-0.1617075127277477 
0.222543586835868 
0 
0.1423127643138114 
0.1820130376615426 
0.04220473315451199 
-0.006732638342385354 
0.0441120076067451 
0 
0 
0 
0 
0 
0.1581659072032078 
-0.1617075127277477 
-0.2010689238387178 
-0.07705449625017488 
0.05949990254631665 
-0.1304646030754507 
9.75781955236954e-19 
-0.003745227947488561 
1.022833173371799 
0.1141072958523628 
0.1032732355623279 
0.28359650312749 
0.584978645300534 
0.05929244649980654 
0.0263834028282039 
0 
0.09803434035499453 
-0.01249993229075833 
0 
0 
-0.1056138116383599 
-0.09231590302157655 
0 
0.0006520775612447149 
-0.1945947727823192 
-0.04128657809135692 
0.09589904170728465 
-0.129384022712426 
1.734723475976807e-18 
0 
-0.3812684638105854 
-0.1422745923289123 
0 
-0.129837159061629 
-0.1719849827473119 
0.03454795942528734 
0 
-0.07208209342400788 
-0.005726012843106312 
0 
0 
0 
0.8042797057787696 
0 
-0.07276065828215816 
0 
0.2126080404063282 
-0.4847712778100293 
-0.01994962543073687 
0 
0.04166775876518305 
0 
0.137772656324756 
0.1375328365935141 
0 
-0.01939343051608018 
0 
0.04236632087469226 
0 
-0.1721745598268195 
0 
0 
-0.3523730929189384 
-0.05813730925724608 
0 
0 
-0.05956133518777754 
0 
0.003491406331818949 
0 
-0.2308860713590243 
0 
0 
-0.02688099354275266 
0.006893787860171307 
-0.3539795305157321 
0 
-0.09111968444137797 
0.1905946112529283 
0 
0.1835243641166597 
0 
-0.413762143739121 
0 
0 
0 
-0.06635783125169843 
0 
0 
0 
0 
0 
0 
-0.3090183359147923 
0 
-0.09938732301081991 
0 
0.03097684568244013 
-0.1072286988040722 
0.1321982115415994 
0.002440999673729448 
-0.05151062318825377 
-0.1106444259375691 
-0.03961417468097212 
-0.04464187693055638 
-0.03961417468097212 
0 
-0.07454725881615552 
-0.1626483450688364 
0.21298637839 
-0.01979333598133348 
0 
-0.08220875309365389 
0 
0 
0 
0 
-0.06418346086368908 
0 
0 
-0.06418346086368908 
0 
-0.06418346086368908 
0.001536103478625776 
0 
0.5882313892710004 
-0.1014844801046684 
0 
0 
0 
0 
0.003161384250626976 
-0.1499732646563355 
-0.02975011580399313 
0.001236255885777311 
0.04795355649327709 
0 
0 
0 
0 
-0.01275265031150128 
0 
-0.1218636418581651 
0.4338051647689241 
0 
-0.03109824188048835 
0.336910529592991 
0.183288935748652 
0 
0 
-0.08497125943688384 
-0.0130720186797315 
0 
0 
0 
0 
-0.009165903246520378 
0 
0.04405455377258456 
0 
0 
0.5109156004912437 
0 
0.08762608863775423 
0 
-0.1124580261172197 
-0.05804306295077526 
-0.1005986170841194 
0.06860527651272814 
-0.03931413567686771 
0 
-0.3659852023131698 
-0.2369021696809598 
0.0004017736247180956 
-0.03961417468097212 
0 
0.1789413894949587 
-0.01507577211698384 
-0.129384022712426 
0 
-0.4375948026065449 
0 
0 
0.05201068830877428 
0 
0 
0 
0 
0 
0 
0 
0 
-0.4857761967778074 
0.06401481434768627 
-0.1715979069265799 
-0.05778056922160326 
0 
0.03928498223742018 
0 
-0.2171345118533032 
-0.1232349138411636 
0 
0 
0 
0.07276180856949435 
0.6265452169411986 
0 
0.08593917741533967 
0.1153381890130295 
0 
-0.3908996522120094 
-0.0785108651017648 
-0.0272849153903562 
0 
0 
-0.3996590853783138 
0 
-0.5014793001441856 
0 
0.231999162391716 
0.1192973511719624 
-0.1918380248558477 
0.2099912863101919 
-0.01475216891945748 
0 
0 
0 
-0.03287282323595569 
0.02234022233705639 
-0.04982217085537481 
0.04116861373194024 
0 
-0.1824605987390902 
0 
0 
0.01790078172502064 
-0.002911560443888684 
0.1317148361206656 
0 
0 
-0.1269807907900039 
0.6049213560121076 
0 
0 
0.01594145022310354 
0 
0.1102414475637126 
-0.2655595385562273 
-0.31344612029243 
0 
0 
0.5221904204766815 
0.06428897509038982 
0 
0.04078977534276384 
-0.2247120938186291 
-0.09156626632534849 
-0.05946271047915175 
0 
0 
0.2459389486636531 
0 
0 
0 
0 
0.3445063565797136 
2.168404344971009e-19 
-0.06730058483204969 
-0.009229714653274658 
0 
0.3984101390318686 
-0.02490843885953476 
0 
1.734723475976807e-18 
-0.2073520377933836 
0 
-0.001016363337086022 
0.3760876814181753 
0.2151881703154465 
-0.1518511802719627 
0 
-0.02577138457365744 
0.08771989138130558 
0.1331983039651328 
0.01619330131741325 
0.780797789320404 
0.2696431761210849 
0 
0.8302145935841556 
-1.312901923453898 
0 
0.01900696082027418 
-1.185306700338796 
-0.2508893015808168 
-0.2076807381448221 
-0.1525480672439641 
-0.1278294913440895 
0 
0 
0.5425797885311606 
0.008927803184593488 
0 
0 
0 
0.02111809450486785 
0 
0.02306554749191326 
0.218910786338919 
0 
-0.09350450177010879 
-0.2636477802206901 
-1.110223024625157e-16 
0 
0.068088668180706 
0 
0 
0 
0.9106456039073648 
0 
0 
0.01283559896206737 
0.007350685657681504 
-0.115249607183603 
0 
0 
0.3590686503224329 
0 
0.08505406973039997 
0 
0 
0 
0 
-0.05953921741804637 
0.01502853156026256 
0.3824760277478343 
0 
-0.04116350885761658 
0.147895081032124 
-6.938893903907228e-18 
0 
-0.02376278551283722 
-0.1086033023278875 
0 
0 
0 
-1.387778780781446e-17 
0 
-0.09654280387993172 
0 
-0.06683735655310179 
1.321967747319658 
0 
-0.009249365206049265 
0.01210839926882012 
-0.1559095657118974 
0 
-0.01006773051785524 
-0.1442111933236862 
-0.1052409872716676 
0 
-0.07624270479319044 
-0.340835072038242 
0 
0.3131254035248425 
0.2835250987577 
0.2287462644585219 
0 
0 
0 
0.2817960656099999 
-0.330932521186777 
0.707788425362 
-0.6627405275739392 
0 
-1.070625311784319 
0.05405709217245869 
-0.07698757683907353 
0 
1.626303258728257e-19 
0 
0 
0 
-0.298228200635286 
0.07464840856118568 
-0.1560500167073702 
0.5231165247197257 
0.009808052922596802 
0 
0 
-0.169108406074109 
-0.1801993339640574 
0.03563244277075792 
0 
0.2438460335897856 
-0.4444225757609147 
0 
0 
0.1351012286970072 
0.416160041060148 
0 
0 
0 
0 
0.04370187099513986 
0.008106434309184521 
0 
-0.1304708150848635 
-0.01902730273058201 
-0.01449033412335668 
0.05889269730624205 
-0.04024091390350777 
0 
0.1839962006918355 
0 
0 
-8.326672684688674e-17 
0.1240286723051769 
0 
0 
0 
0.1115726383491322 
0 
0 
0 
0.01937254470179428 
-0.07276065828215816 
0.04024409950995826 
-0.3144412558841381 
0 
0 
0 
0 
-0.08296343762695772 
0 
0 
0 
0 
0 
0 
0 
0 
0 
0.1321796945014233 
0 
-0.08677924207567694 
0 
-0.006079269481358465 
0 
0 
-0.06071218671714611 
0 
-0.0366357210992185 
0 
0 
0 
0 
0 
-0.20372913240467 
-0.003149977019838059 
0 
0.06560731682054563 
0 
-0.01299435643894621 
0 
0.2622807052620411 
-0.2867139647048038 
-0.003612307925637056 
0 
0 
-0.06439038866625696 
0 
0 
0 
0 
0 
0 
0.02702840080246102 
0.1674747592910722 
-0.06359794298207999 
0 
0 
0.3885087503209298 
0.1695779312350491 
0 
-0.08062206217920587 
0.1603543532119662 
0 
0 
0 
0 
0 
0.175445573239426 
0.3733938701611503 
0 
-0.07407446560340035 
0 
-0.06677571405798335 
0 
-0.1601098263571605 
0.1202309218902446 
0 
0.272796476666 
0 
-0.1237349073146806 
0 
0.05470051147824264 
-0.1847662573473711 
-0.07720043492777146 
-0.1068842454733157 
-0.2764268561330652 
0 
0.03455681880529275 
0 
0 
0 
0 
0.00611772057653582 
0 
0.1855981485129844 
-0.7237467503685249 
0 
-0.1929141639474629 
0 
0.1066357978986561 
-0.008504750416885063 
0 
0 
0.2883581650703336 
0.6588571904508167 
0 
0.250331587875145 
0 
0 
0 
0 
0 
-0.3110013236366092 
0.3131015768085785 
0.2298873772093759 
0 
0 
-0.007003173735462115 
1.418696583378467 
0 
0.4647145127539316 
0 
0.7115058752273414 
0 
-0.01225952967680331 
0 
0 
-0.08382398818429912 
0 
0 
0.183297292643 
0.2030991684832705 
0.020002513407992 
-0.8700617263595801 
0 
0.1806840462729042 
0 
-0.06051152043332045 
0.5823965666938095 
-0.07421102826344551 
0.4571141282767062 
0.1082060484637713 
0.09559041179120031 
0.04011646294580516 
0.1544105000826747 
0 
-0.1127542640782798 
0 
0 
0 
0 
0 
0 
0 
0.6290354272286428 
-0.2258140153498003 
0 
0 
0.232987366272887 
-0.1453609802992983 
0 
-0.01925488174199699 
0.5427902961630969 
0 
-0.02200679907826436 
0 
0.3996446267017024 
0 
0 
-0.1349395620670558 
0 
0.0007868790097832121 
0.1446384947863484 
0.03571155606756914 
0 
0 
-0.0002596508404242671 
0 
0 
-0.003946495779646526 
0.1844255566902014 
-0.03570118948430451 
0 
0.04360510737519677 
0 
-0.02197498164899516 
0.2189872302385402 
0.3340692863157114 
-0.01384576991450422 
0 
-0.1294142042301602 
0.2084919470542408 
0.09147771772065438 
0 
0.01698253946871112 
-0.01121407338714796 
-0.000335031274395795 
-0.03872948289525852 
0 
0.2067132217430546 
-0.4961249110162042 
0 
0 
-0.2076664799312902 
-0.1082458051139656 
0 
0 
0 
0.1225649531713106 
0 
-0.02882428550529759 
-0.7312685593513018 
-0.2822066179022308 
-0.04010843465115 
0.584077402763347 
0 
0 
0 
0.6055632106834257 
0 
-0.02581490322108207 
0.05669539351710772 
0.02065670911903884 
0.2021730947256608 
0 
0.007565733199432306 
0 
0 
-0.4102685646538484 
-0.4198534973501398 
0 
-0.06361698193535098 
0 
0 
0 
-0.02569284717027735 
0.4687026156931949 
-0.05152610678085628 
0 
0.1576950452780785 
0.007065098832002885 
0 
-0.12778760755698 
0 
0.06789065670136012 
0 
0 
0 
-0.03520395888825488 
0 
0.03097954684186853 
-0.2403255074895723 
-0.191564267235623 
0 
0 
-0.03395879055264676 
-0.01081320695080747 
-1.523356111670259 
0 
0 
0 
0 
0 
0 
0 
0 
0.05961739571531422 
0 
0 
0 
0.08586512235928627 
0 
0.3065457787764094 
-0.05442613923741189 
0 
0.1399649761723252 
0.2091918130842022 
0 
-0.5367822862320081 
0 
0 
0.02810412715650737 
-0.00237355468824753 
0 
0 
0 
1.259176689872493 
0.1649483112191129 
0.0845736876655792 
0.05419901082432618 
0.3962940150977833 
-0.0652576629583578 
0 
0 
0.0148879032192704 
0 
0 
0 
0.239540818644422 
0 
0.0409577392060512 
0 
-0.03928792424565926 
-0.01181070794776432 
0 
0 
0 
0 
0 
0.1341136847797766 
0.03469643201540578 
-0.01507577211698384 
-0.8135369477226614 
0.01178146941444849 
0.06141053792320074 
0.2458071345777038 
0 
0.244424737824638 
0 
0.03473649345303995 
0 
0 
-0.1550882966333075 
0.1923811209033801 
0 
0.1781386319811459 
0.3153294901703773 
0 
0 
0 
0 
-0.06338684166383214 
-0.07116071596180748 
0.03540136993944688 
-0.1035083550610836 
0.01765845004809502 
-0.146691098608 
0 
0 
0.0235745680291141 
0 
0.1604659330144319 
-0.0140366710817131 
0 
-0.1543303471374636 
0 
-0.0488895697792198 
0.1191132291215937 
-0.0001822077187519755 
0 
-0.06897872544629202 
0 
0 
0 
0.1133839390577041 
0.02203742388521482 
0 
0 
0 
0 
0.01166090179731744 
0.02464096152825291 
-0.0122265617570018 
0.1348529115928541 
0.2271522123755735 
0 
0 
-0.1844593325447824 
0 
-0.238539640832768 
0 
0.174505925261023 
0 
0 
0 
0 
0 
0.1677896013312947 
0.09887095058082393 
0.06283071828084286 
-0.170864915018102 
0.1162050019561644 
0.123691901788728 
0.03161043607835094 
-0.05795076350697819 
-0.02819522456807982 
-0.01079381877780664 
-0.5827017025890818 
0 
-0.006748809153449882 
-0.01507577211698384 
-0.07316515968081691 
0.3774763121362159 
-0.134308845549901 
0 
0 
0.05515685012810001 
0 
0 
0.15477357463072 
0 
-0.005109563341295986 
-0.01507577211698384 
0 
0 
-0.06704250718256553 
0.2221636012373401 
0 
-0.007561050947721902 
0 
0 
0.04118796772105599 
0 
-0.03148370805557325 
0 
-0.3386412988192176 
-0.4085053848019931 
0 
-0.0165451057678634 
0 
-0.6700616575760422 
0 
-0.04678355017835886 
-0.2856505293645836 
0.03470792992471057 
0.01626906756491454 
-0.1270997326347688 
0.09658947613247551 
-0.1126894471105976 
0.03110546751254968 
-0.00460455184792801 
0.03645020763378637 
0 
0 
0 
0.2390153670112609 
0 
-0.101800644071634 
0 
-0.1083291007021281 
0 
0 
-0.5830843827977192 
0 
0 
-0.126974596746344 
-0.0660815279500048 
-0.3193989133381441 
0 
-0.06353800438745412 
-0.02934849618085937 
0.147508670247 
0 
0 
0 
-0.3263368933210461 
-0.073034386591585 
0 
0.3026781613215179 
-7.047314121155779e-19 
0.2551394405964648 
-0.1313190841646922 
-0.005826194705345079 
-0.07990798637846661 
0 
0 
0 
0.07100937308728418 
0.5603992677673961 
0.001544098456075113 
-0.1180456136853042 
0.5034266082597308 
0 
0.06228973740651192 
-0.03713306532051627 
0 
0.005964491483480215 
0 
0.6853423979576565 
0.06710831692969411 
0.0001190518297054923 
-0.03248720891365982 
0.01938972208982372 
0 
-0.0607179121538636 
0.2825328618132943 
0 
-0.01557009557235179 
0.02991813247402532 
0 
0.04360510737519677 
0 
0.2049381110827989 
0.03807397040684735 
-0.08275054909113443 
0.170392676645186 
0 
0.2931860239849146 
0 
-0.04475325321776705 
1.46361762426467 
0 
-0.07928023504969908 
0.06969882027674844 
0.2522130787163455 
0 
0 
-0.561539117340436 
0.1732069589526417 
0.06206489862890935 
0 
-0.02742683400816406 
0 
0 
0 
-0.02275775419583567 
0.2989624496276986 
-0.1378015895510981 
0.002260705821364628 
0 
0 
-0.03322447037110175 
-0.0963079185230656 
-0.0325799801634385 
0 
-0.06707262817129747 
0 
0 
0.06704218507600511 
0 
0 
-0.01062470005289632 
0 
0 
-0.04546160294602501 
0.0460316794385012 
-0.2636496633774899 
0 
0 
0.3053061197498555 
0 
0.1735992961303747 
-0.1422654490550776 
0 
-0.01927993598336046 
-0.03142687274955178 
0.3213514833481798 
0 
0 
0.01664108555034304 
0 
0 
0 
-0.08889917114665805 
0 
-0.3221011231144332 
0 
0 
0 
0 
-0.168256247676066 
0 
0 
0.3196070373177696 
0 
0 
0.08643897629788232 
0 
0 
0 
-0.01155167368240141 
-0.06418346086368908 
-0.02278856246700957 
-0.01561092555822775 
0.03055132084998166 
-0.06418346086368908 
-0.06418346086368908 
-0.008338984935950361 
0.1139726176367712 
0.1715940883978559 
0 
0 
0 
-0.01760798139764204 
-0.09549231067334722 
0 
0 
0 
0 
0 
0 
-0.2085965652733171 
0 
0.3240990616319201 
0.01149751500946429 
0 
0 
0.02471738123989362 
0 
-0.04275181102600652 
0 
0.06924959315776824 
0.1333196889932341 
-0.161272778504356 
0 
0.1397695479085791 
0 
0 
-0.1854473789366454 
0.0266934318665709 
0.3261924282061099 
-0.4740208280658972 
0.5909689735259015 
-0.04429356600660912 
0.02780022146541164 
0 
0 
0 
0 
-0.02757990342114875 
-0.08983941969557291 
0.1346890198319467 
0 
-0.06418346086368908 
0 
0.1736097155994292 
-0.001421912784523083 
0 
0 
0 
0 
0 
-0.3831027344075862 
0.08027204260936316 
0 
0.1060109948251001 
0.09430433835847624 
-0.01762125284227986 
0 
0 
0 
0 
-0.1072158716919092 
0 
0.2540941748985185 
0 
0 
0.2424259215543275 
0 
0 
0.1112536416395874 
-0.306569393560754 
0 
0.001812095301346178 
-0.0643972922149675 
0 
-0.02332739871023113 
0 
0 
-0.1261602145792026 
-0.1702379953092112 
0 
0.01475859542299174 
0.005345653027983856 
0.02666507995696314 
0 
0 
-0.0672854620222391 
0 
0 
0 
0.1878386094942337 
0 
0 
0 
0 
-0.08677924207567694 
0 
0 
0 
-0.7168115523236743 
0.4429048735645074 
0.08428567799517243 
0 
0 
0 
0 
0 
0 
-0.0174286580336399 
0.06019463419632929 
0 
0 
0.01737052435336816 
-0.03846064663662244 
0 
-0.002823597727374869 
0.08172907324610414 
0 
0 
0 
0.2928127688313571 
0 
0.07064788748728468 
0 
0 
0 
0 
0 
-0.01190245726805114 
0 
0 
1.833685270957486 
0.004274780438656346 
-0.03536723645775797 
0.0001465062622396622 
0.002338536340790002 
-0.03568730044975876 
-0.09629586833960269 
0.2888941542357388 
0 
-0.1258833924416198 
-0.04413916178981267 
-0.3443658534940052 
0 
-0.001762825377655436 
0 
0.1130673793835388 
0 
0.004306213056042728 
0 
0 
0 
0.1896322016651569 
0.4434410468905973 
-0.01815877705779273 
-0.01328624236165849 
0 
0.04117992922156319 
0 
-0.07592965250403846 
0.05252307046215689 
0.04588599801294126 
0.1568297664333285 
0 
0 
-0.10602545756987 
0 
0 
0.03884515652909342 
-0.4377926534460488 
-0.5272061751754455 
0 
-0.07661742262432714 
-0.06867084651537425 
0 
0 
0 
0 
-0.1153195948273931 
0.07254855334120601 
-0.07196453030198162 
0 
0 
-0.02930010194516161 
0 
0 
-0.509586692908676 
0.04212346758419248 
0 
0 
0 
-0.2573184505335752 
-0.2084579065953647 
-0.04657007951442846 
0 
0.01661441039058019 
0.200520427213189 
-0.0237040150933678 
0 
-0.07455137872625536 
-0.0722791211215956 
0.04395166113683778 
0.1031698680130829 
-0.03362946356501996 
0.01202305590432218 
-0.1460638222672092 
0 
-0.06418346086368908 
0 
0 
0 
0 
0 
0 
-0.132374158195846 
0 
0.222621341135484 
-0.005864339145223356 
0 
-0.002785480069133116 
-0.009747130027346543 
0 
-0.01073769278879211 
-0.4157555437039394 
8.374857700758325e-05 
0 
0 
0.03211935237534035 
0 
0 
-0.08628308583209179 
0 
-0.04093656589637425 
0.4324986917494064 
0 
0 
0.297342779892562 
0 
0.008355006579671814 
-0.08994584890528579 
0 
-0.2703029330590001 
0 
4.688985321613329e-05 
0 
0 
0.02028611701633394 
-0.01172074046461073 
-0.02056841731707244 
0.002201002778622066 
0 
-0.4262918943486789 
-0.2947064049596106 
0 
0.2500854621935771 
0 
0.7480921585965815 
-0.1542432824668814 
-0.05051102108097667 
0 
0 
0 
0 
-0.3475374009797096 
0 
0.01327314921194474 
0.06739176856379736 
0.02990816610999522 
0 
0 
-0.3019886594361557 
0 
0.00922388825019156 
0.09254041478233214 
-0.189310606045234 
0 
0.1458798852886991 
-0.1525607442340789 
0 
0 
0.1136736226221358 
0 
0 
0 
-0.4096105522516166 
-0.8930978013483027 
-2.927345865710862e-18 
0 
-0.5338197780129911 
-0.2066733819813872 
0 
0 
0.04733985613716341 
0 
0 
0 
-0.1048254273301287 
0 
0 
0.7552285096997605 
0.314049124959486 
0.3052286638095431 
0 
-0.008050920782718598 
-0.03905044531184784 
-0.1072053915363596 
-0.003830757542677108 
-0.05958580474262289 
0.0580590583964754 
-0.1266756574525325 
-0.02256182432801269 
-1.734723475976807e-18 
0 
0 
0.01483734167596477 
-0.05151062318825377 
0.004306213056042728 
-0.104126622929 
0 
0 
0 
0 
-0.08623016925931265 
0 
0.2379532747582973 
-0.5708059038160054 
0.05171623799111907 
-0.05643288682865437 
0 
-0.05936121768187936 
0 
-0.268257325686001 
0 
-0.0005598573575214157 
0 
-0.06021150534845605 
-0.006880131452311935 
0.2534257423413123 
0 
0.5062484657224865 
0 
0.06145111122630926 
0.1759223132706911 
0 
0 
0 
0 
0.1525993586183007 
0 
0 
-0.008727979481347611 
0 
2.775557561562891e-17 
0 
0.02529287592231913 
0.0173638188559707 
0 
0 
0.200130664183576 
0.3835837986742091 
0.1340561043008733 
-0.1261766515493152 
0.01012745202704512 
0 
0 
0 
0 
-0.0523627480822025 
0 
-0.0870478017809253 
-0.2603673069010826 
-0.1104624019564474 
0.03795279372612794 
0.09219082791717949 
0.1560926403614599 
0.01380831774027515 
-0.1993966058185337 
0.2492661701901881 
0.5236689557142621 
0.137772656324756 
0.05067864956279112 
-0.09116176546299988 
0 
0 
0 
0 
0 
0 
0 
-0.1269983687346625 
0 
0 
0.1297581527331513 
0 
0 
0 
0 
0 
-0.02265155197964614 
0.1609997537446436 
0 
0 
-0.01034273652713256 
0 
0 
-0.03980004676320845 
0 
0 
-0.2383608576778608 
0 
0.1773346277905512 
0 
-0.08607397884418672 
-0.01351128364677941 
0 
0.258215896875 
-0.01600881121868259 
-0.08275182917561744 
0 
0 
-0.01182700461562415 
0.134925128212732 
0 
0 
-0.06655822873742256 
0 
-0.01727343678823647 
0 
-0.1685958926303592 
-0.4175601855272508 
0 
0.153121793656142 
4.336808689942018e-18 
0 
0 
0.1427285070072975 
-0.07906354687213191 
0 
0.1081221549151569 
-0.06828338113772034 
0 
0 
-0.03638021246496815 
0 
0.2556720099147317 
0.1134873265905583 
-0.006282945507151427 
0 
0 
0 
1.387778780781446e-17 
-0.052872753603178 
0.07434599148840439 
-0.003707733098262842 
0.2493141385277906 
0.104013708222984 
0 
-0.5938009379755455 
0 
0 
-0.08760113855425929 
0 
0.5892621714160637 
0 
0 
0 
0.001705097244107994 
0 
0.294871701653607 
0.02769413643108971 
-0.06615395133399998 
0.468412805912 
0 
-0.05306484976152274 
-0.4189859425737622 
0 
-0.174006961449483 
0 
-0.2429849867572367 
0 
0 
-0.04659429048624589 
0.09050803338548075 
0.114721239639656 
0 
-0.08947688883454724 
0 
0 
0 
0 
0 
0.01247898981101698 
-0.1891760275171487 
0.3032796170643021 
-0.3761110211600995 
0.06718114793202122 
-0.001695700546820593 
0 
-0.0933311165570225 
0 
0 
-0.07415485627660676 
0 
-0.06453531639704593 
0 
0 
0 
-0.005949325671833491 
0 
0 
-0.0719140219010642 
-0.1573844073299864 
0 
0 
0 
0.06374279686344213 
0 
-0.07550889452280711 
-0.1280839898841553 
0.5382032494348786 
0 
-0.1082492638227207 
0.3184098560344765 
0.411462674048 
0 
-0.06982574127766659 
1.951563910473908e-18 
-0.206105322713783 
-0.04986347345581983 
0.02635296972558841 
0.1032433864390902 
0 
-0.1285734514754347 
0 
0.1128458005616317 
0 
0.1462062354992904 
-0.04831380599821638 
0 
-0.06928775564057957 
-0.4626135176406871 
-0.02872853874313275 
-0.2819673690765061 
0 
-0.3115004427703061 
0 
-0.2082486233954321 
0 
0 
0 
0 
0 
-0.03305393277720717 
-0.00853959299557136 
0 
0.02854500561309189 
0 
-0.329180562217524 
-5.551115123125783e-17 
-0.00853959299557136 
0 
-0.5390595568663589 
0.04466124987116663 
0.08691528347071623 
0 
0.2023326428467661 
0 
-0.07253408185503282 
-0.06625594736669034 
-0.08242121139857807 
0 
0 
0 
0 
0.008533123368872296 
0.4115875396718557 
0.231072751960242 
0 
0 
0.6745468375029704 
0 
0 
0 
0.1428205228350765 
0 
-0.2667240200677545 
-0.1385849415448009 
-0.1014356003479132 
0 
0 
0 
0 
-0.1418698491313936 
0 
0 
0 
0.5406654900409559 
0 
0 
-0.03644802415538172 
0.1426801855382278 
0 
0 
-0.02062207865271181 
-0.07700104114793613 
0.4189519483452504 
0 
0.5562175861425525 
0 
0 
0 
0.4485333908129248 
0 
-0.3953228417880125 
0 
0 
-0.1471318322991755 
0.05511332765593045 
0 
-0.0465504837318664 
0.2218066630415747 
-0.01793004767301002 
0 
0.2407320276581598 
0.2580669358630544 
0.1406185884309256 
0 
0.08190475805349835 
0 
0 
-0.111661963228525 
0 
-0.1151415490970486 
0 
0.004417588782391582 
0.1860148497952556 
-0.009428867890132491 
-0.07718393043397744 
-0.003707733098262842 
0 
-0.007979981777078036 
-0.007979981777078036 
0 
0.4057307937643826 
0 
0 
0 
0 
0 
0 
0.4668128821654221 
0.149333303238761 
0.2145940643699292 
0 
-0.1139119862433213 
0 
0.1536645856856202 
0 
0 
-0.1558179071660863 
0 
0.07385327101346063 
-0.05955846605518138 
0 
0 
0 
0.009962160202788395 
0 
-0.2040835140065972 
0 
0.009173861786180234 
0 
0 
0 
0 
0 
0 
-0.2339903490413831 
-0.0699300429818427 
0 
-0.07953274606490844 
0 
-0.008771778819578786 
0 
0 
0.01160258241275823 
-0.1141961345614711 
4.552413779613505e-06 
0.3219503012816174 
0 
0 
-0.007656220980213809 
-0.1875997618044049 
0 
0.7187286022389765 
0 
0 
0.07186416513511716 
0 
0.05274814340351709 
-0.2009065306210181 
0 
0 
-0.151645396904154 
0 
0 
0.01401332908767674 
0 
0.2292526745670644 
0.1103467890786929 
-2.19867351060594e-05 
0 
-0.0832819462268837 
0.4174254946717169 
-0.07508697876561962 
-0.08837177446781641 
0.004489244637842323 
-0.1536844410581705 
-0.03205659162833497 
0 
0.09219557313925204 
0 
0 
0 
0 
-0.008545738139629999 
-0.08002441660763505 
-0.406766507590348 
0.04912023395163909 
0.4425693699672656 
0.05931831710777603 
-0.4486367346359884 
0 
0 
0 
0 
-0.4270202230647596 
-0.5126721353684006 
-0.02878092070576452 
0 
0 
-0.1152551689252073 
0 
0 
-0.0634335541823899 
0 
0 
0 
-0.02179576110791814 
0.02099554148111225 
0 
0 
0 
0.2657823006742376 
0 
0 
-0.1929815319829558 
0.03604147523968931 
0 
0.129186210622243 
-0.03975224807575668 
0 
0 
0 
0 
0 
0 
0 
0.09132040446941227 
0.02473665501962305 
0 
0 
-0.04467798997465655 
0 
-0.6708015940391245 
-0.1311314535471086 
0 
-0.08433958741739112 
-0.050369808218124 
-1.734723475976807e-18 
0 
0 
0 
0.0269020856984638 
0.154860374676781 
-0.1129487171744273 
0 
0 
0.09056085161865503 
0.2883066996429263 
3.469446951953614e-18 
0 
0 
0 
0.003210887396624119 
-0.03654889559785998 
0.2310734107654329 
0 
0 
-0.007901586333896746 
-0.08514357147200194 
-0.003130343679540421 
0.003337445979937276 
0 
0 
0 
0 
0 
0 
-0.01494457592393039 
0 
-0.125942556913 
0.01964519381405542 
0 
0 
0 
0.02053457412788273 
-0.7453586548696497 
-0.1279538595725299 
-0.1321255542275282 
-0.1513554881662225 
0 
0 
0 
0 
0 
0 
-0.0140366710817131 
-0.01931221877956988 
-0.001715795929844758 
0.7543602080187721 
-0.01625594829557569 
0 
0 
0 
0 
-0.03187848289822692 
-0.3793462920442001 
0 
0.08554548698417093 
0 
0 
-0.060011000508011 
0 
-0.04083684662269629 
0 
-0.1185141155228941 
0 
-0.04351910759753148 
-0.03116822009102107 
-0.189572853627625 
0.123656341997011 
1.387778780781446e-17 
0 
0 
0.006022337662765093 
0 
-0.001458712162526138 
0 
0 
-0.05074458205185708 
0 
0 
0 
0 
0 
-0.01528487469272857 
-0.08413483496309422 
0.5920140966596771 
0.249900498035366 
0.138985401031333 
0.03750273788859365 
1.058068849753186 
0.005788212837535878 
0.036506057657539 
-0.3157609643440372 
0.2998582601057467 
0 
-0.3099622678746539 
0 
0.3872665429434942 
0 
0 
-0.1143302951346291 
-0.1281496829405167 
0 
-0.1752228010348954 
0 
0 
0 
0 
-0.07318339948613826 
0 
-0.007979981777078036 
-0.09709222810226582 
0 
0 
0 
-0.1898691028642406 
-0.06715865818429496 
0 
0 
0 
0.06401178016790392 
0.2297373475273664 
0.3171902965236803 
0.002911998756839495 
0 
-0.5038936940060055 
0 
-0.1980453770367398 
-0.04274830877750951 
0.2603026976900514 
-0.07091971599233196 
0 
0 
-0.1238388128157532 
-0.11490040978005 
-0.05234196176480509 
-0.1104806804774697 
0 
0 
0.01623158419671995 
-0.1955407260737566 
-0.1478044929966006 
-0.03652712829732223 
-0.03553094792098601 
-0.3140952798681408 
0 
0 
0 
-0.7733042205993785 
0 
-0.2303105916615067 
-0.01820547796813685 
0 
0.00952495999902298 
0 
-0.1609928285355336 
0 
0 
0.01983034891852314 
0 
0.01584652784098666 
0 
-0.1870045020033077 
-0.08028283070552093 
-0.04569136591400946 
-0.03820316896247965 
0 
0 
-0.3609043136344134 
0 
0 
0 
0.3327557309322428 
0 
0 
0 
0 
-0.07294856809280977 
0 
-0.120384259672042 
-0.05821750063897137 
0 
0 
0.1700230814265919 
0.1014913884375841 
0 
-0.1441099676980249 
-0.08495534393872119 
0 
0.03083877855548909 
0 
0 
-0.04387480935956148 
-0.06418346086368908 
-0.0848797581618278 
-0.1212181147699077 
0 
0.1422683885006472 
-0.02326595359504173 
0 
0 
-0.01750318037916853 
0 
-0.06899337347695039 
0 
0.1953897395750276 
0.3076871355481163 
0 
-0.3216421274358368 
-0.03168929739971307 
0.645166503685298 
0.4890026505342023 
0 
-0.1281135519811077 
-0.0523467873849931 
-0.218091301522387 
0.04946424901764923 
0 
-0.08573199542676985 
0 
0.007167487219281397 
-0.03034017178469911 
0 
0 
0 
0 
0 
0.154656544089275 
-0.04593812137096909 
0.02249349695491521 
0 
-0.09149508345314913 
-0.3582874899430304 
0 
0.2254059491887833 
0.2225411782679045 
0 
0 
0.09311837881244545 
-0.04051575700519336 
-0.08874029737442736 
0 
-0.139476834753151 
0.8178873426066624 
-0.007101503583901635 
-0.05361765384078218 
0 
0 
-0.12906122314991 
-0.1899872110834414 
0 
0 
-0.02418854756990381 
-0.4017737467977451 
0.02808852267297977 
0 
0.05898976886408348 
0 
0 
0 
0 
0 
0 
-0.03891080852688322 
0 
-0.07387799870776422 
0 
0 
0 
0 
0 
0 
-0.05342343711354575 
0 
-0.06984241308698787 
0 
-0.2296322576251251 
0 
-0.02627837076806239 
0 
0 
0 
0.006022337662765093 
0.06898221816027683 
-0.2453124054204493 
-0.1829408481569995 
0.03998837226773187 
-0.7549392420797003 
0 
0.1367875419821516 
-0.3647914120280539 
-0.4366790040202834 
-0.126398883609371 
0 
0 
0 
0 
0 
0 
0.1099014488160431 
0.4426034040438981 
0.08852216943190548 
-0.03339781628568903 
0.0007868790097832121 
-0.01428029887004506 
0 
0.230000171674271 
-0.1468673614725123 
-0.01117207145475324 
0 
0.6452922928533622 
0 
-0.2721362478878492 
0.7581006323032577 
0 
-0.1658501098741933 
0 
0 
0 
0 
0 
0.1408452839292958 
-0.410358930668987 
-0.05157501632134859 
0 
-0.09161772631304634 
0 
-0.386914553012656 
0 
-0.1925861506605301 
0 
0.4014235480268789 
0 
-0.04083759873692339 
1.179760256996642 
0.03706865358464918 
-0.8165384294722072 
-0.2819275107603116 
-0.0004512960542461906 
0 
-0.004915471218639747 
0 
0 
-0.152540280494847 
0.4851907494882224 
0.01007929447555628 
0 
0 
-0.687904463665873 
0.3233798665962714 
-0.01114012884781119 
0 
0.2595785363499987 
-0.209319951667325 
-0.4232872434921522 
-0.04340669695922014 
0.07966459502861123 
-2.775557561562891e-17 
-0.01343941880858379 
0 
-0.1218738744238095 
0 
0 
0 
-0.07662140373647201 
-0.00816979985340883 
-0.01754255372857697 
0.09572287249338521 
0.2071496584062695 
0 
0.09598889836316328 
-0.3155077639328568 
0 
-0.0963143072386768 
-0.2115509163004588 
-0.1322385065468195 
-0.06332284560293461 
0.3999527643582409 
0 
0 
0 
-0.06971707093533254 
-0.3939431447353302 
0 
0.1707110455259591 
0 
-0.02719564087277029 
0.01680132268194709 
0 
-0.07784616351619271 
6.938893903907228e-18 
0 
0 
0 
-0.02401734264935556 
-0.07582973654470752 
0 
0 
0 
0 
-0.1006252491162417 
0.006800164858284106 
0.0009847336139594679 
2.081668171172169e-17 
0 
0 
0 
-0.01030958969742989 
0 
0.05871725596810205 
-0.06488415549912346 
0 
0 
-0.7465531624674699 
0 
-0.1741633482949999 
0.264048800606018 
0.2423464126528178 
0.03294279558494217 
0 
0 
0.2406691598323614 
0.101898822543113 
-0.1321843629586706 
0.2652107221881575 
-0.322335182831831 
0 
-0.4133038604699313 
-0.104673259248168 
0.05046397111304129 
-0.4623034137168885 
-0.08302605916452746 
0 
-0.338600436773 
0 
-0.003830757542677108 
0 
0.4589238077110698 
0 
0.1597319323000378 
-0.05737048658238517 
-0.08797642816832181 
-0.02669100640568479 
0.007682332579002726 
0.1635891479784027 
0.2501308328642319 
0 
0.2978970903604123 
0.04646201928136106 
0 
0 
0 
0 
0 
0.01794254772143091 
0 
-0.01143053641672909 
0 
0 
0 
0 
0.08432891227980259 
0 
0 
0 
-0.4732193962621808 
0 
0 
0 
0 
-0.01328624236165849 
0 
-0.5793886506124298 
-0.1162756053813854 
0.02950928926456332 
0.110619050435791 
0 
-0.05999723299356729 
0.1235988210200617 
0 
0 
0 
0 
0 
0 
-0.09200022372929635 
0.02478086131811592 
0 
0 
0 
-0.2641911384418591 
0 
-0.1325837467552091 
0 
-0.05246870848948296 
0 
-0.06311740527028421 
0 
0.2077145130906052 
0.03774952236267167 
0 
-0.1064425857361127 
-0.006879937645121183 
0 
0.004009406337958322 
0.0235892647530097 
0 
0 
0.001562557393759464 
0 
0 
-0.2719517542881706 
0 
-0.1605351895017062 
0.02742091671433784 
0 
-0.0001963894921563461 
0 
-0.01423570297925289 
-0.1767221924794979 
0 
-0.2808538198187625 
0 
0.09702938525515033 
-0.06998676506485782 
0.3713599859552473 
0 
-0.03255574138630826 
-0.01212083077604274 
-0.05330655152786615 
0.192082938427713 
-0.01291730327451512 
0 
-0.2597819390701942 
0.01012745202704512 
0 
0 
0.02520493392356764 
0 
0.155951475239556 
0.01287737543609851 
-0.08677924207567694 
0.009911341804481586 
0 
-0.8428430496926915 
0.244649591301814 
-0.102262515285066 
0 
0 
0.1563331381535953 
0 
0.151972690773644 
0.01939700598795354 
0 
-0.09927296401815391 
0.07193331280722204 
-0.08677924207567694 
-0.06226532505512568 
-0.001225111169538492 
0.007969013646264811 
-0.2108250495400638 
0 
0.1205831391057383 
-0.9094745271649163 
0 
0.06187585162516354 
0 
0.03597088638248457 
-0.0007219305763194332 
0.1924720080579986 
0 
0 
-0.04951263937056203 
-0.04140648214526432 
0 
-0.1381105415227898 
0 
0 
-0.09665668623482034 
0 
0 
0 
0 
0 
0 
0 
0.05451707989130928 
-0.03373715306336848 
5.551115123125783e-17 
0 
0.04445319651580857 
0 
0 
-0.005532133703780112 
0 
0 
0 
0.02367229503778021 
0 
-0.02375810719822866 
-0.2300706016148565 
-0.00290972847803122 
0.04177015113585875 
0.3262326595065546 
-1.408604671777875 
-0.1129487171744273 
0 
0.01991915987436464 
0 
0 
0 
-1.004620627013723 
0.217191239019781 
0.1240653911201849 
-0.4210098345162281 
0.09592616455253394 
-0.1056346294484027 
-0.03988193692922649 
-0.1675674568627269 
0 
0.01268827064658101 
-0.8446830062925219 
0.0528345233804322 
-0.2528277873137165 
0.4106795633861357 
0 
-0.3538575358184295 
0 
0 
0.01203587254193642 
0 
-0.008745703361102374 
0 
0.2156781544681754 
-0.05453005021451925 
-0.0488895697792198 
-0.1636362522012965 
0 
0.174305013654705 
-0.1565467202675406 
0.3858518427219589 
0 
-0.1560115921588071 
1.387778780781446e-17 
-0.02694120030667673 
-0.4103667833832251 
-0.2734384535527709 
0 
0 
0 
0 
-0.15468050613434 
0.02806621387561489 
0.00916377885994438 
-0.01390401747224723 
0.07403173832034401 
0 
0 
0.003940867013340073 
0.001260378593771642 
0 
-0.08326181236704268 
-0.197879452909327 
-0.02862337691733517 
0 
0 
-0.1136004199490299 
-0.0688736654657806 
0 
-0.01507577211698384 
0 
0.001573704705012342 
0 
0 
-0.01009578013273811 
0 
0.01385247867093872 
-0.02591048715171446 
0.08288350787120333 
0.04919336363176498 
-0.1748698714674012 
-0.1234164521502806 
0.03511078205908282 
0.383746865771896 
-0.04389234332841034 
0 
-0.256757976213162 
0 
0 
-0.04678355017835886 
0 
0.01060364976239555 
-0.003830757542677108 
0 
0.6745727923450001 
-0.03291031183059462 
0.001783258341402327 
0 
-0.007979981777078036 
-0.03118994546131358 
0.3692376675355862 
0 
-0.1847318389633258 
-0.01366599731216927 
0 
0 
0 
-0.06896273552927971 
-0.02235476871515787 
-0.2108053377916762 
0 
1.190105623746728 
-0.2086465538515577 
0 
-0.05747466784348931 
0.3470844185291709 
-0.07614225603584368 
0 
-0.05151062318825377 
0 
0 
0 
-0.0003197614441968484 
-0.009569982975973427 
0.4256452781490511 
0.03884515652909342 
0 
0 
0 
0 
-0.2623665179485163 
0 
-0.2261882772957695 
0.004272613861942512 
-0.1321308498453284 
0.02080049698136354 
0 
-0.2774316301358402 
0.06210278783964766 
0 
0 
0 
0 
0 
-0.08567776795164628 
0.03594734381445794 
0 
-0.1596950407281874 
-0.1375316807833886 
-0.0603639548050778 
0 
0 
0 
0 
-0.003958001882360149 
-0.02529579247914811 
0.1405507698891641 
0 
0 
0 
0.1022616215282699 
0 
-0.3318355238530925 
-0.009970828674300755 
0 
0.06416832822325622 
0 
0 
-0.09564970348773982 
0 
0.04325261114874322 
0 
0 
0 
-0.0483358518451417 
0 
0.2587373368271497 
0.5512189146926972 
0 
0 
-0.05451646609516444 
0 
-0.1304032706173872 
-0.1271940104651488 
0 
-0.03225211026803937 
0 
-0.0379208617813904 
0 
-1.734723475976807e-18 
-0.0003197614441968484 
-0.002163428761229436 
0 
-0.00742995971109962 
-0.1055088870263003 
0 
0 
-0.01237048507335988 
-1.387778780781446e-17 
0.4738041658344228 
0 
0 
0.1099581497953047 
0.02884954819699335 
0 
0 
0.1739817387775456 
0.00279989957796716 
-0.0562396003472845 
-0.00377418280055482 
-0.09737868493492016 
0 
0 
0 
0 
0 
-0.01885578136029168 
0 
0 
0 
-0.06505703699690131 
0 
0.1932151643948593 
0 
0 
-0.3086995241317023 
0 
0 
-0.1198530964220243 
0.04863416935228981 
-0.06494717158892738 
0 
0 
0 
0.02474451348624007 
-0.6805978750159744 
-0.03665638237036512 
0 
0 
-0.008930226984570914 
-0.09398698409846344 
0 
0.04617008999988682 
0 
0 
1.180528934524864 
0 
0 
0 
0 
-0.05229951122361812 
1.236148507820408 
0 
0 
0 
-1.219951742688788 
0 
-0.00965731160023447 
0 
-0.04827277431381688 
0 
0 
0 
0 
-0.1162352977144219 
0 
-0.01218687630195762 
0 
0 
0 
0 
0 
0 
0.4807491412151395 
0 
0.8703823138014719 
0 
0 
0 
0 
0.07350110403153617 
0 
0 
0 
-0.2802821437958604 
0 
0 
0.01839976901839141 
0 
-0.01830977895219172 
0.06268802280464708 
-0.1683374204007487 
0 
0 
0 
-0.3065079507182932 
0 
-0.07531519204145178 
0 
0 
-0.1216739026431363 
-0.2629491033654422 
0.01654182821244457 
0 
0 
0 
0 
0 
0 
0 
0 
0 
-0.4241672167206289 
0 
0 
0 
0.2956334417316786 
-0.4273353540319115 
-0.109911671434513 
0 
0.3819451015891634 
0.008762448511885188 
0 
-0.02134569822203863 
-0.1250614452675036 
-4.336808689942018e-19 
0 
0 
-0.274203889215661 
-0.07663681296646209 
0 
-0.1036896217886077 
0 
0 
0.2785318423572089 
0 
0 
0 
-0.1217849905244027 
-0.2011860430135786 
0.02488194909461399 
0.02896237020485042 
0 
0 
0 
0.07930731873713782 
0 
0 
0 
0 
-0.009168620304615184 
-5.637851296924623e-18 
0.05190878984397024 
-0.2396710838204825 
-0.4690907846978967 
0 
-0.5209612894756347 
0 
-0.1279099377783104 
0 
0.5355408609357485 
0 
0 
0 
-0.007979981777078036 
-0.08026033204332388 
0.09083955185530897 
0 
-0.07705813578079285 
0 
-0.7965601199659962 
-0.1011177949185792 
0 
-0.04380365379809561 
0 
-0.3196314429018842 
0 
0.2246673174939538 
0 
0 
-0.2224193297230481 
0.3680604270149991 
-0.001609901980245753 
0 
-0.140838325969856 
0 
-0.08979345948385331 
0 
-0.08581324246820925 
-0.07265680566696085 
-0.01969658803791927 
0 
0 
0 
0 
0 
-0.02407694503433647 
-0.009038358081990246 
0 
-0.1132131990440472 
0 
0 
0 
0 
0 
0 
-0.007979981777078036 
0 
0 
-0.5232646920002999 
-0.4910029645677369 
0 
-0.03961417468097212 
0.3849616877857468 
0 
0 
0 
-0.4950233270704981 
0 
0 
-0.6704818343080428 
0 
-0.8787446318390379 
0 
0 
-0.001793857098486588 
-0.0006252782696172336 
-0.07341458149488221 
0 
0.2105037706406145 
0.2643064965792373 
0 
0 
-0.1652068566470023 
1.897353801849633e-18 
0.2938970743313823 
-0.0246207044691691 
0.6941488418732021 
0.1655674981178351 
0.2472760413719192 
0 
0 
0 
0 
0.3511973923099338 
-0.1178470509546838 
0 
0 
0.2689678402295354 
-0.008126401502819184 
0.003579070445922095 
-0.1147780443023227 
0.02223293412856302 
-0.161200002324036 
0.06378666234536434 
0 
0 
0.01528705700138565 
0 
-2.095074726071779 
0 
0.08770843556716933 
-0.3400804666692082 
-0.02029187194617874 
0 
0.2350918317041409 
0 
-0.4532422556019139 
0.1559599604339776 
-0.181222568745962 
0 
0.5047297269683494 
-0.1376478074297255 
0 
0 
0 
-0.3678911850692679 
0 
0 
0 
-0.2373890218825959 
0 
0.2212943917436984 
0 
0 
0 
0 
-0.0431503492528545 
0 
0 
0 
-0.8608274816177707 
-0.1416966223622384 
0 
0 
-0.05087096930774165 
0 
0 
0 
0 
-0.07063677162548626 
0 
0 
0 
0 
0 
0 
0 
0.2902885496092283 
-0.03014328482747312 
0 
-0.009169118004249098 
0 
0 
-0.005324728029610242 
0 
-0.05312994146851873 
0.437935686684782 
-0.4010414188702891 
0 
-0.05003752016114378 
0 
0 
0 
-0.1731013656948463 
-0.1366318525376691 
-1.142634432360554 
0 
0.2282481772421109 
0 
0 
0 
0 
0 
0 
0 
0.2470182062405827 
-0.4221316749989791 
0 
0 
0.1203783685615184 
0.1573472043473116 
0 
0 
0 
0 
0.4310180056289545 
-0.1171643822238735 
0.04053089383853502 
0 
0 
0 
3.469446951953614e-18 
0.2077136429837151 
0 
0.009842042958114411 
-0.3245382970380154 
0 
0.1702415649852249 
0 
0 
0.5473969598605393 
-0.5095815773428626 
0 
0 
-0.06409578968119083 
0 
-0.06679256355585532 
-0.03127749847383696 
0.1696197804744414 
-0.004606742776675285 
0 
0.04849930281770381 
0 
0.3299894961254269 
-0.1850763510451119 
-0.1259759587541152 
-0.1928124053299305 
0.2127052542082571 
0 
-0.4654195576259981 
0 
0 
0 
-0.4999824736553277 
0 
0 
0 
0 
0.0465722023645973 
0 
0 
-0.02775147101656268 
0.002749972183834591 
0 
0 
0.003148499424119192 
0 
-0.08033003399740828 
0 
0 
0 
0.0167652608108686 
0 
0 
0 
0.226890107530843 
0.0004005583900522139 
0 
0.4898761605262827 
-0.890199060419696 
0 
0.001109067220514842 
0.3042786213706922 
-0.04656235234925582 
-0.0005718002023098632 
0.6232064792572575 
0.07490744653610278 
-0.2720080211399608 
0 
0.2074683350229999 
0 
0 
0 
0 
0.8134044536848988 
0 
0 
-0.2555144880815037 
0 
-0.01460053598552944 
0.109266574232149 
0 
0 
0 
0.01154858875548072 
0 
0 
0 
0.7363891069313723 
0.02958200258525212 
0 
0 
0 
0 
0 
-0.2701115046811178 
-0.04195398925032375 
0.3482042037847673 
0.1564533909728306 
0 
0 
0 
0.00797126206316311 
0 
0 
0 
-0.2529155552530689 
0 
-0.00887069347071996 
0.14525550494808 
-0.1450845874751399 
0.1401092397185552 
0 
0 
0 
-0.08840737992076331 
0.1000832428876882 
-5.000882520589389e-18 
0.04101230760055307 
0.007588111123727 
0 
0.7659163225710311 
0.2671094172713556 
-0.09406969036325401 
-0.2205694823440427 
0 
-0.1835023526691881 
0 
0 
-0.1802893260989736 
-2.168404344971009e-19 
-0.09444698081661694 
0 
0 
-0.03011210269332503 
0 
0 
0 
0.02080049698136354 
0 
0 
0 
0.01641168349905261 
0.2789023655753957 
-0.01130920132276214 
0.2490017021486187 
0 
8.131516293641283e-19 
0 
0.06507070831668575 
-0.008395872762259435 
0.159279274409319 
0 
0 
-0.03965892694844844 
0 
-0.3442521828655696 
-4.336808689942018e-19 
-0.02365183695430201 
0 
0 
0 
0.0385403141686876 
0 
0.04006831701295639 
-0.008222992624322948 
0 
0.231548379081676 
0 
0 
-0.1034171106285053 
0 
-0.01523726967733109 
0 
0 
0 
0 
0 
-0.0982754483861685 
0 
-0.1308039818189594 
-0.09863190163137447 
0 
0 
0 
0 
0 
0 
0 
0.004920014994620779 
0 
-0.1698476986013152 
0 
-0.03700074823037391 
0.0002737109480847648 
-0.1086720457999349 
-0.1388807935497023 
0 
0 
-0.0187530284193152 
0 
0.01129297977408323 
0.003607240872912255 
0 
-0.179412617365299 
-0.4036291770214421 
0.03930500341830109 
0.008794209423020994 
0 
0 
0 
0.4663874064905282 
-0.06988811735657777 
-0.121317724722592 
-0.06987198967064795 
0 
0 
0 
0 
-0.12314195134861 
-0.6559043399974757 
-0.1721739654341385 
-0.006879937645121183 
0 
-0.01065445115316692 
0 
-0.000713465681470967 
0 
0.4349261472883102 
0 
0 
0 
0.3357553983332652 
0.3696125227730045 
0.08279488770738096 
0 
0 
1.517883041479706e-18 
-0.19462746431612 
0 
-0.2470552643760637 
0.03460156004666887 
0 
0 
0 
0.01654345001914814 
0 
0 
-0.06151581682581506 
0.006152342030419991 
0 
0 
0.1498267304593025 
0 
0 
-0.06100988868830463 
0.006492709929101032 
0 
0 
0 
0 
-0.3803217797682869 
-0.0421237364700388 
0 
0 
0 
0.09924000678783235 
0 
0 
-0.07116071596180748 
0.1606805841707089 
-0.02554116334408678 
0 
0 
0 
-0.05717504076518333 
0 
0 
0.05918686891472449 
0 
0.00781233482289134 
-0.5614074701196627 
0.008942360134830128 
-0.02538158617585269 
0.03125214911527948 
0 
0 
0.05248415022460824 
-0.155670182500624 
-0.6179530462118589 
0.325711792970221 
-0.126398460502287 
-0.158778860264869 
0.001889700766274146 
0 
0.03459945836957364 
0 
0 
0 
0.5532549684454203 
0 
-0.05406798526232993 
0 
0.2471908294661186 
0 
0 
-0.009675024705309645 
0 
0 
-0.001427265703276637 
0 
0 
0 
0.1957060577593076 
0 
-0.2622108931727469 
0 
-0.009518862140935972 
0 
0.0001675032978014548 
0 
-0.02905090765088901 
0 
0.3740056977354195 
0.2500581637485696 
0.05929244649980654 
0 
0.3729639673287261 
0 
0 
0 
0 
0 
0 
0.1207131060014649 
-0.06285289590580564 
0 
0 
0 
-0.3600193945160376 
-0.07183407032321799 
-0.5256235753142303 
0 
-0.06774881120183433 
-0.3235853639090001 
0.02623576473380939 
0 
0 
0 
0.2017246301840119 
0 
-0.001838354591022383 
0 
0.007520451490865299 
-0.08964198742365166 
0 
-0.77346607085493 
-0.01138704077514678 
0 
0 
0 
-0.004303588178894119 
-0.2142616158851671 
0 
-0.1474736233641469 
0 
0 
0 
0.258163167805914 
0 
0 
0 
0 
0 
0 
-0.03763111058391611 
0.01724584949437648 
-0.08988435043646342 
-0.05337457543503553 
-0.2074452704631407 
0.06619961025559104 
-0.0004027034198758396 
0 
-0.0003197614441968484 
0 
-0.150045900479824 
0 
0 
-5.637851296924623e-18 
0 
0 
-0.2177495743555794 
0.1935904532783588 
-0.114836317212309 
0 
0 
0 
0 
0.3036283874051939 
-0.01408480542195373 
0 
-0.07586829844866706 
0 
0.1301679900591997 
-0.06730058483204969 
-0.1886063431264436 
-0.1687597822540602 
0.1362393006957694 
0 
0 
0.004658148799836368 
0 
-0.3302311034656413 
0.2984041569293363 
0 
0 
0 
0 
0 
0.07589607708782552 
0 
0 
-0.06694766167175799 
0 
0.1794695139094243 
0.3577094389835723 
0 
0 
0 
-0.1012415832944861 
0.2602698015543263 
0 
0 
-0.04972135370668201 
0.3776270161177692 
0 
0.07872992920597992 
0.3225555054793457 
0.03726625696393322 
0 
0 
0 
-0.0117726862324259 
-0.09800505545781724 
0 
0 
-0.1557815858818331 
0.9568294171237174 
0.08501055714195653 
0 
0 
0 
0 
0 
0 
0.02125159178603055 
-0.1497342537137143 
-0.008834957854478661 
0 
-0.1732961674270332 
0.1612502558255795 
0 
0.00346887351385023 
-0.9131375162309907 
-0.1158394435297166 
0.02854372174532407 
0 
0 
0 
-0.2009061832498138 
0 
-0.0330819692230887 
0.144199262437018 
0 
-0.2407785591557837 
-0.07233874113414247 
-0.0186213390067421 
0 
-0.09457543724459419 
0 
-0.07074871081369816 
0 
-0.07605079031417014 
-0.03438419371180609 
0 
-0.263873947470721 
-0.07466427354141156 
0 
0.06670702826590784 
0 
0 
0 
0.025404840012241 
0 
0 
-0.1590347988452371 
0 
0.2338920132064256 
-0.06752344320857716 
0.1838365941998977 
-0.1632394146434622 
0 
0 
0 
0.1198813169503026 
-0.6049507322839944 
0.06980095937228017 
0 
0 
0 
0 
0.1571105970257252 
0.03787448911103081 
-0.02762295906794434 
0 
-0.222793063279785 
0 
0 
-0.04696090270429357 
0 
0.06770717542898633 
0 
0.3491573793972179 
0 
0 
0 
0 
0 
-0.2273571779927804 
0 
0.01137086873410068 
0.3255473039416105 
0 
0 
-0.09634406643196419 
0 
0 
0.04596567847932548 
-0.04475374064452725 
-0.1321255542275282 
0.247121868428 
0 
0 
0.0177035225319605 
0 
0 
-0.6209617041664579 
0 
0.4293528707036482 
0.4208146326785779 
0 
6.938893903907228e-18 
-0.04785326849114456 
0 
0.04116392551204472 
0 
-0.09444196970817133 
0.1592153145447318 
0 
0.237438906043595 
0 
0 
0.06753056538836992 
-0.4812734233110719 
0 
0.7524367003132952 
0.05511332765593045 
0 
0.8540052577586309 
-0.05699497423926198 
-1.04483632682045 
0 
0 
0 
0.05546935064185685 
0 
0.008093995483075288 
0 
0 
0 
-0.151512260442479 
0 
-0.01795037089510573 
-0.03897844502060646 
0 
0 
0 
0.0126353689771655 
0 
0 
-0.1499860904004091 
0.2186172367970868 
0 
0 
-0.1391057031439974 
0 
0 
0.04068229557446639 
-0.1179197872738182 
0 
-0.02619864867707687 
-0.2461749166006202 
0.01343880414906913 
0.1798099688833033 
0.0806729667802195 
0 
0.4027041417792869 
-0.05494909368675958 
0.0230389922445215 
0.4331515233329884 
0 
-0.01190245726805114 
0.02364719031412226 
-0.06810814490890441 
-0.4323609468882197 
-0.2365468176734912 
0.003652011405428954 
0 
0 
-0.2216812988684727 
-0.02072691284384652 
-0.04421379849450115 
0.0104365867284384 
0 
-0.1994823519542548 
-0.0571575065641561 
0.09901549340756126 
-0.01351556236880323 
0 
-0.01913861514412695 
0.1667145095235991 
0.1623394831814282 
0 
0.2973274973954933 
0 
0 
-0.02170637799067916 
-0.1568635154081058 
0.2266636340844155 
0 
0.1781012251715001 
0 
0 
0.1259986931003569 
0 
0.4761956314851891 
0 
0 
0 
0 
0 
-0.03735516946020118 
-0.05060049277195344 
0 
0 
-0.1685719129077191 
0 
-0.1642871440702085 
0 
-0.3924810800270953 
0.5384536954525239 
0 
0 
0 
0.000382056286818934 
0 
0.08721633902641911 
0 
0 
-0.1688675594568357 
0 
0 
0.06850184437581502 
-0.1423626482606465 
0 
0 
0 
0 
-0.182085688867884 
-0.2212571587589023 
0 
0.01126642726701993 
0.05062832734371184 
0 
0.5053829533759344 
0 
0 
0 
-0.1230489397390103 
0 
0 
-0.04935981971706815 
0 
0 
0 
-0.1483487813132185 
0 
0 
0 
0 
0 
0 
0 
-0.1115280906860634 
0.007600931673747584 
-0.2935137564170411 
0 
0 
-0.05724656038421942 
0 
-0.07206150874109439 
0 
0 
0 
0 
0.03084012556455201 
-0.2308943717697206 
0.02798661066004966 
0 
-0.3592260338278447 
0 
0 
0 
-0.09044967957649516 
0.05316986739795315 
0.07657610368181675 
0 
-0.1005986170841194 
0 
0.09073094210064006 
0 
0 
-0.158190718820885 
-0.2294509512954489 
-0.5698725661838893 
0 
0 
-0.0164397927134989 
0 
0.03540136993944688 
0 
0.03944586283169491 
0 
0 
2.775557561562891e-17 
0 
0.04884285999318128 
0 
0.0752428462913262 
0 
-0.6776005485054277 
0 
-0.1434241494078164 
0 
0 
-0.004652748770861703 
0 
0.0516449387278914 
0.06946302560556132 
0 
0.04961399497617244 
0 
0.04705638645760299 
0 
0 
-0.07020994870835735 
0.05851548607336689 
-0.1838829961496129 
0.139494217664123 
-0.1379935352345929 
0.5245968359246259 
0.3198859492828739 
0 
0 
-0.06418346086368908 
0 
0 
0 
-0.2500454549953608 
0 
0 
0 
0 
0 
0 
0 
0 
-0.7910897833478002 
0.1695901443540036 
0 
-0.0296037158951108 
0.0001533784357906869 
0.1096765690628011 
0 
-0.1334884924255437 
0 
0 
-0.122324636500802 
-0.04106531118804554 
0.1271526729846751 
0 
-0.156738597364439 
-0.1698261233288888 
0 
0.5736874583146163 
0 
0 
-0.03727815632035655 
-0.2481206506969969 
0 
0 
0 
-0.09476733966703635 
0.05679023436756259 
-0.06746954847885102 
0 
0 
-0.02431098751348494 
0 
0 
-0.05295359591092749 
0 
0 
0.007586902683144612 
0 
0 
0 
-0.06048559681846971 
0 
0 
0.01892998497047873 
0 
0.002920668381301412 
0 
-0.05272717608804684 
-0.06625594736669034 
0.04256877984482064 
0 
-0.07769134031937419 
0 
0.8361712664878664 
-0.3439976677093162 
-0.2222245915457627 
-0.186485161873122 
0.02365805602729295 
0 
-0.01455843416292871 
0 
0.06545115642614596 
-0.1014495103707226 
0 
0 
0 
0 
-0.2665829003385849 
0 
0 
0.111875656121747 
0.1444756935902641 
0 
-0.04423385913145116 
0 
0.6258713081983839 
0.03942032362455343 
0 
-1.169925351563622 
-0.1126209163230712 
0 
0.0391498290740362 
-0.02142391090366619 
-0.1248602510376524 
0 
0 
-0.03530608476697723 
-0.04966612473332163 
0 
0.2282731702193336 
0.0929393859952385 
-1.387778780781446e-17 
0 
-0.004081151777499414 
0 
0.16751049626901 
0.01012697577306879 
0 
0.153313692075217 
-0.07535776016969133 
0 
-0.09532135395290652 
-0.1051586823949172 
0 
-0.01030958969742989 
-0.0147860324662145 
0 
0 
-0.000404825872691234 
-0.05884141496952598 
0 
0.2702444844030134 
0 
0 
0.284483642523 
0 
-0.07294942419599922 
0 
0 
-0.00430828461296639 
-0.007287850874376371 
0 
-0.296221029988739 
-0.1254316283479515 
0.2680406065589079 
0 
0 
0 
0 
0.6208924353096481 
0 
0.09211532160837378 
-0.119326195652519 
0.04154900297810779 
0 
0 
0 
-0.0623355051770744 
0 
-0.04320117179174334 
0 
0 
0 
0 
-0.1150443372682229 
0.01166090179731744 
0 
-0.02309242717402187 
0 
0 
-0.2153864522256236 
0 
0 
0 
-0.5474391602349578 
-0.02657863906829248 
0 
0 
-0.01199647834512704 
1.897353801849633e-18 
0.01595826281372669 
-0.3698130984169533 
-0.02273699571275459 
0.0693906103496426 
0 
0.4352650933646006 
0 
0.04148447324230259 
0.107343866981 
0 
-0.178117737060389 
0 
0 
0 
0 
-0.08824830232773098 
0.1212716523435484 
-0.01050593046077809 
-0.01916752262761074 
0 
0 
0 
0 
0.0434709978731 
0.1836191605117867 
0.08272099475818356 
0 
-0.09997941899870404 
0 
0.02363979116150745 
-0.2112485127924829 
0 
0.1166126981169361 
0.102055779745909 
-0.02421285715023253 
-0.06237067694384377 
-0.04770810029045335 
0 
0 
0.3200468235267886 
0.2218656477463281 
0 
-0.3139862167486756 
0 
0 
-0.2436669013182801 
0 
0 
0 
-0.1534610987499969 
0.003503204516001637 
0 
0 
0 
0 
0 
0 
0 
0.01636659565265563 
-0.128920046128562 
-0.006443329908232317 
-0.3364118105554412 
0 
0 
0.002258527962147028 
0.05056102468549217 
0.02280200159271553 
0.5577785990234913 
-0.1035058582466294 
0 
0.2451567394473614 
0.17194858115554 
0 
-0.05081312793138829 
-0.3263543187409776 
-1.734723475976807e-18 
0 
0.2668896589762351 
-0.223966501535994 
0 
0 
-0.5214320259389998 
0 
0.2413355775958358 
0 
-0.01033506284723591 
0.2600088749402342 
-0.01400762070074547 
0 
-0.1242620305341313 
0 
-0.1977620332291587 
1.734723475976807e-18 
0.2572492900203611 
0 
0.3502040552954337 
0.03912861776906064 
0 
-0.2848641915212783 
0 
0 
0.09474760068908597 
0 
0 
-0.2564915694599899 
0 
-0.09020162299196853 
0 
-8.673617379884035e-19 
0 
0 
-0.00291334251666807 
0.06571231096402234 
-0.008140614323809081 
-0.2113454576766937 
-0.08646629199468345 
0 
0.05299392691847237 
-0.240201030359 
-0.01358269437430575 
0 
4.336808689942018e-19 
-1.119320646093121 
0.005055193627751555 
0 
0 
0 
0 
0.0225271619259882 
0.4303347227010573 
0 
0.3153800682321431 
0 
0.03340537220500207 
-0.02236416012688869 
0.5713281776727054 
0 
-0.02952819575011549 
0 
-0.001765282208203999 
0 
0 
-0.04181213372759985 
-0.1157386427888385 
0 
0 
-0.03553094792098601 
0 
-0.05798071788754314 
-0.01328624236165849 
0.2151620417870951 
0 
0.2701895140798338 
0 
-0.03263112839632055 
0.182694361400156 
0.03276335482928803 
0 
0.02347997473970941 
0 
-0.06180313514069963 
0 
0 
0 
-0.008434494797887472 
0.3412948517294815 
0 
0 
0 
0 
0 
-0.00944746514643495 
0.2965282646594478 
0 
0.004255702816874326 
-0.1677500654545441 
0 
0 
0 
0 
0.005452232705168581 
-0.07056494615925921 
0 
-0.2367844327718309 
0.1097756593330178 
-0.134165424680812 
0 
-0.119508670142777 
0 
0 
0 
0.2611924473368492 
0.05486038025234936 
0.526823672889265 
0 
-0.113293717366322 
0 
0 
0 
0.4225640969873892 
0 
-0.1679929385873259 
0.6162512803046826 
0.03926706958067609 
0 
0 
-0.003833447412590849 
0.145582423346483 
0 
-1.734723475976807e-18 
0 
-0.09987651106743825 
0 
0 
0 
0 
0 
-0.1430353672543741 
0 
0.3698490134095207 
0 
0 
0 
0 
0.01933128176599361 
0.1907182794763479 
-0.255990212791 
-0.05386726527891602 
-0.08558835014098123 
-0.09149508345314913 
0 
-0.1623604093766428 
0 
0.170928711094505 
0.009522006800332505 
0.01190786050300813 
0.0269297826715058 
0 
0 
0 
0 
3.903127820947816e-18 
-0.256211508023315 
0 
-0.01727213830143954 
0.05729737719810577 
-0.4557745322772078 
0 
0.1195981440015679 
-0.2844367703231121 
-0.1323033957676521 
0.08362583689963736 
0 
0 
0 
0 
0 
-0.001284173971895584 
0 
0 
-0.04935893468751056 
0 
0 
0 
0 
0 
-0.06418346086368908 
0 
0 
-0.7216189799474372 
-0.2391145949114118 
0.07048893891629038 
0.02122892204110563 
0.03120942104781525 
-0.01964403135858978 
-0.3500055936276766 
-0.3322520969239999 
0 
-0.1514777080511399 
-0.2964159883448649 
0 
0 
-0.2180161242959412 
0.1062936984139843 
0 
-0.0025710784993076 
0.05762180381100356 
0 
-2.775557561562891e-17 
0 
-0.03563134206487629 
0 
-0.2774693353230547 
0 
0.4328882817838672 
-0.08287032612112528 
0.1540573123393081 
0 
0.2417872711738482 
0 
-0.148651931205179 
-0.009187639476339429 
0.05589150926938763 
0 
0 
0 
0 
-0.08999591398070818 
0.06033097001377247 
0.145582423346483 
-0.0517078336862548 
0.8605993284262168 
0 
0 
0 
0.1855275451091677 
0 
-0.02114409903762459 
0 
0 
0 
0.07266591590182445 
0 
0 
0.05573638255438244 
0 
0.0424907702662852 
0 
-0.06014918651858692 
-0.01630827516984419 
-0.339004765002738 
-0.2553036774414918 
0 
0 
0 
-0.0945109460877564 
0 
0 
0.2331371905001661 
0.01845745018058513 
0.3064337797351899 
0 
0.05020155090791362 
0.04339796903329046 
0.1105926808437903 
-0.1972153698380225 
0 
-0.3092954429539059 
-0.004516486106339445 
0 
-0.01919820730124059 
0.1443327039837543 
0 
-0.02050842680357747 
0.04356315438774822 
-0.02432645738317264 
-0.1357505845946837 
0 
0 
-0.009287681743962127 
-0.146867280358346 
-0.2529150931936435 
0 
-0.02582804481255818 
-0.357433776695021 
-1.694093969384323 
-0.0208640660325634 
0.05266578648140586 
-0.08607361301739364 
0.2642678012881672 
0 
0 
0.02634041988870234 
0.04109798637120723 
-0.009787516175318329 
-0.02567540807737249 
0.08246038557468119 
0.08938406352912731 
0 
-0.006044199922927981 
0 
0 
0.5937187557707687 
0 
0 
-0.1909589303627027 
0.09351743658693339 
-0.01094857624396991 
0 
-0.09015497923085618 
0.3217753266889798 
-0.2051929830476276 
0.0230389922445215 
0 
0.3186137828931083 
-0.4039228211796069 
-0.7066414157632128 
0 
0 
0 
0 
0.009415932346872255 
-0.3677089483552336 
0 
0 
0.2082894133741868 
0 
0 
0 
0 
0 
0.1530493364965377 
0 
0 
0 
0.007113554726259769 
0 
0 
-0.01828290302027184 
0.01366951358833671 
0.03107282265252599 
-0.06874146925460844 
-0.09173416121010268 
-0.06828839723398829 
0.1918442561663075 
0 
0 
0 
-0.01725291487484119 
0.9316637998062066 
-0.145702852709881 
0 
0 
-0.07063942694182966 
0 
0 
0 
-0.007959190977335238 
0 
0 
0 
0.03540136993944688 
0 
-1.734723475976807e-18 
-0.007108217427933043 
0.001548332291278816 
0 
0.170964587790021 
0 
-0.01489037515095752 
0 
0 
-0.4336003739480994 
-0.09910341293446039 
-0.260741788469201 
-3.469446951953614e-18 
0 
-0.01030958969742989 
0 
-0.08502531147632535 
0 
0 
0 
-0.05271216509902111 
0 
0 
-0.01247278304979943 
0 
0 
-0.5726932370833867 
5.551115123125783e-17 
0 
0.1274146398863827 
-0.07369982340597589 
0 
0 
0 
0 
0 
0 
0 
-0.1382502323406855 
-0.236027586199325 
0.1566828164133012 
-0.2771875842570491 
-0.0636694670899796 
0 
0 
0 
-0.06547102532117227 
0.4681663628639607 
0.08040686564543199 
0.1820338658804767 
0 
-0.713253590125829 
-0.1501624515526687 
-0.09292671337326415 
-0.02209312096982134 
-0.117155042446217 
0 
0.09366920619300187 
0 
0 
0 
0 
0 
-0.07784415176802459 
0.004752519747567269 
0 
0.09515032653936607 
0.008624507425024165 
0.206162563911448 
-0.007026601347991951 
-0.03769269569802978 
0.650347135648635 
0.004306213056042728 
0 
0 
0 
-0.3434388166975373 
0 
0 
-0.02748718267024033 
0.003925301438215718 
-0.1824803293328747 
-0.1562662871793643 
0.03563244277075792 
0 
0 
-0.221171470834364 
0 
-0.01507577211698384 
0 
-0.1158777515751827 
0 
0 
0 
0 
0 
0 
-0.04723457639158139 
0 
0 
0 
0 
0 
0 
0.01359468097661173 
-0.006459274590677582 
-0.1156136005604693 
0 
-0.01030958969742989 
0 
-0.1690591220878443 
0.2247630776435546 
0 
-0.1991030866920318 
0 
0 
0.02388788391036991 
0 
0 
-0.1695035506840649 
0 
0 
0 
0 
0 
-0.1330504073726035 
0.03884515652909342 
-0.02210503001812293 
0 
0 
0 
0.2273519043904689 
0.210991264948 
0 
0.06291924964838264 
0 
0 
0 
0.01366951358833671 
0 
0 
0.175163988416098 
-0.005682627157943449 
0 
0 
0 
-0.3590901631837322 
-0.1524441290459667 
0.1248073790535092 
0 
0 
0 
0 
-0.02186775553218841 
0 
0.2019355103419334 
-0.1232502391184647 
0.348161212339735 
0 
0 
-7.677308736888286e-05 
0.08382493150879999 
0 
0 
1.461676462400873 
0 
2.775557561562891e-17 
0.3966058039400183 
-0.2468323208917111 
-0.1242220596979003 
-0.4272744162903961 
3.469446951953614e-18 
0 
-0.07928176185298608 
0.1873703352512836 
-0.2051609567591599 
-0.2051609567591599 
-0.2051609567591599 
-0.04416548074640146 
0 
0.03294224140290557 
0.1376771690557985 
0.02275964151036312 
-0.03062444198178178 
0 
0 
1.387778780781446e-17 
0 
0 
0 
0 
-0.05426384614910905 
-0.01498790890129833 
-0.01131645100033197 
-0.08722228629386126 
0 
1.387778780781446e-17 
0 
0.218867025187046 
0 
0.09413023090699998 
-0.02125795430895145 
-0.1251226743891125 
-0.130742237064753 
-0.04853339033210689 
0.2862480911740093 
-0.05514929446113221 
0 
-0.2156403711749894 
0.05229470830355639 
0 
-0.05001000736264106 
0 
0.7580692215290062 
0.00987611094170497 
-0.007113192554206241 
-0.09657456921259301 
0 
-0.09101286108317816 
-0.3397200836855418 
0 
0 
0 
-0.02828036805397819 
-0.138355284905 
0 
0 
0.05520710359940841 
0 
-0.06684381265388373 
0 
0 
-0.05773441735522692 
-0.211209258020635 
0 
-0.03737150282664087 
-0.2094396244336796 
0 
-0.02194794937829838 
-0.09746849476990542 
-0.08646476107545591 
0 
0 
-0.03260247541014462 
0.07568054016566313 
0.0988444535738876 
0.001609163057887465 
0 
-0.008710956215446562 
-0.03071596960740661 
0.09336953668958425 
-0.6937695019228013 
0 
-0.1515243388478547 
0 
0 
-0.4255620612131097 
0 
0 
0.01179575501510115 
0 
-0.02771861299011464 
0.0587768858597679 
0 
0 
0 
0 
0 
0 
0.1065815268063146 
0 
-0.01618746454299214 
-0.3821343870260842 
0.1839849533103173 
0 
0 
0 
0 
0 
0 
0 
0 
-0.03214733800779328 
0 
-0.2836771696624421 
0 
0 
0.03296132243351244 
0 
0 
0 
-0.01190245726805114 
-0.2725224915267693 
0 
-0.01779563530181069 
0 
-0.02539569527811537 
0 
0 
0 
0.1887964229052387 
0.2059392714106187 
0.1714537089600001 
0 
0.04830203849660563 
-0.006206847562455344 
-0.01791903187503662 
-0.147384740159315 
-0.0604201438457076 
0 
-0.0708941336537362 
0 
-0.03772895603362225 
-8.673617379884035e-19 
-0.3768905399609496 
0 
-1.378546323492144 
0.4696535739924353 
0.1122570323023276 
0 
0 
0 
0 
0.6400495483277511 
-0.03453220261176423 
-0.03342054068347937 
0 
-0.007542457912645041 
0.05889672021809764 
-0.1270327253836048 
0 
-0.05060049277195344 
0 
0 
0 
-0.0764946248676156 
0 
-0.03797070770609999 
0 
-0.03448926640020101 
0 
0.3027283115321648 
0 
0 
0.2172403889011424 
0 
0.1139249217771936 
0 
0.126735422755658 
0.456964868299422 
0 
-0.1246587337155383 
0 
0 
0 
-8.673617379884035e-19 
-0.0187026425627825 
0 
-0.09625476230517772 
0 
-0.01174193517342987 
0.2034395146186635 
0.09833849340082502 
0 
0 
-0.3239028008398076 
0.07700187111232534 
0 
0 
0 
0 
0.004275774928433813 
-0.01030958969742989 
0 
0.1136545555604446 
-0.1316414779330023 
0.4367802357412378 
-0.1390161904878539 
0 
-0.1163559266567763 
0 
0 
0 
-0.5287828594287433 
0 
0 
0 
-0.06742172974778687 
0.03505557112420924 
-0.01963453576297637 
0 
0 
0 
0 
0.05133808611539194 
0 
0 
4.336808689942018e-19 
-0.06388237743286027 
0 
0 
0.2705066387402048 
-0.2707487985992032 
-0.0264059000480512 
-0.01207259396799953 
-0.1702247978920459 
0 
0 
-0.1106594268263428 
0.06033097001377247 
0.04645938339211945 
0 
0 
0.09219082791717949 
0.004912047605717158 
0 
-0.3185777677457954 
0 
-0.02598988156637689 
0 
-0.03013054173715779 
-0.03121592794899319 
0 
-0.08990426953269502 
0 
0 
-0.01190245726805114 
0 
-0.200382335464133 
0.1625096520399976 
0 
0 
-0.02398047582148684 
-0.04880375773494956 
0 
0 
-0.07974156158018328 
-0.2061414722013128 
0 
0 
0 
0 
-0.01190245726805114 
0.01607995814283885 
-0.03137340547992416 
0 
0 
-0.01499332007972735 
-0.1364743577774074 
0 
0.00999354390296224 
0 
-0.2011111453494371 
0 
0 
0 
-0.09817664768577741 
0 
0 
0 
-0.1353758226262732 
0.06944774448300599 
0.2619215058681216 
1.387778780781446e-17 
-0.1069808728018425 
-0.2769487028333929 
0 
-0.01493348911867384 
0 
0 
0 
0 
0 
0.008624507425024165 
0 
-0.01237048507335988 
0 
0.159962820307194 
-0.2672102877086963 
0.104013708222984 
0 
0 
-0.2953694051125929 
-0.123833806778134 
-0.05798071788754314 
-0.04614982410303577 
0 
0 
0 
0.02357451317074688 
0.009144605166603658 
0 
-0.0006691717384090053 
-0.02682245316675655 
-0.141296812076622 
0 
-0.0673670242991133 
0.1053727176423544 
0 
0 
0 
-0.07768131145726456 
0 
-0.6407862483011504 
0.01272733924323059 
0 
0 
-0.08255431667015406 
-0.008222992624322948 
-0.03965779397136471 
0 
0 
0.007027494461902166 
0.09163811423133283 
0.2371292870271489 
0 
-0.023568215041725 
0 
0.1216295207799423 
0 
0 
0.03136202756112851 
0 
0 
-0.06619206421633234 
-0.1679281880961787 
0.05127434896148511 
0.05621271327980275 
0.147078871915661 
0 
0 
-0.04254676919965553 
0.2658767436768556 
-0.416520310432418 
0 
0.0007259916181095616 
0 
0.05288141110995696 
0.08153212636814428 
-0.08224829503523232 
0 
0 
-0.08760113855425929 
-0.115106665530499 
0 
0 
-0.08138483150768835 
0 
0 
0.03890495770928016 
-0.2043749953107096 
0.02782964504735062 
0 
0 
0 
0 
-0.5003994225261733 
0.03602898216067214 
0 
-0.06802793586752821 
-0.1048980536544942 
0.07414010900666901 
0 
0.1435757730193933 
0.1356177051507441 
0 
0 
0 
-0.0002380065325692083 
-0.0702327459699959 
0 
0 
0 
-0.3922273865312033 
0.2705497624698743 
0.4215240406895461 
0 
0.3787345622193287 
0 
0 
0 
0.1756064547254178 
-0.07586745331760691 
0 
0 
0 
0.2523303275827204 
0 
0 
0 
-0.09963038741187762 
0 
0.03490393053311797 
-0.1696202266151473 
0.02945402940339961 
-0.01179825485761016 
0 
0.3159152980302732 
0.06860840346165671 
-0.5872754832742271 
-0.2006734450550301 
-0.3416400235816446 
0.008767437154719202 
0.2462555761876437 
0 
0 
0.0123846353876836 
0 
0 
0 
-0.1900708580589644 
-0.001295131420669652 
-0.132374158195846 
-0.007733975176121662 
-0.4228408827645705 
0 
-0.004096583638700233 
-0.0683781997544512 
-0.01170488200679334 
-0.06525561782591482 
0 
-0.007986469949786922 
0 
-1.387778780781446e-17 
-0.1141285239754302 
0.5277632063633507 
0 
-0.08578584667801767 
0 
0 
0 
0 
0 
0.04825854873075817 
0 
-0.101434198112386 
-0.1813276964806591 
0 
0 
0 
0 
-1.083191375689768 
-0.0726983288486216 
-0.05959610971377761 
-0.07203374242981024 
-0.08278433500118236 
0.08480847242319998 
-0.008748092000395134 
0 
0 
0 
-0.1298057354158323 
0 
0 
-0.04639038454821802 
0.1126928147939546 
-0.07201524639219641 
0 
0.001644935973604514 
-0.113874267453963 
0 
0.006375972870682184 
-0.115106665530499 
0 
-0.2162727099096743 
-0.1189798175295869 
-0.148514579625595 
-0.5551663430959006 
-0.2611026863770983 
0 
0 
0.06844953329471862 
0 
0 
0.1972823081052827 
0 
-0.3477306149430038 
3.469446951953614e-18 
-0.06690957375433521 
0 
0 
0 
0 
0 
0 
-6.505213034913027e-19 
0.007527379976663596 
-0.05428310120491677 
-0.7357807749265606 
0.3752502203670001 
0.5414538864901854 
0.2085227670134664 
-0.125834333120681 
-0.1992227422038023 
0 
0 
1.035475016490567 
-0.04083350868695351 
0 
0.04059923685555394 
0 
-0.4197648062544925 
-0.2551759148583017 
0 
0 
-0.2906942491091804 
-0.1560774039594016 
-1.387778780781446e-17 
0.3701391015684429 
-0.7934979029704463 
0 
0 
0 
-0.2731067675006588 
0 
-0.0948576316485146 
0 
-0.1614095713806185 
-0.1086720457999349 
0 
-0.200290210351991 
0 
0 
0.1451170602525914 
0.2025610519310263 
0 
-0.05060049277195344 
0 
-0.1219546128295928 
-0.09784279415360403 
0.1018782746879802 
0.03097684568244013 
-0.4857308701794358 
-0.06725102568517313 
0 
0 
-0.06745453030077923 
0 
0.05879045270231054 
-0.2559839274938657 
-0.5558667784281032 
-0.04317106891143978 
0 
0.1147817722254557 
0.1536776407239293 
0.2163278241564315 
0.003352465342615562 
0.02810750915963102 
0 
0 
0.01892520180921099 
-0.05509243084583159 
-0.09851310701440155 
0 
-0.01121407338714796 
-0.003489982202618734 
0 
0 
-0.3583262148773319 
0 
0.1353710957281799 
-0.2667454966799419 
0 
0 
0 
0.03447177032767152 
0 
0 
0 
0.118646573051893 
0.01948987026991553 
0 
0 
0 
0.05557323199052984 
0 
-0.008907040834128134 
-0.11855025897906 
0 
0 
0 
0 
0.1359687133477366 
0.09133136472347991 
0 
0 
0 
0 
-0.1274232332980008 
0 
0 
-0.1259801737172309 
0.0534738795494786 
0.007222381342582262 
-0.01068039300250304 
0 
0 
0 
0.01217620258220199 
-0.1780620530522873 
0 
-0.07967234245809927 
0 
0 
0 
-0.145702852709881 
0 
-0.06151176203016787 
0 
-0.01324645716335003 
-0.1792938205640398 
-0.2483637283876849 
0 
0 
-0.1278703541248158 
0 
0.04050656529064276 
0 
0 
0 
0 
-0.004650131881354352 
0 
-0.09835373849512125 
-0.07379886529017253 
0 
-0.3025385562754065 
-0.02579149973645779 
0 
-0.01190245726805114 
-0.7122242709050075 
0 
-0.05477173581194321 
0 
-0.01507577211698384 
-0.06004042120815471 
-0.1455292781167535 
-0.9334255447796095 
0.2709436850203227 
-0.309332209616124 
-0.06039623705682188 
0 
0 
0.6275926779214732 
-0.2515695581408207 
0 
0 
0 
0 
0 
-1.058843814847768 
0 
0 
0.381754784514068 
-0.07370714328331376 
0 
0 
-0.4439829584036207 
-0.08579853431689974 
-0.02240122759001899 
-0.1753802020564119 
0 
0 
0 
-0.01353183205267677 
0 
0 
-0.006924194051166887 
0.05564164961022399 
0 
-0.08904113931470835 
0 
-0.2155216420407502 
0.02240929802744134 
0 
-0.4018475229095944 
0 
-0.08005470726178059 
-0.01206226227363182 
0 
0.01772134085080009 
0 
0 
0 
0 
0 
-0.339665177598505 
-0.01972271457557872 
-0.09539063000879461 
0 
-0.001579260705693435 
0 
0.4261495305630421 
0 
0 
0 
0 
-0.1338370906782103 
-0.1075024071680903 
0 
-0.02153968570491622 
0.215973091943442 
0 
0.3485733699966708 
0 
0.6600535276292248 
0.21082089586594 
-0.08159457156628919 
0 
0 
0 
-0.06054051535383893 
0.6380952869970548 
0.3153495383246329 
-0.1836099065206159 
0 
0 
0 
0 
0 
0.2685643514248189 
0 
0 
-0.05798071788754314 
-0.02534879095141939 
0.02233446380516277 
-0.08646476107545591 
-0.02302498656017083 
0 
0 
-0.331923287197925 
-0.5347288994291749 
-0.06496690032810984 
0 
0 
0 
0 
-0.1634099340462073 
0 
0 
-6.938893903907228e-18 
-0.1769245537787686 
-0.08646476107545591 
0 
0.07257096434826137 
0 
-0.004077350940843271 
0 
0 
0.5930613232868915 
-0.1308617382341546 
-0.3818634436992483 
0.3180842744503983 
0 
0 
0 
-0.1515843959081324 
0 
0 
-0.01749878252070727 
-0.08170843548216648 
0 
0.2796537134646342 
0.03163749666076664 
-0.008526619773307618 
-0.008526619773307618 
0 
-0.0040069623810665 
0 
0 
0.2631418926509798 
0 
0 
0 
-0.2026014111655719 
-0.05060049277195344 
0 
-0.05060049277195344 
-0.06287174485298039 
0.006542936506160138 
0.06050886747786105 
-0.01399429509608873 
0 
-0.06418346086368908 
0.01366951358833671 
0 
0 
-0.05875325010220731 
-0.007561050947721902 
0.006693004254403684 
0.0006907715187575216 
0 
-0.1756508965980371 
-0.9133302459967425 
0 
1.110223024625157e-16 
0 
-0.3629347518997365 
-0.03496294240327705 
0 
0 
0 
0.5543068768844631 
-0.02511028821074066 
-0.4248794149955931 
0 
-0.1152490306123016 
0.03989908943753988 
0.2095570909233801 
0 
-0.077841908996722 
0.04361791076514957 
0 
0 
0.03544329748807124 
0.03277349662345142 
-0.009224727226030929 
0.1349895796478482 
-0.01377059820735333 
-0.001050329139336658 
0 
0 
0.3048480617172188 
0 
0 
0.2493936768498119 
0.005276986881250367 
-0.6612318446463327 
-0.06403867279445223 
0 
0 
0.000147895540548268 
0 
0 
-0.01778276218871473 
-0.03961417468097212 
0.3262107723148108 
0.1136491013172791 
-0.0006882176443540232 
-0.1289020736841512 
-0.3533667454892863 
0 
-0.0130438629634845 
0 
0.4370994111374745 
-0.2476479919473054 
0 
0 
-0.08062206217920587 
-0.03961417468097212 
0 
-0.06730058483204969 
0 
0 
0 
-0.006014067614730423 
0 
0.1057472089321834 
-0.1069499060376652 
0 
3.469446951953614e-18 
-0.4693037001132147 
-0.1626876234743836 
-0.1664440178156496 
0.03136750833933447 
-0.01409240848099695 
0 
-0.07006645579128799 
0.3365173595536111 
0 
0 
0 
0 
0 
-0.06725102568517313 
0 
0 
-0.08277723723047486 
-0.002550977177619874 
-0.09338995245328091 
-0.6827036223764836 
-0.134497387888407 
-0.3107939922944348 
-0.01616780405179746 
0 
-0.09444196970817133 
0 
-0.2990510032094889 
0 
0.06349113858962815 
0 
0.007982667540193658 
0 
-0.05747466784348931 
0.4736080691846769 
0.03212219578890054 
0.05405373152860782 
-0.3418086006666177 
0.09312561779374225 
0 
0 
-0.03382579520872041 
-0.04269343661577811 
-0.05514304162514226 
0.1635972642546643 
-0.007786360306321892 
0 
0.1529003268361355 
0 
-0.711223917694324 
1.387778780781446e-17 
0.03787116590910539 
-0.3023341166396502 
-0.6140869089935636 
0.8188536762633498 
-0.08886171500053805 
0 
-0.2485458937489871 
0 
0 
0 
0 
0.2566104722169312 
-0.04268700829989225 
0 
0.4653975350889365 
0 
0 
0.2820819508591212 
0 
-0.07647772871875196 
0 
0 
0 
1.268574729597791 
-0.09842111426012597 
0.5462160093177633 
-2.775557561562891e-17 
0 
0.007944975892385882 
0.6106808704681985 
0 
0 
0 
-0.01593295816106184 
0.1063494453439877 
0 
0.07530843941807824 
0 
0.05498159727717337 
0.1267676080505088 
0 
0 
0 
0 
0.03404940867969716 
-0.04266521932704562 
0.1860637782559122 
0.01335897701121414 
0.196326911134251 
0 
0 
0.0861336329962275 
0.383467212867504 
-0.2392490234393893 
0 
0 
0 
-0.6469612728413857 
0.2767459261795805 
0.2017675889934601 
-0.09579537342069461 
-0.3069414689345952 
-0.1007378986788556 
-0.03961417468097212 
0 
0.01386175109066889 
0 
0 
-0.2183615100304236 
0 
0 
0.1715976225987391 
0 
0.04869916212286421 
0.1383507611885392 
0.1833899646217449 
-0.07677926724634525 
0 
0.4828520501902193 
-0.02401752272514739 
0.1299863224608281 
0 
0.006002628731200637 
0.1091497197888466 
0 
-0.3551296926297629 
0 
0 
0 
-0.01079381877780664 
0.011635872639 
0 
-0.2605297727972013 
0 
0.1845723834763829 
-0.05421956025894038 
0.118780632737749 
0 
-0.6849398277048183 
-0.07614225603584368 
0 
0.04141093682691085 
0 
0 
0.09458153622235145 
0.0881503679132401 
-0.2355116999073238 
0 
0 
0.01055614842618602 
0 
0 
-0.06754026245990281 
0.1298325996817122 
0 
0 
-0.000223633331169678 
0 
-0.1939065879035852 
-0.02861967756238823 
-0.4343530422446846 
-0.2880439868596981 
-0.2139649213906787 
0 
0.09959247509152656 
-0.1438738230736346 
-0.07223917056718089 
0.1604223731588484 
0.4461631726891938 
-0.03258304549620054 
-0.1242536599900313 
-0.08082270785793108 
-0.1048088294331995 
0 
0 
0.01918506939931551 
-0.07310749841398885 
0.1578506595426359 
0 
0 
0.01879518230069181 
-0.1247143161622778 
-0.3253476173427431 
0 
-0.7873844315284869 
0 
0.01366422396440026 
0 
0.07638713590637541 
0 
0 
0 
0.0001308272612537778 
0 
-0.09267851759243442 
0 
0 
-0.4969054814001074 
0 
-0.01397915034360164 
0.1599450779591944 
0.04919336363176498 
0 
-0.1090361587127243 
0 
0 
0 
0.1140098972832298 
-0.01293375262135233 
0 
0.155951475239556 
-0.8952465732595698 
0.01551420078085075 
-0.09407408682556589 
-0.01917484715865783 
0 
0 
-0.001955243060004396 
0 
0 
0 
0 
-0.1407596573681426 
0 
0 
0 
-0.00759294478684187 
0 
0 
-0.07785807337343482 
0 
-0.2336042311192918 
0 
-0.02401752272514739 
0 
-0.06106160240143385 
0 
0 
0 
-0.02402435045499837 
0.3194681306863483 
0 
0 
-0.36795028671517 
0 
0 
0.183714937945822 
0.116100206674585 
0.128694103653117 
0 
-0.0226509719992819 
0 
-0.06630847232539444 
0 
0 
0 
0.273658278864276 
0.2105215536291146 
0 
0 
0 
-0.1968077183108412 
-0.07210697331139398 
-0.176867163037131 
0.07542392613217845 
0 
0.05343454631027291 
-0.3919988223552361 
-0.1129487171744273 
0.03652857236252258 
0.03012856909370839 
0 
-0.03284727259735436 
0.03375249033649687 
0 
-0.2194566118814314 
0 
0.02032592774367842 
0 
-0.3341090036598707 
-0.09536775864867865 
0.05475888758368703 
-0.1175927694249103 
0 
0 
-0.4210053517347848 
0 
0 
-0.07307876132262016 
0 
-0.02119951576542434 
0 
0.0441346282527676 
0.2291539345570663 
-0.1458426892492239 
-0.04590909141473542 
0.09255373328125031 
0 
0.03448183364124222 
-0.2362217657569791 
-0.03260439590722462 
-0.1129748697791631 
0.02072065447396815 
0 
0 
0 
0 
-0.03409181234165754 
0 
0.1017896857219478 
0 
-0.5576700300450749 
-0.1822702832878073 
0.2635615350389696 
-0.360699898380285 
0 
-0.02603570362846732 
0.01393884299752098 
0 
0 
0.04014803896053481 
0 
-0.1312891910179666 
0 
0.02668304512214138 
0.06946218615454276 
0 
0 
0 
-0.07614225603584368 
0 
-0.1122138534311872 
0 
0 
0 
-0.4690098101210009 
0 
-0.638210157683191 
0 
0.6194798337064837 
-0.3427408687206881 
0 
0 
0 
0 
0 
0.5560417955647523 
0.01952528965100896 
0 
0 
-0.264931492652601 
-0.1976286242781914 
0 
-0.157189765310988 
0 
0 
-0.001090022378844931 
0 
-0.2208058301141318 
0 
-0.00251340298716382 
0.5678407432239722 
0 
-0.1232280290267552 
-0.0360843868627371 
0.269787661816366 
0 
0.07560611895751586 
0 
0 
0 
0 
-0.005377614106207608 
-0.002395625511217389 
0.5189516788250597 
0 
0 
0.2263918637060029 
0.152101823634835 
-0.182067473383887 
0.4058505450451907 
0 
0 
0 
-0.4115346340158226 
0 
0 
-0.02755512184511409 
-0.0142873531398772 
-0.08309513354240931 
0 
0.01669713953680691 
0 
0 
0.5782819793563452 
0 
0 
-0.1756016215501483 
0 
0 
0 
0 
0.01716638589123961 
0 
0.05896851457270581 
-0.1148641007288178 
0 
0.1511910181514769 
-0.04226626938382919 
0.0534167333285329 
-0.1684207819597631 
0.007400642976052851 
0.03215016632757252 
0 
0.01871777050545735 
0.3101683113745246 
3.533171906619272e-05 
0 
0 
0 
0.03415815134749507 
0 
0.1274055388755507 
-0.01138704077514678 
0 
0 
-0.07186540186465533 
-0.1259642672431752 
0 
0.06411400292328326 
-0.3057863556508469 
0 
-0.02383884429147487 
0 
0 
-0.1878655627318955 
0 
0 
-0.31043467000164 
-0.1261725402143536 
0 
0 
0 
0 
0.3889288130021489 
0 
0 
0 
0 
-0.8560394677507406 
-0.159086549224144 
0 
0 
0.4746339337514278 
0 
-0.2750461495538518 
0 
0 
0 
-0.01095980533160851 
0 
0.3142282232512596 
0 
-0.1251831779653687 
-0.08978919776616921 
0 
-0.121910687469839 
-0.4741109344674795 
0 
2.081668171172169e-17 
-0.3825883756654629 
0.3585976975582514 
0.3480082209991103 
0 
0 
-0.1917419179672368 
-0.120034202514063 
0 
-0.6817235006534642 
0 
0.2532026081693435 
-0.3902001627819999 
-0.4321564526472039 
0 
0.1814392990967367 
0 
0 
0.3543260100347492 
0 
0.008149729355342389 
0 
0 
0 
0 
0.1823599539461551 
0 
-0.02574094629933527 
0 
-0.1840768618574922 
0 
-0.01074907326536549 
0 
0.3219307556745504 
0 
0 
0 
0 
0 
-0.002662653574393885 
-0.1175927694249103 
-0.00742995971109962 
0.09186316891803355 
0 
-0.1183374179140525 
0 
0 
-0.1819633328901297 
-0.07855589313147174 
-0.01190245726805114 
-0.1259759587541152 
-0.128492820120836 
0 
0 
0 
0.00397998278223802 
0.1720295627993107 
0 
0 
0 
-0.1159003385876571 
-0.151452472687794 
-0.0968324661844 
0.1397695479085791 
0.08906723253425003 
0.03322154834481806 
0.1561344967354884 
0 
0 
-0.08171708977064264 
0 
0 
0.009617263044735732 
0 
-0.006862612589523248 
-0.1057292772238541 
-0.01840318397481009 
0.8608421241884625 
0 
0 
0 
-0.4253709750761677 
0.1669843541616897 
0.2122775613339805 
8.673617379884035e-19 
0 
0.134275607234706 
0 
0 
-0.003611156514958248 
0 
0 
0 
-0.04464075432325683 
0 
-0.07614225603584368 
0.05687428510267653 
0 
0 
0.01440984062971299 
0.03571155606756914 
0.6726010018873561 
0.03662885530804281 
0.220307132678398 
-0.03151155191059188 
0 
-0.0002622674593407262 
-0.03135756558803902 
-0.07844352656302281 
0.01995958059410461 
0 
0.03700721432060668 
0.01906700126165035 
0 
0 
0 
0 
0 
0 
0 
0 
0.02968044902966414 
0 
0 
0 
0 
0 
-0.113874267453963 
-0.0952995255310122 
-0.02086043385912938 
0.2743079924926827 
0 
-0.08723055507500078 
0.88420188321229 
0 
-1.489050349061601 
0 
0.396078152492059 
0.2618249727223484 
0.3799386799354793 
0 
-0.3289500398776584 
0 
-0.0597558377674 
-0.007324680821937875 
-0.06272005507148852 
-0.08714453133989375 
0 
0 
0 
0 
0 
0 
0 
0.2273484213746912 
-0.1856497312421593 
0 
-0.05358329877927043 
-0.02919414888526506 
-0.9060178493313633 
0.0008833832423526685 
0 
-0.01030958969742989 
0.07889807694522093 
0 
0 
0.0932826529509584 
-0.1742284344397079 
-0.5148976198432609 
-0.0605055037767378 
-0.1002335565401206 
0 
0 
0.005667498740762454 
0.4942397069251591 
0 
0.3654269606572299 
0 
-0.1192417102857678 
0 
0.03522792404152347 
0 
0 
-0.1393921734977298 
-0.01992185963472448 
-0.03628740003984229 
0 
0 
-0.6274873538585923 
0 
0 
0 
-0.03713306532051627 
-0.09586992606483268 
0 
0 
0 
0 
-0.02908230412068548 
0 
0.3181979070398882 
-0.07868573189315738 
-2.710505431213761e-19 
0 
0 
0.9374478028041657 
0.02328934152482257 
-0.1600626830979716 
0 
0.02185845914722637 
0 
0.01546885992215454 
0.2619671459549875 
0 
0 
0.1386768101727261 
0 
0.01417427696507354 
-0.1239092533084838 
0.326066374986 
0.01050406842525124 
-0.0345603159740052 
-0.01886373736841779 
0 
0 
-0.007401309609555947 
0 
0.1278254437178842 
0 
-0.2983724718452194 
0 
0 
0.477032790285193 
-0.07791246966017835 
0.02421650699613919 
-0.1023319049383719 
0 
0.3620438949700114 
-0.5061825588391304 
0 
0 
0 
0.01474184307344877 
0.03480906747178741 
-0.002876997539552963 
0 
0.0515939650369634 
0 
0.2331371905001661 
0 
0 
-0.1342185542273388 
0 
-0.1382401152690569 
-0.2705246851825888 
0 
0 
-0.09562918196449331 
-0.08554202371740974 
-0.2955022515763726 
-0.3597312827837068 
0.05557575734473882 
0.0725320282835675 
0 
-0.01494457592393039 
0.05606029220330146 
0 
0 
-0.1445760922619505 
0 
-0.8705280553280131 
0 
0 
0 
0 
1.11121071057604 
0 
0 
0.01689960257257168 
0.03538264718935312 
0 
-0.07800236382445627 
-0.05647873808635565 
0 
-0.009174204205135658 
0 
0 
0 
0 
0 
0 
0 
0 
1.387778780781446e-17 
0.3333001444259229 
0 
0 
-0.1999758298732085 
0 
0.008748654707564994 
0 
0.09106703216422768 
0 
-0.1597038679043652 
0.281442411356339 
-0.0483358518451417 
-0.3749241201632166 
-0.1009331773822772 
0.007174994808603887 
-0.1377677863937408 
0 
0.1904571963634125 
0.8351377639031791 
0 
0.1599450779591944 
-0.05008986594690625 
-0.04637451825753145 
0 
0 
-0.107215880724878 
0.1019637941471781 
-0.01717567485465605 
-0.3045101555075701 
-0.3397065973050631 
0.1171854864726925 
0.4070674571993809 
-0.1267176882491971 
0 
0.602569027091863 
0 
0 
0 
-0.04510375196835551 
0.04114603929319172 
0.07034196891515668 
0 
0 
0 
0 
0 
0 
-0.159812882932931 
0 
0.1869911512188536 
0.03346480575495916 
3.502821776886185e-05 
0 
0 
0 
0 
0 
0 
0.135010647284035 
0 
0.1493479311874784 
0 
0.294871701653607 
0.1715612104101186 
0.373881932290292 
-0.006385923026219765 
0 
0.03640136477930502 
-0.006123703573245647 
0 
0 
0.296033930977139 
0.1376893690932367 
-1.734723475976807e-18 
-0.01545865340413398 
0 
0 
0 
0 
0.03563244277075792 
0 
0 
-0.01784639675416451 
0 
0 
-2.775557561562891e-17 
0 
0 
-0.2685075568182514 
0 
-0.08753790846030776 
0 
0.03317646851716673 
0 
0 
-0.1514320741391484 
-0.02924152298492548 
0.3637696874842432 
0.03758706737135767 
0.2475433520825053 
0 
0 
-0.06494288894760626 
0 
0 
0 
0.1476934112864042 
-0.05382291474224609 
0.3405913386142499 
-0.1686129578319731 
0 
-0.05192338923956272 
0.4632265319788798 
0 
0 
0 
0 
0.1258566904169757 
0 
-0.1176083475495974 
-0.01680007412299019 
0 
0 
0 
-0.4899443190700952 
0 
0 
0 
-0.0551618650306231 
0 
0 
0.4801505908854389 
-0.2039779155492026 
0 
0 
-0.14853270894652 
0 
0.3731810909323308 
-0.01953783619328858 
0 
-0.1172651123881402 
0 
0 
0 
0.01950424069361014 
0 
0.04884332508155666 
-0.04604137822751055 
0 
-0.01190245726805114 
-0.07616767721558816 
-0.05323400501152021 
0 
0 
0 
0.04003817360852046 
0 
0 
-0.1401862813766273 
0 
-0.008896821554576705 
0.1244973018670642 
0 
0 
0 
-0.1068627431319236 
0 
0 
-0.02974542685237492 
0 
0 
0 
0 
0 
0.3159858267531347 
0.001478789070340396 
-0.4257257808451834 
-0.02794242683516129 
-0.1101165782347748 
0.6726860786932911 
0 
0 
-0.1943286435366551 
0 
0 
0 
0 
-0.1105735135346124 
-0.05368019835109616 
0.1719189740937127 
0 
0 
0 
0.02541853450826941 
-0.007775177717075153 
0.1200212809400332 
0 
0 
-0.2735187572327936 
0 
0 
0 
-0.2247120938186291 
0 
-0.3113816263249768 
-0.616867589155687 
0 
0 
0 
0 
0.004975854747586709 
0 
0 
0.01901604892518799 
-0.3293191694943572 
0 
0 
0 
-0.1802918111444813 
-0.04029335902841678 
-0.03613156159301831 
0 
0 
0.01985666038148131 
0 
-0.2247120938186291 
0.3789185229294779 
0 
-0.05001170418480499 
0.01166090179731744 
0 
0 
0.2080735442672084 
-0.05350664680699523 
0.6139064744778069 
0 
0 
-0.08874793028429083 
0 
0 
0.03563244277075792 
0 
-0.7823000422145743 
0 
0 
0.119782822402 
-0.05364922588142974 
0 
0 
0.1714784904282102 
0 
-0.08721546736273057 
0 
0.1188338132750585 
0 
0.0008833832423526685 
-0.2841281117356089 
0 
0 
-0.3814886256727247 
0 
0 
0 
0 
0.01805024361657795 
-0.0231766774579815 
0 
0.04969935238968734 
-0.1357505564117683 
-0.5467843822684724 
0 
-0.2334012024723214 
0 
0 
0 
0.106857701711247 
-0.2029676507908582 
0.02287753374969165 
0 
-0.04005306876983392 
-0.3180528242853132 
0.04115980630355939 
-0.1388866798906924 
0 
-0.03568730044975876 
0 
-0.004995194922603861 
0 
-0.202898819850861 
0 
0 
0.09893439754812841 
-0.009795580459414283 
-0.3686642221505488 
0 
-0.2951758529633201 
0.137665296788734 
-0.4253035200072862 
0.01037278378933041 
-0.03519534271446272 
-0.02633434075687049 
-0.08646476107545591 
-0.3063771343196222 
-0.01903326555372717 
0.2005311720193039 
0.2635564767137021 
0 
0 
0 
-0.143155523479953 
0 
0 
0 
-0.1198751223227984 
0 
0 
-0.2956818839032018 
0.04872865735885159 
0.01845704932223164 
-0.213601369178735 
0.01386175109066889 
0.2692580968815419 
-0.06625594736669034 
0 
0 
0 
0 
0 
-0.29902453491371 
-0.02561354056986163 
6.938893903907228e-18 
-0.003053405804019274 
0.2226654174297365 
0 
0 
-0.106815425560789 
-0.4160102429325954 
-0.06424729146236707 
0.1649607363724649 
0 
0 
-0.3290981222927996 
-0.0283886764309961 
0.003898085888951765 
0 
-0.488549360483739 
0 
-0.04535940450259616 
-0.1644718317607158 
0.01506541363736291 
-0.1529066042684655 
0 
0 
0 
0 
-0.03170090047522228 
0 
0.2175747459992689 
-3.469446951953614e-18 
0.09274149526437808 
0.1351012286970072 
-0.1000430506082577 
0 
0.1703616581001391 
0 
0 
0 
-0.2430751182018363 
0 
-0.03202418793489902 
0.153313692075217 
-0.00112963780827109 
0.1012051554420771 
-0.03236850235952318 
0.001674744909509604 
-0.01123879188887446 
-0.04115385105703113 
0.04580269981159277 
0 
0.1584362264275844 
0 
0 
0 
0.0456840574478667 
0.02502002284798148 
-0.0302947485862998 
-0.200290210351991 
-0.08986306955531378 
0 
0 
0 
-0.1446281595985923 
0.07668123464608465 
0.188278957313704 
0 
0 
-0.1461860026282904 
-0.02170944713833974 
0 
0.4715256944979943 
1.076682490989836 
0 
4.336808689942018e-19 
0 
0.4872345718380001 
0.04886244662016974 
0 
0 
-0.1472136467851356 
0.09696987610471483 
0 
0.2933115008498894 
0.1252540418802684 
0 
0 
-0.06925547886536816 
0 
0 
1.092734653069095 
-0.01312243675480334 
0 
0 
0 
0 
-0.002352687952645852 
0 
0 
0 
0 
0 
0 
0 
0 
0.08812641789404749 
0 
0 
0.162439940036481 
0 
0 
0 
0 
0.2411338185216381 
-0.177471529273298 
-0.2884798534091249 
-0.06136052119899607 
-0.1561733171262596 
0 
-0.2566687122899547 
-0.04773761781789874 
0 
-0.3578512946725974 
0.5231982860886231 
-0.2017683748123955 
0 
0.1568724164254514 
0 
0 
-0.147955161128376 
0.0782826730917786 
0.00680844207467105 
0.05164796405742065 
0.08645234663125545 
0.1783380767047502 
0.005586532967556856 
0 
-0.001820695617050435 
0 
-0.0168039980442536 
0.2264377822350934 
0 
-0.01919850265967093 
0.0105066847107188 
0 
0 
-0.008111139444510211 
-0.3880439332523303 
0 
-0.07119484015323287 
0 
0.6333886549159363 
0.009149313739294748 
0.2731416479695944 
0 
0.03742029662898517 
-0.01750815081712783 
0 
-0.1393020518871875 
-0.4509447050786495 
0.003543033785581285 
-0.04466769931636733 
-0.2159551244023681 
0.02887960615097884 
0 
0 
0.2195238650723099 
-0.00430828461296639 
0.1541566506924445 
-0.3524753542035135 
0 
-0.0189827069784393 
0 
0 
0 
0.1544594280394907 
0 
0 
0 
0.1032816622631863 
0.1839147984098427 
-0.7272636677881723 
-0.1536971271364174 
-1.610517626033558 
0 
-0.141109087123028 
-0.4590157242730988 
0 
0 
0.196725165358007 
0.319136735277009 
0 
0.03326897680815451 
0 
0 
0 
0 
0 
0 
-0.1099031871600011 
0 
-0.06569134273092621 
0.007847182457359443 
-0.4538780751833478 
-9.107298248878237e-18 
-0.0113422116506908 
0.3771842120064152 
0.1435033765475586 
0.1865683430839456 
-0.1545895027891544 
0.156535597291 
-0.01787927427701107 
0.09495126131159283 
-0.1983402994153097 
0.1472708027177087 
0.1016321616101971 
0 
0 
0 
0 
0.01962294448100437 
0 
-0.193019183689487 
-0.07930848408670751 
-0.02136469142720661 
0.1629448859680426 
-0.1525607442340789 
0.001634870569981217 
0 
0 
-0.2951708603769917 
0.07790260166691652 
0 
0 
0.06446574210506717 
-0.0110355120743552 
-0.007727482561728713 
0 
0.3486821330711929 
0 
0.152428536779 
0 
0 
-0.00256394606259843 
0 
0.1101069138886575 
0 
0.5273438979339323 
-0.0669003123761697 
-0.01205338142694674 
0.2395008325568229 
0 
0 
0.03863372467669665 
0.01547019588017276 
0.207073508425934 
-0.09010483316850519 
0 
0.5481814210189999 
0.1524362689097634 
0 
0 
0.2532232541212387 
0 
0.04098571442875228 
0 
0 
0.01711063812406075 
0 
0 
-0.2584414562790491 
-0.3170496172633606 
0 
0.2908552030253193 
0 
0.003966469748931395 
-0.05759073084248094 
0 
0 
-0.09926696238126514 
0 
0.09415334745457198 
0 
0 
-0.1105249349752086 
0.4113447312157704 
0 
0 
0 
0 
-0.350823534305824 
0 
0 
-0.6279193282876934 
0 
0 
0.1090781798219536 
0 
0 
0.3093343453841941 
0 
0 
0 
-0.6634629398129501 
0 
-0.06540576322116221 
-0.129384022712426 
0 
0.142746510844275 
-5.551115123125783e-17 
-0.04007068500025177 
0 
0.2015365166470001 
-0.07874201860532512 
-0.01722987392163255 
0 
-0.09870726348527663 
0 
-0.256553007106454 
0.3909889113742809 
-0.2617515661491171 
-0.08557854158540933 
-0.001092830167112078 
0 
0 
0 
0.03684009066649709 
0 
0.12078925015909 
0.1500896797591287 
0 
0 
0 
0 
0.2003797173067491 
6.938893903907228e-18 
0 
0 
0 
-0.2621817399690723 
0 
-0.1130153262646068 
0 
-0.1083146190400097 
0.4102719011946588 
0 
0.007944975892385882 
-0.03008263828217932 
-0.4934394747474167 
-0.1754228086293551 
0.1985517877744298 
0 
0 
0 
-0.0419984874600643 
-0.1288442044388676 
0 
0 
0.3814632584287949 
0.3810721921212856 
0 
0 
-0.04915713352866651 
-0.04308177414746277 
-0.169140476207559 
0.2576008662811304 
0 
0 
0 
0.1457115610788577 
-0.003758477864033713 
0.2131660753143517 
0.00154088876711228 
0.2890752563129972 
0 
0 
0 
0.01871678311791301 
0 
0.02509756925946345 
-0.2953870372743381 
0.3788886366683545 
0.06689079910533791 
0.1056384426139951 
0 
0.1459921557652809 
0.6022764154976046 
0.06097883490612677 
-0.01586906588763418 
0.1434223386888422 
0 
0.2289858311820859 
-0.1623409939293032 
0 
0 
0 
0.02432010282673595 
-0.0005032434799466424 
0.5233250325780001 
0 
-0.1539734653209124 
0 
-0.06769079129083233 
-0.02609108556410775 
0.05527391767271878 
0 
0 
0.0002182655358222133 
0 
0 
0 
0.005267820679247269 
0 
0 
0 
-0.1619593874844504 
0 
0 
-0.1676937062781675 
-0.07729728871717488 
0.1074540725276755 
-0.5823356640628194 
0.1062281103722585 
0.008253703348501101 
0.4028167391831042 
0.268088659668676 
0 
0 
0 
-0.3136664571518246 
0 
-0.07943716464080007 
0.370454921319878 
-0.2011285605865276 
0.1688571464251757 
-0.001240597985328789 
0 
0 
0 
0 
0 
0.256202283497479 
0.1708587795511445 
3.469446951953614e-18 
0 
0.03284933614983412 
0.03948064431493305 
0 
0 
0.09759472094923115 
-0.2131224534166304 
0 
0.05483880902882875 
-0.478787271616728 
0 
0 
0 
0.08294991930922138 
0.0503439752868819 
0.2860752107058304 
0.08432891227980259 
0.01922422524134033 
0 
0.1106725764527554 
-0.03278532923119066 
-0.03787104159728404 
0.3509398088506695 
-1.02403850079355 
-0.06796914938920233 
0.112837547794571 
-0.4821796910353242 
-0.4872216684723188 
0.1546560237110885 
0 
0 
0.2249607755895802 
-0.3369555764344269 
0 
-1.02604900526258 
0 
0 
0.2049115813519999 
0 
0.2737596228836865 
0 
0 
0 
0 
0 
0.1985966671715979 
-0.2053255319696304 
0 
-0.519714915788633 
-5.551115123125783e-17 
-0.8876297359086383 
0 
-0.08446401661786747 
0.1990949440581051 
0.03312020023874917 
-0.3221495228394 
-0.3737716138904419 
0.1476934112864042 
-0.009607832925357083 
0.1476934112864042 
-1.209610904818621 
0 
0.07028314846319417 
-0.1809902825261175 
0 
0 
-0.007979981777078036 
-0.21785009750667 
0 
0.1273338070977103 
0.1238213550051801 
-0.5247876133708752 
-0.0362830873189741 
0 
-0.02818456718475685 
0 
-0.169826459014913 
-0.0207816961779528 
0.2826625640690248 
0 
0 
0 
0 
0.2253553010478761 
0 
-0.01357098128199478 
-0.101284577893299 
0 
-0.01851450463222938 
0.0963219499068896 
0.00138715794098525 
0 
-0.1236170210053661 
0 
-0.0488895697792198 
-0.5762658633651515 
0.06656404347394002 
0 
0.1508659842089157 
0 
0 
0 
0 
0 
0.1018307521190485 
-0.08677924207567694 
-0.1095615863999983 
0.0006129201741850088 
0 
0 
-0.01501927304007436 
0 
0 
0 
-0.135650330032912 
0 
0 
-0.03717295674868169 
0 
0 
0 
0 
0 
-0.598770194436074 
-0.1002923453086883 
0 
0 
0.5971969204858999 
0 
0 
0.002132606732833693 
0.3471632703602074 
0 
0.1831250129379666 
0 
0.01654182821244457 
0 
0 
0 
0.1007608261689786 
0.725716471509721 
-0.01121407338714796 
-0.05382291474224609 
0.07718543690011981 
0 
-0.2170723454304103 
0 
0.007027294375464262 
-0.2592513188737978 
-0.3223622351453185 
0 
0 
0.1677154993540158 
0.04679547217662115 
0.02407107757565889 
0 
0 
0.0266934318665709 
-0.003498009026973174 
-0.09392141858067105 
0.09972651641504111 
0 
-0.02539413062773304 
-0.3169878277053426 
-0.5226798493548207 
0.01150021022336364 
-0.03715413407253226 
0 
0 
0.3500817825682271 
0.2620884633307332 
0.004103591598706788 
0 
0 
0 
-0.03586872252943858 
0 
0 
0 
-0.1556294230832393 
-0.1984853286875569 
-0.03496294240327705 
-0.03602609645574705 
-0.181529304543263 
0 
0 
0.03035796356424444 
0 
0 
0.0003556294979340628 
0 
0 
-0.1704845266422635 
0 
0 
0 
0 
-0.4780776146348598 
0.4536094935145155 
0 
-0.2440975525685499 
1.734723475976807e-18 
0 
0 
0 
0 
-0.01669976416674101 
0 
-0.03261574902643027 
0.09987152587318859 
-0.09613766685941245 
0.1714834600056578 
0 
0 
0.159450473995849 
0 
-0.08548197852172498 
0 
0.003025918014513168 
0.1267909003266021 
0 
0 
0 
0 
0 
-0.4702182273289611 
0 
0 
0 
0 
-0.2014503425937561 
0.009032354188731009 
0 
0 
0 
-0.12778760755698 
0.01166090179731744 
0.008789837271969985 
-0.01680457750308426 
0 
-0.5578793417921672 
0 
0 
0 
0.04004335438323878 
0 
0 
0 
0 
-0.03253415019083494 
0 
0 
0 
-0.491406731427772 
0.07337655308956328 
0 
-0.4311666967625864 
0 
-0.5561585201260349 
0.03893054170101461 
-0.09837097029778813 
0 
-0.2696955790471061 
0.02312317621761756 
0.09409056715288759 
0.1010781462391002 
0 
-0.03732534552887994 
0 
0 
0 
-0.2431045753458514 
-0.4269773181386529 
0.4117873198037879 
0 
0.0008224958506790179 
-0.01251142821682374 
0 
-0.04894671258446206 
0 
0.0008224958506790179 
0 
0 
-0.06191495662852576 
0 
0 
-0.003612307925637052 
0 
-0.1445445019032414 
-0.2447575276433437 
-0.1439414619314811 
0 
-0.1341184458840322 
0.6914908899310386 
-0.1661135444243203 
0 
0.130092655915228 
0 
0 
0.08687409011728205 
0.002661502341989141 
0 
0.163570676435142 
0 
0.1898342284003272 
0 
0.6454070438739903 
0 
-0.04551984501969666 
0.4934147167202022 
0 
0 
0 
0 
-0.03893682396111618 
-0.03225211026803937 
0 
-0.003339271568053144 
-0.0786602993662 
0 
-0.007803157866140054 
0.08661365671477983 
0 
0.1161438513704587 
0 
-0.01383130407957476 
0 
0 
0 
-0.01710980167913343 
0 
0 
0 
0 
-0.03762843538597836 
0 
0 
0 
0 
0 
0 
-0.4397331789613053 
0 
0.03572356028696533 
0 
-0.2464134987737844 
0.8891702217742929 
0.307291436011989 
-0.123601884131425 
0 
-0.03834196891572567 
0 
0 
-0.001851716282663386 
-0.106391874753407 
0 
0.2325034248877028 
0 
0 
-0.04216124785314402 
0.2080205680194618 
3.469446951953614e-18 
0 
0 
0 
0 
0.5706905607889471 
-0.2419552952084291 
0 
0.1710042481685282 
0 
0.087353201927952 
0.02214275836085994 
-0.02848389897221761 
-0.06730058483204969 
0 
-0.4198740280685579 
0 
-1.151611145326008 
0.2738719239773864 
-0.09745863095543841 
0 
0 
-0.3112032978634471 
-0.158190718820885 
0.01886624195941665 
-0.2579208756111203 
0.3644954250881425 
-0.06990620239058974 
0.02788240963425911 
0 
0 
0 
0 
0.3633383536877371 
-0.09280464664304673 
0 
0 
0 
0 
0 
0.4860497440489233 
0 
0.5392375344470001 
-0.006077218051084048 
0 
0 
0 
0 
0 
-0.01116580719684585 
0.07711702028669014 
-0.00179181935002843 
0 
0 
0.2389358291649416 
-0.03988193692922649 
0.3100963779077435 
-0.1209896669416467 
0 
-0.0001172676064822566 
0 
0.002966040552742823 
0 
0 
-0.3063444536167233 
0 
-0.06779304577621399 
-0.01756812827254494 
-0.09760867576341849 
0.3980041104530305 
0 
0.2089049388074896 
0 
-0.01032142459085066 
0 
0 
-0.09709324182964053 
0 
0.006930501280000676 
0.2739717235194984 
0 
0 
0.05142370752599759 
0 
0 
0 
0.01642560755558235 
0 
0.4024653229392367 
0 
0 
0 
-0.2251791598993696 
0.2888335708448027 
0 
-0.06070900554165515 
0.0276308591163787 
0 
-0.1186654989319644 
-0.05304560123020927 
0 
0.002715859375177124 
0 
0 
0 
-0.6397670836279549 
0 
-0.03960534657502636 
-0.02668963374298506 
0 
0.05858144595784261 
-0.5691520207530295 
0 
0 
-0.1244693347210104 
-0.07945492294273529 
0 
-0.1778412829880429 
0.2518109106424816 
0 
0.3944560067911569 
0 
0 
0.0338034570016109 
0 
0.05927946138272258 
0 
-0.01732292671741347 
0.004337836741699137 
0 
0.1119228978757978 
0 
0 
0 
0 
-0.1109818255309658 
0.01396483504623335 
-0.1366882285430648 
0 
-0.01425338761307894 
-0.01078236458136071 
-0.0008215363668675837 
-0.05982821887796045 
-0.3261835306065303 
-0.03279719462409199 
0.01485413669465242 
-0.1604072740449512 
-0.2038217883047831 
-0.4152473746268635 
-0.5250500938586243 
0.02571183191865627 
-0.03535525831405842 
0 
0 
0 
-0.134165424680812 
-0.154796288663745 
0 
0 
-0.356848539538802 
0.00202465200470592 
0 
-0.7414514352733071 
0 
-0.1375395313593069 
0 
0 
0 
0 
0 
-0.3361737874389517 
0 
0.2339042755602209 
-0.03553094792098601 
0.2518533356636362 
0 
0 
0 
0.1469003158022797 
-0.1460500246196971 
0.03976011631648326 
0.2920935335587503 
-0.3294299139750888 
0 
0 
0.1323502322869924 
-0.04068152654684279 
0 
0.09413587436626529 
0 
0 
-0.04195636049948171 
0 
-0.2993186858539267 
-0.06205049761305954 
0 
-0.01190245726805114 
0 
-0.08239359434245282 
0 
-0.0859606787498252 
-0.1222171323348058 
0 
-0.134308845549901 
-0.3874335419093667 
-0.1069257769009741 
0.3358392984883882 
0 
0 
0 
0 
0 
-0.1374843576572473 
0.09478204915608718 
0 
-0.1551949985440119 
-0.01190245726805114 
-0.4380624362419999 
0 
-0.2614928761934593 
0.0002840067645043739 
-0.1221407087097316 
0 
-0.03834196891572567 
0 
0 
0 
0 
0 
0 
0.175349366324194 
0.0184421282382721 
0.2069467024142683 
0 
-0.3025448070031426 
8.673617379884035e-19 
0 
0 
-0.01138704077514678 
0.1310344274529135 
0 
0 
0 
0.5261012777060847 
0 
0 
0 
-0.01310483656969658 
0 
-0.2702071214409814 
0 
-0.5758802244874945 
0.04921459076795276 
0 
-0.2650144313321705 
0 
0.01005291928566517 
-0.001408344344215508 
-0.1015006070958055 
-0.1589050236041905 
-0.02642907936987994 
0 
0.014923058786103 
0.03481107587649879 
-0.1005609073476423 
0 
0 
0.1267018693114462 
-0.3289709600276469 
-0.5676543636764578 
0 
0 
0 
0.008625307802458961 
-0.006160339058619828 
0 
0 
0 
-0.05220875632325406 
0 
0.4004765250638838 
-0.1379935352345929 
0 
-0.09489843490957907 
-0.01397915034360164 
0 
-0.01301563421444247 
-0.3338242301730581 
0 
0.01418155431993106 
-0.009226370820679954 
0 
-0.2727818569387243 
-0.03667152549857969 
0 
-0.009863149735877179 
0.04312852881679132 
-0.01397915034360164 
0.007071053264008145 
0 
0.02332264185833259 
-0.06505163770703194 
0 
0.7820213813464183 
0 
-0.01895491209761299 
-0.218938527748858 
0 
-0.101372761044 
0 
-0.05693774610962059 
0 
0 
0 
0 
0 
0.1373144861232157 
-0.9265413489210611 
-0.1763689181457775 
-0.0004581845698653819 
0 
0 
0.4908564721321452 
0 
0 
0.04204110042702015 
0 
0.0005057832696393768 
-0.1326867669311451 
0 
0 
0 
-0.09040106796815635 
0.09417401855349458 
0 
0.2303042503383136 
-0.01639434725954672 
0 
-0.07228065215793653 
0.6600013176139581 
-0.04802695614755317 
-0.001558398041625448 
0 
0 
0 
-0.07418830212332816 
0.1182767056386504 
0 
0 
0 
0.05126658140160078 
0 
0 
0 
0 
0 
0 
0 
-0.01927993598336046 
0 
0.01159462249186379 
-1.53860557176468 
-0.129384022712426 
-0.129384022712426 
0 
0.05809530643011065 
-0.04071926081954942 
0 
0 
-0.4062745422859007 
0.1586081011137194 
0 
0 
0 
0 
0 
0.1431355659011434 
0 
0 
0.02742366777795254 
-0.01424693715045923 
-0.02200679907826436 
-0.1391096609812412 
0.01531116252980099 
0.2111485552264228 
0 
0 
0 
0 
0.06549882793771954 
-0.3026889497074051 
0 
0 
-0.1020592925708607 
0 
0 
0 
0.5441908766917787 
-0.04695753077712961 
0.003471828379464852 
0.1188338132750585 
0.04953607393201417 
0 
-0.02125168725457117 
0.02970216453437296 
-0.0478862305255682 
0.1045087311723482 
0 
0 
0 
0.1262682210826894 
0.04830658514951792 
-0.2333615674745441 
-0.002735949281583734 
0 
0.07522052728344529 
0 
0 
-0.3950186576828418 
0.05188603828153075 
0 
0 
0 
-0.04510375196835551 
0 
0 
0.3084797667071266 
0.09321646143037179 
0 
0 
-0.1223087882680692 
0 
-0.09266738370946721 
0 
-0.5910336436092518 
-0.244972258471692 
0 
-0.08939469075328113 
0 
-0.2665881334940721 
0.01616120129744229 
0.07976538429305742 
0 
0.006905907753024813 
0 
-0.08807204460719709 
-0.01709929389708581 
-0.29529111739157 
0 
-0.3379760569485746 
0.04834991224288226 
0 
0 
0.3157776027495857 
0 
0.07604921626015122 
0.05592480904803352 
0.01366951358833671 
0.01517224600871602 
0.07518202063459362 
0 
0 
-0.3183530180038446 
-0.678835976659098 
0 
0 
0.1029024628288681 
0.01981075819957159 
0.0920743089041451 
0 
0.1350796663985364 
-0.05230017979036785 
0.09032509878305038 
0.1434987868985605 
0.0008833832423526685 
-0.03714936886252005 
0 
-0.01032142459085066 
0 
-0.391566939972292 
0.1332504080135374 
0 
0 
-0.104673259248168 
-0.2196434942407592 
0.004574840599902688 
-0.007811987854581469 
-0.2454376692946304 
0.06417031695594451 
-0.01102134695368243 
0 
0 
0 
0 
-0.2621394852863087 
-0.08282529651745769 
0 
0 
0.06180966217759077 
0 
0 
-0.0139786468290768 
-0.02031609548766371 
0 
0 
0 
0 
0 
-0.163698517587249 
0 
-0.00353027793151751 
0 
0 
-0.4126596718938159 
0 
-0.367882810100018 
0 
-0.03776950793565656 
0 
0 
0 
0 
0 
-0.5375017169458135 
0 
-0.6297616955974306 
0 
0 
0.3710791604953765 
0 
0 
0 
0 
0 
0.01605865827076965 
0 
0 
0 
0 
-0.2149167893819232 
-0.1268233083003516 
-0.06773996376573624 
0.003509372794620804 
0 
-0.01507577211698384 
0 
0.2283789359677715 
0 
0.07100937308728418 
0.04959097625631213 
0.01533613188461312 
-0.06642688294278024 
0 
0 
0.01166090179731744 
0.3911103774102377 
-0.5029426716763463 
0.07259478056472822 
0 
0 
0.1309446764864547 
-0.956665364288857 
0.1607075591575364 
0 
-0.01251142821682374 
0 
-0.0006727999407182445 
0.1700453117206614 
0.03562311181978262 
-0.210530151114012 
-0.09928389713906959 
0 
0 
0 
0 
-0.3087954728873464 
-0.001958797181436631 
0 
-0.1178386639428183 
0 
0.2552595183434023 
-0.2135356731359236 
0 
0.2296037378155915 
0.002703569770992293 
0 
0 
0.8196107769418367 
0.2289875504741107 
0 
5.204170427930421e-18 
-0.009613843094124117 
0.07194618790490859 
0 
0 
0 
0 
0 
0 
0 
0 
0 
0 
0 
-0.003612307925637052 
0 
0 
0 
0.1679881283457377 
0 
0 
0 
0 
-0.06810419805207392 
-0.2822947564817353 
0.09778453314728829 
0 
0 
0.1958002856207617 
0.3046107643584705 
-0.4394268724787798 
0 
-0.0258165434755469 
0.2657810628315437 
0 
0 
