solver_type L2R_MODIFIEDPINLOSS_SVC_DUAL
nr_class 2
label 1 -1
nr_feature 20958
bias -1
w
-3.630004275722462 
1.852154173163211 
-2.730640533663567 
1.867398926838916 
-2.349304556088042 
1.162605189966267 
0.5952577821703962 
1.906755524109043 
-2.836945298387803 
1.734686742735841 
-2.425128490430732 
0.90061670474221 
-1.782808366118342 
1.146444984107268 
2.048318622210557 
0.7828262478446465 
2.04577247333023 
-2.155453440472814 
-1.093994313355168 
0.0926344146539365 
0.9674129029807027 
1.308572074204953 
-1.655369055624371 
1.892756356749214 
-1.424145615248912 
0.1639204191826361 
1.368048029652416 
1.407579758035831 
-0.08505810920369325 
1.059028038037513 
0.7307486145434638 
-0.8495587199288103 
0.5442434249340665 
-1.835852738358819 
0.6752468156266495 
-0.2337154151143755 
2.551226512546108 
1.462792835136971 
-1.382158947468024 
0.9373524629718076 
-1.686033099155286 
0.5220743214204976 
0.549560329121267 
0.4021490053044797 
0.7886603781533701 
-0.1469862715630297 
1.359060105063193 
0.5180559000934474 
-1.209613142604899 
2.105991644307464 
-0.7228770378078764 
-3.848173681956595 
-2.041534881788532 
-0.4853946730938987 
-0.8144212335716788 
-1.319795968887774 
0.5050423054952801 
0.9004233538604169 
-1.180926176280342 
0.7829264704881478 
-1.51652497628622 
1.666882320870285 
-0.8897234495765189 
1.332510958062128 
-0.7517505027846737 
-1.898512561074188 
-1.121503039273461 
-1.064666025392843 
-1.331753928133395 
1.354993262295379 
0.719482598909541 
0.004336890121191666 
1.011982366006733 
-1.104667431938025 
0.2941627315036212 
0.9703995220235049 
-0.9770282440205463 
0.6685377159547516 
-0.6444933894194835 
0.5193720336263213 
-1.348118082593671 
-1.230013837138719 
-1.206304685189873 
-0.885232825726473 
-2.130774386368068 
-0.01291114256972176 
1.231685689105229 
-0.6403024900800925 
-1.21957819932603 
0.8108047982089414 
-0.557912320867732 
0.1681731811623225 
1.731249230696037 
-0.11945361577366 
-0.7119877025202108 
1.267649472547238 
-0.1313377636352732 
-0.5519704597394345 
-1.461034134136024 
0.06656450202451608 
-1.255283360842811 
0.551615906119085 
-1.045915723238922 
0.7350901443780663 
-1.477487508723617 
1.162466941336218 
0.04102512664729003 
0.7039102732090898 
-0.3226004033442403 
-0.5740400026450373 
0.3499500550729179 
0.9836073386089799 
-0.7948377509218296 
0.6454416841915488 
-0.5921812619874741 
0.2053297918495121 
0.6979544322012353 
-1.158063470445251 
-0.5987201147508145 
1.318243693493276 
-0.9370881686234351 
-0.7766188695479248 
1.612910739559608 
0.4318151093552639 
-1.042790112267907 
0.7322189688613492 
-0.7118893935094747 
0.6377653439968163 
-1.368403909231035 
1.302347704015045 
1.003833502907985 
-0.5011689515162088 
0.6388093301788317 
-0.5291410751776671 
1.035815817614977 
-0.01572823186157346 
-0.5602170717506093 
-0.5341271717542637 
0.2314381149103057 
-0.5803654493698174 
-0.4990226211904371 
0.1823530786329028 
-0.7430157156881297 
-0.6369944909698038 
-0.860267313977926 
0.8932916947908259 
0.9128722136744384 
1.108262631015482 
0.1180433731851706 
-1.044367313761031 
-0.9182237497707794 
-1.75560475474646 
-0.9837735357522155 
-0.851167850204693 
-0.6719055243604335 
-0.9239107850056435 
-0.01338024102755336 
-0.8322357790263469 
0.5535313773402308 
-0.4497070935452338 
0.2018454781925778 
0.5073334147140315 
-1.235935498881222 
0.3626086246161406 
0.3291547902736114 
-0.2329909162407402 
1.002466435808621 
0.1322733458234072 
-1.053160042667046 
-0.1347046788469076 
-0.7056632777704183 
1.502321622080269 
-1.812143996804464 
-0.5814003615459234 
1.103848233511297 
0.1163240870370786 
0.9794914422576089 
1.561794572534327 
1.25830907768229 
-1.154084355546289 
0.5438236192112356 
0.6038067083484554 
0.3462629818639799 
-0.8665762288471266 
-0.6392769012074927 
-0.3640172296735524 
-0.4388115977745596 
1.135382198081752 
0.4844476502173211 
-0.1110693904548501 
0.5511959524331577 
0.1881055837358454 
0.5406633824611309 
0.119987309198544 
-0.1126376161018398 
0.09863403215126881 
-0.3184079015022964 
0.4076153963656801 
0.8693676228342448 
1.335130121977547 
-1.057098647382237 
1.131661945651808 
-0.8662526075180463 
-0.6415625442350714 
-1.004833541876852 
-0.3412155297816168 
-0.226309025519697 
0.5245077910313243 
0.6626832620674605 
0.9509295730836002 
0.3100238841220755 
-0.2821461939364282 
0.4431927259660947 
0.5193542065622568 
-0.2397669227427763 
0.2428613807015181 
0.7283200754476926 
-0.04990129465049202 
-0.9977329748055094 
0.6604971463789852 
0.7265199113237758 
0.07547246559008795 
-0.5858912725355782 
1.207724631433733 
0.8693436754098528 
0.6055957359546369 
0.7722381510322117 
-0.7675340706979202 
0.9703617756352815 
0.287389135332655 
0.40799447754829 
0.5539782343968661 
-1.82305973194323 
1.086801908806992 
0.9504792211796778 
0.8275369130899862 
0.08772226194655586 
-0.4310703942454252 
0.3898572861390012 
-0.2365182540250411 
-0.2665503929227789 
-0.9251671808025292 
0.3119411140766723 
-0.2571600157202345 
-0.2531118238253219 
-0.7408716190884598 
-0.5921549334843434 
-1.298357704903201 
0.2691016584571267 
-0.6988033405429546 
0.5921026107320067 
-0.5823883022553704 
0.8957455073636048 
1.301499006529715 
0.239785788470829 
-0.9190370025329679 
0.950612746991423 
-0.2146257100232644 
-0.4187670373045917 
-0.042790646586504 
-0.6215275278369263 
0.2153502642919458 
-0.8208186724075092 
-1.224335240266096 
-0.9803617214924627 
-0.08562804145761703 
0.2313142120764846 
-0.3475606194036333 
0.2160013894478427 
-0.6974538247717001 
0.914754857963636 
0.9682885365727646 
0.5447528049848666 
0.8760097632378948 
0.2871184906639961 
-0.2795714798246749 
1.205386059588596 
0.21800401440953 
0.2679316606767934 
-0.6366857331969652 
-0.5940859423209679 
0.1696325484307132 
-0.07749157189460872 
1.132183751486742 
0.5143772001059901 
0.1983097659471231 
-0.6893607194069795 
-0.3790049908571007 
-0.3329060338537054 
-1.120158176247487 
-0.6844129071914251 
0.7755509452630998 
0.3717557222405904 
0.6384657387846554 
-0.1397933189004339 
-0.5515801905415799 
0.653698979885547 
-0.7034532825622993 
-0.07732491606388103 
0.6264651299470037 
0.0365932790295562 
0.7120113922154535 
-0.1438522558478376 
0.8163986217953829 
-0.3450021256660609 
-0.6809402927855842 
-0.9859424461223569 
0.7283998555968022 
0.1980514005995417 
0.3920117943507759 
0.1767159109495909 
0.3787470306070385 
0.9653739345203908 
-0.06233742280882766 
0.7906349344849275 
0.5268488506261041 
0.827581720881966 
-1.540659141600155 
0.2724452568651363 
1.108875768062366 
0.02545099550953917 
0.4513434783716581 
0.6724766125187264 
-0.6317513489595005 
0.5019858202476204 
-0.5511092139470802 
0.6254732170742651 
-0.5971027396184476 
0.5734368731872462 
-0.924236889628969 
0.3471168157376477 
0.3046902973563027 
-0.6488420208437399 
-0.03470111357994735 
0.333926324761938 
0.2110512427311894 
-0.4900856069266028 
0.8586212865726197 
-0.7544674349316975 
0.6197182101218552 
-0.03984067048770626 
0.831535191049793 
-0.1849469686167503 
0.3325359509890874 
-0.9307857917582708 
0.3892935109004214 
-0.3356259717154053 
-0.4491497671031143 
0.8494280398549154 
-0.05015982605446132 
-0.628428989769787 
0.8214643115302609 
-0.3545331055198112 
0.7426053359522962 
-0.8584918426415487 
0.5549293446068411 
-0.4413960242527614 
0.1550308923792713 
0.4837354592660933 
0.5570867736708454 
-0.4645802176025202 
0.6975992911342793 
0.2041524636178331 
-0.4859729813296723 
-0.843897898683185 
1.311828992723366 
0.5904122167329587 
0.6162607487114015 
0.569790340423998 
1.485168607703827 
-1.152068761935314 
0.4609346079956584 
0.9591093894862929 
-0.8494417954331189 
1.281624302257992 
-0.8365188611408946 
0.04243630845973467 
0.685952663760439 
0.02956546526791084 
0.3915167848420262 
0.3086592930660809 
-1.25786840180656 
-0.2983890114459203 
-0.3518129750852246 
-0.2926877458841045 
0.5845655993615912 
-0.2256953154618805 
-0.08247739614631847 
-0.1772005785956846 
0.1789735632730477 
0.1413620929891525 
0.6987590570873808 
0.5599325929774491 
-0.1681257818030502 
0.1257095607918583 
0.6466439774950377 
1.013002915154396 
-0.8059145870371757 
-0.466222989120407 
-0.6848718284892132 
-0.2799009161243171 
0.2114041904071208 
1.101191849698026 
-0.1354353641243813 
0.9951120261632675 
0.5097241987407638 
0.2825876029174428 
-0.3135002851575089 
-1.008316396216381 
0.7896157250861643 
-0.07056424580664895 
-0.7250682502512986 
0.1197162077626325 
1.218363122759418 
-0.7745627046643098 
0.5180995347974787 
-0.5402301195023159 
1.043789367586871 
-0.8441144250493183 
0.2446932342937809 
-0.4853919126016588 
-0.03563882650532194 
-0.4308940224897819 
-0.3651189092702578 
0.3364965966334108 
-0.2116134987793873 
0.3210319801667124 
0.2604317156192956 
0.009148985389811518 
0.4951712931710984 
-1.077468119257026 
-0.8553524720604057 
0.7169547461429105 
0.4956423596181891 
-0.4374885051595162 
-0.6435304195565126 
-0.1601923252882493 
-0.4997205330874133 
-1.8573132463908 
-0.7427097482710021 
-0.1710352716679691 
0.6197193036135503 
-0.8149107558898979 
0.216407893169807 
-1.163215808276771 
0.3905914826103917 
0.8981234426774952 
-0.934491986668324 
0.3421061907658243 
0.5667658839836338 
-0.5903665826848418 
1.123297903535179 
0.8526192533933605 
-0.2798666048655036 
-0.2887490224462401 
0.9790845395128416 
-1.053922499158644 
-1.110545910104506 
0.4950100991482345 
0.1899961013500038 
0.195083836114934 
0.6324047969544521 
-0.5809751624175029 
-0.523442324489514 
0.4254573797421424 
0.4933135673243685 
-1.594625799685939 
0.6558070554960962 
0.7153591804664665 
-0.3038627924556397 
-0.175842339839764 
-0.3347984704425651 
-0.04241267283572685 
-1.035226664346332 
-0.6125428806374144 
0.743009797426227 
0.5031430572336192 
0.04365974708015172 
-0.3780802571678727 
0.4141491897424587 
-0.2787609146297787 
1.040318532453863 
0.2943665074774539 
0.4768017093907839 
-0.1860040189948355 
-0.5299245741063592 
0.6563783105596513 
-0.6925648917987358 
-0.04635189599940291 
-0.2808567822832537 
-0.2308523428893768 
0.05589921136681451 
-0.6322622680776021 
-0.8779789160228577 
0.2960806965415843 
-0.5785511591323353 
-0.4697599502994735 
0.5590254129746134 
-1.442161578871819 
-0.3793855281392964 
-0.1499178918639965 
-0.3878019198331673 
0.5000780312644236 
0.3229306697118189 
0.3953719114774619 
-0.343056340524885 
-0.4293726841118169 
-0.5851539117313997 
0.6616353029278419 
-0.09168366292453198 
0.08919946577177958 
-0.5073450891937072 
0.4053288509324282 
0.1906038285898137 
-0.4030285476420262 
0.1355531437932518 
0.4475317531511861 
0.8252678645739236 
0.1907405603644784 
0.9457416339772095 
0.9430907398154997 
0.2482419019348463 
0.8514836461313433 
0.3177018127780647 
0.8489350309946753 
0.6297217322711679 
0 
-0.8452078191877473 
0.1422117804194031 
0.4842791041991461 
0.9921484144395455 
-0.2787005762214654 
0.1476192202684724 
0.3087748378704964 
-0.1695676634078809 
0.08311317583450323 
0.492205891285916 
0.3592640073089925 
-0.02858097263689778 
0.1949617984464392 
-0.2575987797430883 
0.005670847634036361 
0.2004173740158375 
0.307788994831674 
-0.9874064008474355 
0.3541633641024896 
0.5795710865420183 
0.3513833841378357 
-0.1666059366591581 
-0.3603700602248449 
-0.4693797068416656 
-0.08965670719001213 
0.7116193274572975 
1.049064549118163 
1.089540333409114 
0.403723711265886 
-1.065997493451416 
-0.7188218192536654 
0.7306411674378249 
0.9572534310505785 
0.1284676767989932 
0.4694613254336341 
0.1422721749874141 
0.1153691085836829 
-0.5650451822533824 
-0.3889688398088909 
0.1126532179231648 
-0.2927910072704382 
-0.3450431252607801 
-0.05796865546030275 
0.3020671334938893 
-0.4167415684753969 
0.7715148661387909 
1.428290741205925 
0.7749270256314852 
0.1060777782092236 
0.3658298936229014 
0.5937524255497058 
0.4977350487848024 
0.4387027162120417 
0.1503627517568016 
0.5453539384670524 
-0.4256435350540145 
0.1270402326400801 
0.4561782611976442 
-1.01987689506584 
-0.4551536339816962 
-0.2072956391576614 
0.8557091202881485 
0.5315428184646676 
-0.4047613431348764 
0.4990832382189033 
-0.1352026669624271 
0.2754926666603548 
-0.5208248866314862 
0.5059149024985883 
0.7886804277459314 
-0.1589151389949929 
-0.4293512510754107 
-0.7715236351228763 
-0.1608055428466866 
0.7149491708495033 
0.9822360516790388 
0.6474395633926647 
0.4176149308514463 
0.5671647063289651 
-0.6876304237375118 
0.3705416717118408 
0.08403391223253562 
0.5398973513836043 
-0.3549453794667669 
-0.1887756486990343 
0.3571783348491875 
-0.6495067908211519 
0.607074591879221 
0.9414164673339105 
-0.3682124450474765 
0.4285679210760838 
-0.1339139820806519 
-0.8069128707869847 
0.5195638061424227 
0.2513466272255431 
-0.07880368079419485 
0.4509858489224697 
-0.2045330596079368 
0.01739867260727279 
-0.9331049258416366 
-0.2300821665810222 
0.6085361404669331 
0.5091742559607714 
-0.4915256148473824 
-0.7360909248202099 
0.8109644417901135 
-0.4138528442038653 
0.6960462189841822 
-0.2397393542636052 
-1.269680702528551 
0.3707583102354925 
0.4105790248801175 
0.02059118041495702 
0.2960579119378646 
-0.1011222200330306 
1.072753462079275 
-0.08393642255867363 
-0.5303459257467551 
-0.2378722237604613 
0.9336289183484245 
-0.4785131149622489 
0.8294240765521804 
-0.1344767501101959 
0.4678254599936274 
0.4237489815605874 
-0.7811005761321689 
-0.1482113705334615 
0.8192699263681723 
0.7148968905162888 
-0.03386062680543856 
0.6012755840392513 
0.01159442982529376 
0.1191859434893949 
0.4357763800355412 
-0.1653311978401953 
-1.255108950772333 
0.2289956185609058 
0.4487916560819536 
-0.4807225118542648 
-0.1807041136542564 
-0.01871701525337148 
0.3367538766138453 
-0.5987368254586614 
0.1306498014113161 
-1.029473262848328 
0.3356460797689577 
0.59197514783683 
0.01103785211107943 
0.6977780825601195 
-0.3264523982090376 
-1.222607653143784 
0.481714947500949 
0.8404192296161461 
-0.5678986831295628 
-0.8863550641953768 
-0.3335649197692375 
-0.1928299506389721 
0.09679596998340051 
0.2796248878806687 
0.1501580996348663 
0.2929862507425014 
-0.6902578255201067 
0.5956175035582898 
0.3591671871946924 
0.06390011605823613 
-0.0702245627687856 
0.2619574935954758 
0.6897947594335374 
0.7052074330165413 
-0.3839019366943229 
0.2260757317057686 
-0.5840615352611085 
0.1532238838276569 
-0.09041944086275452 
-0.6283049788800945 
0.1781618112072788 
0.6044422113229792 
0.3990492436275681 
1.130184322521562 
0.3845652200672909 
0.8244996850142589 
0.3105287835452347 
0.5721827141663982 
0.152121841641605 
-0.4730052057515142 
-0.006269060379959026 
-0.4304663815028441 
-1.501237322018553 
0.1447158411145696 
-0.4600636571965892 
-0.68722318433735 
0.1509300681308223 
0.07152730485782664 
0.2760451471072164 
1.025735344200223 
-0.1028090793744313 
-0.2120578755277416 
-0.3636832463654479 
-0.5519248592985938 
0.2097269355950903 
0.1532628222115251 
-0.8050598411116077 
0.3389953314017611 
-0.5727316846272638 
-0.005312543116784198 
-0.07871398601445855 
-0.381692422099408 
-0.4890596499761881 
-0.2687439111392268 
0.5290383097719731 
0.198444203000433 
0.5569921365256062 
-0.04613224634599968 
-0.3048026266358451 
-0.2026581145690065 
-0.238394499182692 
0.2689352792116038 
0.2008289847261418 
-0.436562806446879 
0.3248258362958739 
-0.2495142236098927 
0.7244545754034843 
0.3264256480619844 
0.6203491527136215 
-0.03994830274073101 
0.7149646902832792 
0.1171834137769793 
0.1044339729506573 
0.3656032711399732 
0.3061379135332028 
-0.05911995562629048 
-0.02666746592643359 
0.487187403305002 
0.7727214728996969 
-0.4203632320222129 
-0.1096444815124339 
0.07177510873789393 
0.1418370523710451 
-0.8712894546643273 
0.8503540849458993 
-0.4019973801793523 
0.3854338394117398 
0.04264513520273551 
0.4764251310528034 
-0.285773730484858 
0.9002252727351158 
-0.09104526383687286 
0.4299720425966913 
-0.6229204525206473 
-0.6141750630707311 
-0.1591023091264483 
-0.5975941980363454 
0.3399637980492213 
0.2765334426179112 
-0.4508274692868621 
0.8216034920834896 
0.9024586220893438 
-0.3088027627455638 
-0.4692222874457849 
0.5424400303558662 
0.5924363923886683 
-0.1254666303055859 
-0.1724143658652171 
-0.1520004283837926 
-0.1207003672517729 
0.7615945914818907 
0.3481179150603109 
0.1927199877255844 
1.124166984191022 
0.4850865081250815 
-0.5274025235320787 
0.7368305212509715 
-0.1343904285046797 
-0.6550555386054284 
0.3746267793145843 
-0.03429423795282922 
0.3594223365644864 
-0.6189548915222121 
-0.3370121293209511 
0.04389713148173565 
-0.0959355540663481 
0.3768148528597648 
-0.5363227687562491 
-0.01533329802408329 
0.8636429820366247 
-0.3309259057831234 
0.575364659811651 
-0.1935623109452321 
-0.363234790477794 
-0.04166275423592087 
0.0652096431995058 
0.5718816587426707 
0.2228233905710129 
0.1670642015050941 
-0.2214988425502133 
-0.102034031623425 
-0.5450869626310277 
0.8959526937614311 
-0.4244620525671504 
0.8448263137974263 
-0.102094658701316 
-0.102094658701316 
0.5179349873853416 
-0.01198413259581104 
0.8821358128736368 
0.5951517173490429 
0.3162495932787525 
-0.1000508931690257 
-0.5649892949725761 
-0.3118822401329441 
-0.174714200836506 
0.04380836084617504 
-0.5820851437616454 
0.1290586556616252 
0.1631101736573956 
0.1783522866007184 
-0.4443384604932146 
0.09358548509452726 
0.4561420299018232 
-0.1354295785479931 
-0.1865336190451549 
0.121967963317888 
-0.3052102572131163 
-0.1751740259822853 
0.5349590419748786 
-0.3560568706081181 
0.1629990348113871 
0.5975917493193902 
0.6888651468319662 
0.1389720161384422 
0.1874722040339081 
-0.1869802287060335 
0.1346975774951499 
-0.07129697341628911 
-0.06589273899436027 
-0.04732078208610898 
0.6338739174366655 
1.006561601592019 
0.1424540684157188 
-0.2665939896700305 
-0.1634185853796294 
-0.1951460289000431 
0.1714860601023595 
-0.8367564254559695 
1.516697098270742 
0.07550194202720636 
0.09826669549044764 
-1.058091058187736 
-0.4677042666202281 
-0.6394212693462134 
0.06833476359911227 
-0.07163834619694254 
0.4739695761026145 
-0.8169920255170945 
0.5956877981588409 
-0.509082809666111 
0.3677788694618175 
0.3591584099144191 
-1.201998325912312 
0.1559924361829778 
0.452821388127214 
0.2494390999258486 
0.8093156934701449 
0.7220921971430388 
0.7456129333480537 
0.04233446077156119 
-0.4891864133679676 
0.1872019930676323 
0.4519902812798026 
-0.05872141253957025 
0.05505195833646622 
0.2183142691260369 
-1.266261281095814 
0.4974047392214929 
0.2483379076700555 
-0.06259149728483579 
-0.3715893933990878 
-0.5887262046452912 
0.267957605254626 
0.4207155182993802 
0.3966687285283416 
0.3139712215291265 
-0.3348339762925081 
0.4287795813853666 
-0.3759867068085802 
-0.0223589866211143 
-0.4776012827235091 
-0.02490500382814125 
0.08129242586059209 
-0.08439222666709514 
0.3731508647414098 
-0.2841480982932258 
0.2309091844189693 
-0.4696503716007409 
-0.1186933370416778 
0.4764508801854181 
0.4409904568337649 
0.0248989945359488 
-0.4155174844190898 
0.9988330288587194 
0.1371547045680464 
0.1186769697260288 
0.2988250617773749 
-0.01498736016288781 
-0.653545865606121 
0.3444219529315314 
0.02220245518443943 
0.299338009976739 
-0.7896078092379636 
-1.161782603601615 
0.2218292408504085 
-0.5223268454395198 
0.3973648028327285 
0.0167393304801473 
-0.1635239843653179 
0.3504340206034894 
-0.8002390165293933 
0.4268519591214889 
0.2555424111258098 
0.2323664912867241 
0.1146671618868158 
0.2156856378537044 
-0.5059474293842149 
-0.4416166053621732 
-0.1194808217767784 
0.3988487092586915 
-0.1723684692514589 
-0.2896041568785105 
-0.6636395884682915 
0.7627832954170315 
-0.2728048183602075 
0.1719879262595729 
-0.243801618636684 
0.3606471684518308 
-0.3856170023284965 
0.2401747522343613 
0.4522853509865095 
-0.6363498465691216 
-0.0664026136202998 
-0.206391711196303 
-0.1024021857694128 
0.185392899799269 
0.9248625482714138 
-0.4568253043179006 
0.3665724292292478 
0.6512681822825536 
-0.7956261294580897 
-0.5183183194039456 
0.7839138203728935 
0.007072339287156559 
0.8316053198768001 
-0.1116608410151515 
0.1355347681409312 
0.1943516535453095 
0.7204328062055697 
0.5199309376861744 
0.5265084627675958 
-0.5614922059025795 
0.863113617116447 
0.5165879232102314 
0.06641349572794655 
-0.01881579246149743 
-0.1692413216554108 
-0.216488809677742 
0.1026144961290709 
0.1838615160745044 
0.5865146639444335 
-0.364729147155896 
-0.46755592156642 
-0.1805472658052988 
0.8169990960629451 
1.14205958363153 
-0.6426477104341956 
-0.2484767643280507 
0.3512803340454129 
-1.147493767133656 
0.3243425103100351 
-0.6705262259447959 
0.5401454384869738 
0.03027006369871624 
-0.4582498712774349 
0.1876088807429995 
0.5755999784561894 
0.424128660993469 
0.6280082374148145 
-0.08825202888544309 
-0.4129018726759244 
0.3416058743625781 
-0.01737673609274861 
0.2555895868867132 
-0.5854960251289175 
0.1331039786040338 
0.6666660035780199 
-1.045582190245695 
0.1539345233325572 
0.1771605418588347 
0.09182551730172184 
0.9127495081610785 
0.5621155466222281 
0.2341377796576695 
0.2655582956611652 
0.1568302092937933 
0.4571308978259012 
-0.9024031762868692 
0.2999116324066062 
0.4838253149391996 
-0.758317485870327 
0.798194534164443 
-0.6310241200154112 
-0.4296175971420063 
-0.4861403465878609 
0.5730796001798836 
-0.07041071012133054 
-0.3178906613860482 
-0.2599431084949574 
1.121516036666695 
0.491002688293269 
-0.06944844384086168 
-0.2466284408201858 
-0.06450851336409792 
0.02511360258693792 
0.7475948217597695 
-1.412746313127194 
0.03926286044978115 
1.34649889538311 
0.6585241817102993 
0.5996928454795442 
0.2354635000060118 
0.816182257753051 
0.06574974827114335 
0.1798223997240323 
-0.6544168328691546 
-0.120527635465904 
-0.2301443825060475 
1.194378866589477 
0.1457791818743061 
-0.005425890981442072 
1.029681386616485 
0.4418203880015555 
0.5547409754970237 
0.8261032125859282 
0.08383362817425306 
0.4129395131582975 
0.3862555572312044 
-0.1016557441552366 
-0.01568832490346707 
-0.4755553531045171 
0.3256561494522525 
-0.5412253972284469 
-0.2294125611117286 
-0.2927177294525176 
-0.7944483778851289 
0.5956031104042743 
-0.1936282027500143 
0.08661602289637359 
-0.2585329087194881 
0.162784695501818 
-0.3645339163111085 
0.1161283662074117 
-0.7427770420603121 
-0.07289236361408429 
0.4875915983468152 
0.01292530856932991 
-0.3641250155107226 
-0.7560671785675985 
-0.1071446078492819 
0.1749333473778565 
0.1964660501870761 
-0.1684672691924783 
-0.08987260557488284 
-0.2332086667245688 
0.0880986261868026 
0.03017675041096883 
0.6780258967446251 
-0.09101607640504587 
-0.9996894938615697 
-0.6943064507165646 
-0.08286391882699021 
-1.300351865802572 
-0.316651532041762 
0.7323144655882492 
0.02732962019416541 
0.2941109568089319 
-0.637203775916986 
-0.3190093729899502 
-0.2955181071029046 
0.4147925808446218 
0.2454761063801186 
0.1775853681062479 
-0.0204194923927741 
0.143030006359665 
-0.2835523397118699 
-0.1696287509601014 
0.2326477594667652 
0.4038111439968619 
-0.01199336413317026 
-0.4594178664745538 
0.02229673990782169 
1.022877501908963 
0.2753327225570213 
0.08063989330978068 
0.01488152649521938 
0.3490607764095397 
-0.1822202057878655 
0.0633517558023817 
0.2250282008854643 
0.7266505397521168 
-0.4255979691369163 
-0.554299424391718 
0.5504550144369343 
0.2696713405722448 
0.08487087126006368 
0.5609029504127155 
-0.606090019996266 
1.006815021250152 
-0.5248812649984772 
-0.007999875641991961 
1.10874436610022 
0.146547050499069 
-0.5269813848570757 
-0.5320122220962592 
-0.5076886500663855 
1.106173762076025 
-0.5552379431356785 
-0.09001833439838586 
-0.02453570916475357 
0.05691243990236119 
0.2802409097320984 
-0.2100833589383871 
0.003979376410766112 
0.4522393323623898 
-0.4612709862403853 
0.1183786517894133 
0.149774628868298 
-0.0009333630430886638 
0.05836122310629591 
0.3074239032934304 
0.07003523148163358 
-0.1937805118038598 
0.3604976105405706 
-0.3480465464894377 
-0.06157573816878324 
0.05344174419499619 
-0.0313102389468223 
-0.5617805718426403 
0.448599601111847 
0.267087761005702 
-0.178192804335777 
0.4541075786314228 
0.03255475209277408 
0.7708533729156277 
0.006089248047597455 
0.2304394800119758 
0.2861712849194799 
-0.226557031527771 
-0.4953696565424828 
0.4646090355127212 
0.5807711133836383 
0.550851551720816 
0.8983884539731133 
-0.07092203051017254 
-0.2699030857049011 
-0.1625601562325111 
0.5574105252601468 
-0.5036658175739261 
0.1208133378893643 
-0.5655840285632034 
0.4614317784050948 
-0.5980308315564973 
-0.5012548012102378 
-0.01239917322052967 
0.5069174379822191 
0.5288666536800487 
0.0177557946376846 
-0.02771031996084463 
0.9186883719227614 
-1 
-0.4006091639231217 
-0.1962096642145016 
0.4394982182224842 
0.2218232112383579 
0.3068974518785383 
0.1205299815022753 
0.05530779821231034 
-0.2860863928012621 
-0.3017540938973559 
-0.2642604995268353 
0.08101018398835112 
-0.06629034225711963 
-0.1802896015176775 
-0.02363859062950695 
0.5322212817559755 
0.3055399544536536 
-0.4334573632433855 
1.353513455537249 
-0.09105510415576634 
0.1416537944437551 
0.1732812999298277 
-0.02488750767770105 
-0.1521274463876787 
0.4514753896269668 
-0.6163664498924688 
-1.208919382308975 
0.07168779454396816 
0.4695100217978373 
0.7169003034655105 
0.8569905085924459 
0.1387369428171245 
0.1166748278158902 
0.1166748278158902 
0.2825027503775097 
-0.8587088591471621 
-0.07889378715246993 
0.297734276182145 
0.03186945832413331 
-0.6038703507263494 
-0.4671688173675995 
0.2755949028680541 
0.1846313247081168 
-0.5825321624875471 
-0.409384683316931 
0.7803090387665413 
0.2361131605878935 
0.41552036108048 
0.1857130980248119 
-0.07666886166121005 
0.3496316942374945 
0.4432426815504743 
0.2343039916796529 
-0.1546591415531202 
0.3316152878094815 
-0.8708954768320419 
-0.3626099114170991 
0.6466104740305294 
0.347230805436869 
0.1379987637804919 
0.02088437618333959 
0.632727839169385 
0.1703293956613599 
-0.01953707086456813 
0.222389106864397 
0.2254211774136276 
0.919448285912923 
0.07028342589868507 
0.4664905459501049 
-0.05576051446746445 
-0.519546434478607 
-0.8271038879901947 
-0.1247811840745621 
-0.2343422596509548 
0.4864966201380364 
0.3815700115346607 
0.8592103502272795 
-0.07582983051366191 
-0.2162273336283651 
0.1250177344106364 
0.001487390600620508 
0.02457454823666908 
-0.8030812020683625 
0.0915058737282011 
0.2350396607469913 
-0.04899277407289502 
-0.08555504513184689 
-0.2084403786113667 
-0.2129360698082624 
0.9988245213212237 
0.03716362996990766 
-0.2651652585991841 
-0.231022597488117 
0.6316618136583995 
0.3808822175155156 
0 
0.3482765933818487 
0.1622942403652596 
0.1164572744325591 
0.395359568590301 
-0.03655733364284162 
0.2949186111964563 
-0.3893263801147577 
-0.2415033957409743 
0.1153202561668864 
0.6319550046998486 
-0.5881854573393472 
0.891191899230695 
-0.1904369997720419 
-0.3113216262871232 
0.2428675484800204 
0.02205007709204635 
0.6883221092338551 
-0.01988181998058987 
-0.1727575597740927 
0.9061859792281953 
0.3377829824565208 
-0.1670613702749349 
-0.5704697736914834 
-0.03091759227299389 
-0.07826290229250039 
0.9087842302390652 
-0.002747126940250555 
-0.4001658749389188 
0.2148737344195298 
-0.4934587563177955 
0.8793437124448071 
-0.5537764461671183 
0.3360963503803408 
0.1137310947837734 
-0.2417182521940165 
-0.4292443158821997 
0.02538710170729448 
0.8412557939656812 
0.1903735313295755 
0.1030716144954256 
-0.1675464498018277 
-1.360394819141024 
0.2553094543880998 
0.3578353017771757 
0.2875679494227151 
-0.4868699314842722 
-0.4684534640281736 
0.2800497623159327 
0.6327892330713937 
0.1762818903188043 
-0.1909313788561859 
0.139103445643449 
-0.3661329879568184 
0.381112135267072 
0.2504096597768772 
0 
0.02337950948580846 
0.4139645105579421 
-0.4243886831718041 
-0.2760633291281439 
-0.6677065151363869 
-0.6239132334613222 
-0.3404489842346953 
-0.1375077126674996 
-0.14770543473117 
0.2549510530664872 
0.1344641274460316 
0.1080788639539339 
0.3388794784429189 
0.4307894039497965 
1.237209228293213 
-0.4006407352225471 
-0.5721056965221789 
0.7605055807625863 
0.1675925571382697 
0.256350537773999 
0.6244406016926189 
0.3465868613760161 
0.5326470308407015 
0.05679489742191639 
0.1464083505216074 
-0.9095679327755263 
0.00664544064886197 
-0.3477278016275203 
-0.1213824048455594 
-0.2596954231515757 
0.1909341109067789 
0.1418280576545379 
-0.08129712298170029 
0.4017736070988306 
-0.3989840324532502 
0.3111709630746871 
-0.305113111289155 
-0.4165582876950477 
0.8088191973544071 
0.225359250529408 
0.1778367875857493 
0.1157019960843775 
0.103058978282138 
0.9121857506990657 
0.09789555105740011 
-0.3851645522806928 
-0.5476201873363443 
0.2349916169380969 
-0.003963190980609039 
0.2505845745054956 
0.3252283986048977 
-0.3260024495415545 
0.1243570003147137 
0.2991347878036931 
-0.4945046979071502 
0.4346860806276868 
-0.1259280758014535 
-0.204984391237498 
0.142473404381304 
0.01366881080778078 
0.3805933712601255 
-0.3151431827729593 
0.3923293847364148 
0.2568273719773245 
0.2647915234519762 
0.2601117767120756 
-0.01527809551047986 
0.1048505866172977 
-0.283520355619259 
-0.307789225076927 
-0.7966556054113538 
0.5626262134020766 
0.4434276763707727 
0.4772253055473321 
-0.2185855235987269 
-1.079217864519402 
-0.2943376056916203 
0.6295459702705005 
-0.3499409705184401 
-0.08701192966493022 
-0.4817255364324571 
-0.3097779619178384 
-0.8441019991644875 
0.1461902078378985 
0.1869714216878925 
-0.1032362210441638 
-0.659153695587682 
-0.049151892009957 
0.1010375191598465 
-1.081219704067648 
-0.04455610402496222 
-1.105346886313447 
0.1693290482007815 
-0.3701122080675639 
0.2929089338345495 
-0.3089321470706849 
-0.173261269643606 
0.6110319180868717 
0.2488668602516748 
-0.8504377677537923 
-0.5196631229352316 
0.2535251153387458 
0.3945370503071663 
0.194670413436711 
-0.546353115085277 
0.380602202987431 
0.8603680526221369 
0.2704528371925481 
-0.4347239538816535 
-0.4688019798910709 
-0.4977085954159118 
0.8233097581401656 
0.5689060502966774 
0 
-0.2704744142289593 
0.01243661940789181 
-0.5703666295375618 
-0.1718228459086215 
0.1228886180414833 
-0.6627295786327762 
0.28008551667389 
-0.2929847967638484 
0.1550244353553953 
-0.298200881955777 
-0.3501665948298031 
0.3818154370161447 
0.2380367699891205 
0.3772349093131023 
0.158820249263903 
0.4041220964929533 
-0.1525364634076317 
-0.1244840658934807 
0.1303136056625271 
0.5644885637820151 
0.0792846221815454 
-0.3043778343729565 
0.1301430630677957 
0.19397369519058 
-0.01108130973519056 
-0.2562844423284376 
-0.1355204630284792 
0.1323791324344913 
0.1323791324344913 
0.6896096667040331 
0.5751232654393765 
0.644351691790827 
0.3552718105238682 
0.2497989362040271 
0.2076155292550901 
0.02976150340628005 
0.3757419368764754 
-0.0499450750966645 
0.1318550572375939 
0.2547743594113666 
0.5659683022651959 
-0.4148792610890263 
0.3940393134553663 
-0.4930219329580856 
0.4058556322454925 
-0.7413031130939887 
0.2540922641130625 
0.731128480658921 
-0.8334045647462925 
0.02730182267751203 
-0.5285612864884582 
-0.04949360102349806 
-0.0633125914820475 
-0.2545061361227424 
0.03836549501887877 
0.03721750294843796 
-0.1207362589254108 
0.2492522771285705 
0.1314558521123606 
0.6146966357014587 
-0.5383297462398549 
0.4915073953884581 
0.1326973567760741 
0.1326973567760741 
0.1326973567760741 
0.1326973567760741 
0.1326973567760741 
0.2653947135521482 
0.1326973567760741 
0.1326973567760741 
-0.06017988994598118 
-0.3409207851411903 
-0.06848856041106438 
0.2526209868559425 
0.2214497492150914 
-0.0199793947604936 
-0.2002967698886036 
-0.08381011514194601 
-0.1287926796575039 
0.6538927335892043 
0.494520292066593 
0.6731633235358 
0.01990692168459556 
0.008230982091164869 
-0.1256831562063145 
-0.6582490792299051 
-0.4276661208738715 
0.0304366958092503 
0.2592204566439433 
-0.4774950031848645 
0.01462422463531608 
-0.0621110224793445 
0.3617473276214369 
-0.3651782519487304 
-0.4212447346374759 
-0.07712156279269808 
-0.2771558530469812 
-0.1568377681056179 
0.8580956110500727 
0.8277473275831947 
-0.004248852699795056 
0.577358502715817 
0.1024787609645894 
0.2414562589869543 
0.1960757180574622 
-1.115321555587147 
0.01849827461567624 
-0.07828616304402547 
-0.1216154055842654 
-0.4907972667386173 
-0.5189497035530433 
-0.1982913870297639 
0.6631574788773446 
-0.2485594953106063 
0.1427796731478229 
-0.05812462024404578 
0.1517082983258608 
-0.1646976754462695 
-0.3886617759530281 
-0.155831830711838 
0.194477966893606 
0.5351807363918576 
0.1276657210143096 
0.1249286183615653 
0.513783882946968 
0.1149589052691231 
-0.237478998382343 
0.2277384995457901 
-0.1983714180885039 
-0.6062240179258678 
-0.7191867337737302 
0.1999413649628105 
0 
0.4291914623443917 
-0.173261269643606 
-0.3866852311835146 
0.330043650761718 
0.07033688123740099 
-0.0504486806553421 
-0.4744158630911465 
-0.3106814908272725 
-1.270201422708758 
0.05126257893251328 
0.0887780146676405 
0.2435209767062937 
-0.5307474692700611 
-0.3232601374659929 
0.5225078640193259 
-0.0500370714534611 
-0.3101972226590397 
0.1161922240350403 
-0.3329469890870052 
-0.1566735079981761 
0.1966263677159086 
0.04798063184121085 
-0.3544300267641379 
0.6824508188816102 
-0.3028897061227758 
-0.8973606928993282 
0.1323791324344913 
0.1323791324344913 
-0.3651560022429854 
-0.2154019840287537 
-0.3180712431894269 
-0.07965061902428862 
-0.2084285286425714 
-0.2418396437069223 
0.4878625652925273 
0.7285117213501128 
-0.336667986694296 
-1.120054258176804 
1.434596334979265 
-0.4451057501594412 
-0.1980788166486512 
-0.03569823061495529 
-0.3343968892763708 
-0.4154028535283358 
-0.3384062436980383 
0.01604691731270399 
0.2454538736380114 
0.1505135813760712 
-0.5270207720689768 
-0.7452553433286391 
0.5857632456640535 
0.8277402461518318 
-0.2088064121755704 
-0.5627415691971592 
0.4077620507861799 
-0.4225072231857402 
-0.1632872349784573 
-0.3438383350205322 
0.1703990439652271 
-0.04319244960051764 
0.1515507226122708 
0.5413667533133638 
0 
-0.09886805982885796 
0.1266832363919867 
-0.07150907050371264 
-0.02607715166637695 
0.7337426132266917 
-0.4367848759075793 
-0.3705933997099244 
-0.6991235518928637 
0.3013385726107879 
0.7810478653410939 
0.4368247020474869 
-0.4567032530902382 
-0.3329948039718433 
-0.05080103951581642 
0.09153782334490472 
0.227257313899988 
0.5686330581836307 
0.3253181484131872 
0.4108439404993436 
0.1467270475730401 
0.08888912038599042 
0.01983169413098932 
0.21382578535295 
-0.05221055698293398 
-0.1087194118381875 
-0.04110042803630542 
0.168611687685308 
0.2995877980353774 
-0.7737459116424649 
-0.5480840764514884 
0.03519153428048927 
0.1725592635803489 
0.4251169855578426 
-0.4583120863977647 
0.1748293931495774 
0.1459706303828468 
-0.05497699055901658 
0.1271590848337775 
0.6849048050321296 
0.5304434794064909 
0.6470560376443983 
-0.149873565085087 
0.005820534878655959 
-0.6010679678051574 
0.2470789609339534 
-0.3453028907753841 
-0.4015156234274661 
-0.3495776286845384 
0.5834966945951253 
-0.2027117059915635 
0.1204746564883974 
-0.2326969900002618 
-0.5217096907014263 
-0.04921201677625565 
-0.03213549043079427 
-0.0510706183285449 
-0.2262969712104698 
-0.6507429799927761 
0.03363568673181903 
0.2202377357927429 
0.361883392425534 
0.05369358181118131 
-0.02074020710658886 
0.7396351524200844 
-0.0220010841758949 
0.1039102306461864 
-0.02431849142531956 
-0.2597520470877789 
-0.1106882950839896 
0.1277707353257455 
-0.01491720615137772 
-0.1922295194637591 
-0.1763425963562716 
-0.05112560416369144 
-0.5545851556158463 
0.1314558521123606 
0.02034511289000329 
0.4441299889013479 
-0.3010237014277205 
0.892509914085815 
0.3403687338851363 
0.06458582544296293 
-0.3119118860129638 
0.008979835979177219 
-0.2596262698962326 
0.661993155293239 
-0.0008757144824883383 
1.201112336360622 
-0.1942443088600752 
0.1787466341013771 
-1.37707006639041 
-0.07445520055108493 
-0.445567537592292 
0.650127425175277 
0.2656266666190805 
0.3804354423479241 
0.5923102967997456 
0.1272890265648378 
0.3702433648770607 
0.07125943537972682 
0.1864203912649221 
-0.003362380408007834 
0.03751454802154815 
0.1317585526137145 
0.1695598696085371 
0.1317585526137145 
-0.3259376044076587 
-0.03143515279099028 
-0.5552303910232758 
0.03376610038438811 
-0.9456698309085816 
0.1646431838061889 
-0.2520265576573094 
-0.22659794195448 
0.4164191541451663 
-0.5266918827640479 
-0.008353943599206576 
-0.28437800563474 
-0.1813944412605595 
0.1939672180427525 
-0.0268179448014468 
-0.3778622061798212 
0.2375265637364335 
0.1162424576423983 
0.4118082019274589 
-0.02864293747146164 
0 
-0.05064340926903438 
0.422859295699548 
-0.2892885358791757 
0.3152059252183698 
0.4354026987819607 
-0.4008758883014842 
0.1418471605106455 
0.2451855820127428 
0.2325883378344529 
0.02313486517534728 
0.1214137164320792 
0.1243756328297311 
0.1450767188522691 
0.2932671598449206 
-0.4542250785200967 
-0.158636372770196 
0.06421531101664954 
0.1077479481587928 
-0.2998339159616163 
0.2635282358010037 
0.6700251259285147 
0.2135547334579384 
-0.3246417088643886 
-0.02980349018746588 
-0.05780612998098672 
0.1731490651280104 
0.2926658836511967 
0.6526626507448615 
-1.023278238277109 
0.4277363796437232 
-0.4565919633272256 
-0.3170657600153393 
-0.05608393984250196 
0.4809559602508171 
0.9122275607790808 
-0.05774023962107188 
0.08524617905271852 
0.09361967742653859 
0.531836967779457 
0.4716682287995735 
0.765364618884015 
-0.03194003267804977 
-0.2537987519495554 
0.7057666623596547 
-0.02984756512245222 
0.2509151608876185 
0.6401994289263911 
-0.3883211826592515 
0.1918730931682107 
0.3466075120534729 
-0.5158300796777178 
0.1020264304305382 
0.03334902143100466 
-0.2498395958435296 
0.3315662761085267 
-0.3553195874750902 
0.211306563814044 
-0.9044500786520697 
-0.01347292508010056 
0.3238309710233883 
-0.2603454197726151 
-0.8347870766647495 
0.1314558521123606 
-0.7703767754776889 
0.1786289129399569 
-0.1947035390253689 
-0.3880662054527079 
-0.2478306445124416 
0.9199806282079652 
-0.05457765033717141 
-0.5340767449665709 
-0.5704198272673073 
0.3087148728260186 
0.2223779619835968 
0.7397861695484542 
-0.142863381793678 
0.0689873587304211 
0.2927917448899871 
-0.3574224000468754 
-0.0231140732517855 
-0.127369073115262 
0.5119055161661478 
0.2095915126562409 
0.1580605425023844 
0.149350871482741 
0.5245398924211574 
-0.7350994558202434 
0.2682560145615848 
-0.04294321700125264 
-0.05897611886253328 
-0.06458100962334407 
0.2239435058591119 
0.3212642815631537 
0.01799380112814905 
0.1705056276689809 
0.144453167920756 
0.1308648288005655 
-0.01719290022610067 
0.3887514752064057 
0.1401048017549926 
0.1609089272488781 
0.191605149505684 
0.06499413734848035 
-0.06517182824735264 
-0.2131405011152078 
0.6825106148923503 
-0.08090483685913048 
-0.0007169795569538614 
-0.04450939537678059 
0.003241175173594123 
1.294304989439565 
0.4760493912183042 
-0.03351194951447519 
0.09363303424919145 
-0.8617303059657676 
-0.005198869907775941 
0.220971913570656 
-0.09230240713425628 
0.3291293740701379 
-0.0877548600703469 
0.4136662014405499 
0.2487087790000798 
0.1340276133154672 
-0.3045582255585647 
0.2034254700095469 
0.3590890768094251 
-0.3679292633800704 
-0.01800840993801133 
0.4493059277499444 
0.2246529638749723 
0.2080387206633537 
0.3784676430136609 
0.2006083257941633 
0.1947341353286748 
-0.5838690300530035 
-0.3125800325767937 
-0.7921159926448146 
0.1449329872671968 
0 
-0.107109101813425 
-0.02739593728923623 
-0.2986217881675316 
-0.182093534332955 
0.06424719624033332 
0.196819729595747 
0.0810242299031859 
0.9722112032021867 
-0.563871735480303 
-0.463387889265336 
0.1123312384999329 
0.1195221988511177 
0.4541206996524808 
0.03201867729053718 
-0.2912510788646988 
-0.1950131299022206 
0.2482064967604323 
0.02688775872163791 
-0.1486995062101019 
-0.9373691848516824 
-0.1559210243340768 
0.7379370459689016 
-0.3249770905312291 
0.4090177659671586 
0.1277833658401193 
0.1145693629200545 
-0.5226142046562774 
0.09434849394372186 
-0.2909817414850702 
0.5151146252162159 
0.1481725673132609 
-0.01044337927491288 
-0.3634702903236781 
-0.2019375754553916 
0.1686992674442683 
-0.3553949031036606 
0.4005143086124541 
0.08291394281789997 
-0.4897385026496936 
0.490195608658824 
0.271972378638382 
0.4034202314592604 
-0.7967435678234099 
-0.3831066724362467 
0.02252719723413246 
0.3402196067196905 
0.006192721898777152 
-0.1658436551394013 
-0.3816493324512258 
-0.1998863869532883 
-0.01271513938085588 
-0.01037852398949249 
-0.3440280325524884 
0.1970643684000894 
-0.1869556279841685 
-0.5285837237519181 
-0.05085425730528945 
-0.1524984524137194 
0.4553815035461609 
0.8620095371967926 
-0.3866705402145829 
-0.7136928638017122 
-0.1506330663360165 
0.3003869687163961 
0.1828664721630718 
-0.3423347960565419 
-0.09720202552726653 
-0.004785286749156951 
0.02220875290148762 
0.1398816950232624 
0.3749632208712855 
-0.3603337171388662 
8.673617379884035e-19 
-0.354459960508719 
0.2499385422620379 
0.2029374531610465 
0.3724493157189484 
0.2368044929212707 
-0.03212792496317549 
-0.5749661909325704 
0.3094090020281471 
0.007500598393094565 
0.1564892719447979 
0.4761918714133034 
-0.4869140925406993 
0.4977025605788011 
-0.4822543543336412 
0.04061166692853988 
0.867717558901927 
0.3691848010518859 
0.1071759753472045 
-0.1299281593804527 
-0.4312850827033769 
-0.3264647670169936 
-0.1335019527354213 
0.2479728529751423 
0.3444756988927793 
0.05768009951129086 
-0.5322775890603182 
-0.01224609623383229 
0.3336325362844961 
0.3966617793130417 
0.5719952678608367 
0.2021875622920208 
0.09627716590220961 
0.1100097520774039 
0.01073864985252767 
-0.06378355012757952 
-0.1645012563450999 
-0.02929055055569678 
0.4049454318953642 
-1.211505978417629 
0.591218196073775 
0.06541879444430135 
-0.346062515680917 
0.04297537454455237 
-0.3222824934933775 
0.3112131870942098 
0.1256572404583277 
0.01314065102633037 
0 
-0.001751803767199606 
0.2925649376039534 
-0.003666400737579899 
-0.344290275749404 
-0.2566073403835519 
-0.4558976282172124 
-0.05263437662403892 
0.3730669338418682 
0.1721331888760511 
-0.1391373572794919 
-0.06006135618780038 
0.005042766948627383 
0.3899444459067122 
0.04128217516727716 
-0.1469361034687966 
-0.07493905819086057 
0.07696546482018383 
-0.04940695675819579 
0.6880325315082713 
0.486132281530931 
-0.488377972372917 
-0.2203507066455089 
-0.2423532921942933 
-0.203939701303085 
-0.05800441833801349 
-0.1763241133409982 
0.2861606260082273 
0.3838794221844412 
0 
-0.1421332149292203 
0.5156284641881552 
0.436176311039737 
0.2250909511772998 
0.3925787686055945 
-0.08342177896443186 
-0.3515146837335801 
0.004999900978928213 
-0.5784082056730385 
-0.1127105343278915 
0.009630765854583601 
0.02523732750082407 
0.06272843225180703 
0.008255088843474501 
0.5592177088547149 
0.4440327401165399 
-0.5906306945879864 
0.06278306647818709 
-0.1589705771866135 
0.1800352912908904 
0.09455498496296705 
0 
-0.2513878663184103 
-0.00221054344710941 
-0.7109707884433736 
-0.2656556134100796 
0.01791511213444387 
-0.510292910337055 
-0.2865865463958247 
0.5311287772711748 
0.2079132721035347 
0.6289513990085294 
0.3445739982169237 
0.2940171862813251 
0.1272242995371074 
0.4612056201387875 
-0.3069599969044409 
-0.08689890679251008 
-0.3154651584237415 
-0.2174381036841743 
0.1504786472944921 
0.2010011991791608 
0.3177900034911572 
0.04752490298395375 
0.03219240136437032 
-0.1734432482985484 
-0.2772795998576831 
0.5863760221305068 
0 
0.4488268715810466 
-0.27060750617653 
-0.4855201142963373 
0.1864488612696979 
0.5154829816170018 
-0.1360471123855635 
-0.01031393470313195 
0.5134759166453363 
-0.2689568270846059 
-0.2173149227286673 
0.06481245675059411 
-0.5089631014369862 
-0.1193429125875342 
0.1864002599396419 
0.01220401307257998 
-0.6063796034644507 
-0.4300783954109804 
0.2887659674605395 
0.2921963866134442 
0 
-0.01610468889691834 
-0.0618894519006258 
0.07141570185623976 
0.165853737904657 
0.07211187604437018 
-0.01762531628094997 
-0.130794502583282 
0.3319106349293095 
0.5465502791199637 
-0.6376251162524711 
-0.3660902715058857 
-0.02259818157113408 
-0.2651562698432672 
0.7967832741812824 
-0.01953238809993645 
-0.4883220198164485 
-0.1014304014975498 
0.5711346313202363 
0.03578193056871873 
0.3989632093474406 
0.02532516514847704 
0.3212632775610383 
0.6243833506735527 
0.1538502336962099 
0.3515827697452016 
0.05166699173424687 
-0.6531891047516437 
0.2611254475133606 
-0.07271107960308762 
0.1971667270202378 
0.4179714547686516 
0 
0.430009562253898 
-0.3243099802976284 
0.09295342453271742 
-0.3264002758494054 
-0.09313988363845255 
-0.18758737885352 
-0.4243935755240357 
0 
-0.1192118990404303 
-0.2072515453839797 
0.02769122190351725 
0 
0.3154301640321777 
0.4382659969237327 
-0.0651470760888047 
-0.6959157852881637 
-0.01087852654213059 
-0.05671755112824559 
1.045926377739558 
0.5315421138525922 
0.05276014341020211 
-0.03152875610493899 
-0.2896360156459384 
-0.2720860719355588 
0.4183997450450226 
0.001245519831689395 
-0.04920919661799988 
0.3357955587892844 
0.05864853491373218 
0.1050561171604993 
0.1183320987481996 
0.01944490956795226 
-0.2505426586585306 
-0.1780156990302397 
-0.12279050577214 
-0.1117666998769191 
0 
-0.1453792566194928 
-0.2534390753970209 
0.164660517141942 
-0.1623470062378805 
0.8912244047406067 
0.6643344065303846 
0.1126452946884631 
0.1556209679093655 
-0.1504466091304437 
-0.09154907051036543 
0 
0.1318839531512325 
0 
0.005943798713506306 
0.05564711330710055 
0 
0.4044159915976719 
0.4847620880141534 
0.755537829394577 
-0.05033688023543959 
-0.03020308537254268 
0.2749106846941451 
0.1842081046669642 
-6.938893903907228e-18 
0.2203804108194526 
-0.005766597092855382 
0.1235958125292555 
0.0647525982473721 
0.0872299209626211 
-0.2522945439910533 
0.490856407171748 
0.3507364639044612 
-0.0009069114952987474 
0.1988342467027322 
0.3174633219600503 
0.2881421480488087 
0.06852877499356959 
-1.237830382467517 
0.3581904746562937 
0.1813340382118268 
-0.6219998741577689 
-0.4410067373505229 
6.938893903907228e-18 
0.1343730336662408 
0.137577429259399 
-0.1435560725517044 
0.4520641460086791 
-0.3254332939401526 
0.4052376308803315 
0.01568005632804664 
0.1635026188968213 
0.1418180596520092 
0.05048569122880749 
-0.03151845440192339 
-0.1106223648237755 
-0.0598108570904768 
0.2994849253743526 
-0.0879541869419489 
0.7857686328255808 
-0.01529888753348709 
-0.1972383721252736 
-0.06637629091352105 
0.2907312711816559 
0.3934218716401732 
-0.1863712703071017 
-0.07917020805842637 
-0.121999362523681 
-0.1922500471082893 
0.1220332524803173 
-0.1428933803475629 
0.2178440328607529 
-0.1991473466807155 
0.6734116305105827 
0.2908284735417388 
6.938893903907228e-18 
0.05719538661661453 
0.1070807186151479 
0.1083746548241584 
-0.011563791942887 
0.05090524214943223 
0.08005635319875884 
0.4258975650479328 
0.1468785850960202 
0.3093314728284512 
-0.4199411655966152 
-0.2320310726030206 
0.1939172665087334 
-0.1162168319368334 
0.00551658994387124 
-0.09092254405161213 
0.3404659313598202 
-0.8743700629325046 
0.2308651999514197 
-0.3748478401261549 
0.07512406286937885 
0.0984316454152596 
-0.417792237084876 
0.0871044407967458 
-0.02774995197829962 
0.4318425322906034 
-0.054082327106956 
-0.1141219509081154 
-0.2398370419831642 
1.187828201447436 
0.2909551572617753 
0.0121493448778138 
0.2744488133639574 
-0.02096026055537579 
0.4985747682037018 
0.4085396074797958 
0.1864855866954897 
0.5396289587391667 
-0.3542650136828265 
0.003178368833919644 
0.04302198003464953 
-0.006170353055257176 
0.2457213135401316 
0.1201305496759736 
0.6560741745096337 
-0.2978618185599946 
-0.6200993078211631 
-0.8752913892499807 
0.9060920632794173 
-0.03216487967527343 
-0.5894272786957043 
0.06693312843643227 
0.3742979408985365 
0.4226412184980324 
0.1740615068355174 
0.3758701100096922 
-0.2475857791740943 
0.4026587404198698 
0.03825808885530166 
0.604469458038979 
-0.1027944680435109 
0.5611995971659249 
0.2775452601444549 
-0.6987564327744243 
0.2367612455569083 
0.4959846518325169 
0.1118759529410383 
0.295589106600541 
3.469446951953614e-18 
0 
0.2379596937658133 
0 
0.0158532584924126 
0.3031551675063483 
0.3670223779625583 
0.08412191245558806 
0 
0.1776272246800862 
-0.03323061728346208 
-0.04465901371606204 
-0.01970860477601549 
-0.7845336970182726 
-0.6105186778499697 
0.2875773055350668 
0.1242253528176249 
0.2881798491403781 
0.4820116843748035 
0.7001569036825384 
0.1711382038881334 
0.5012519431133129 
0.2266524192183597 
0.2892655795252899 
0.2219921410767038 
0.3414934531935548 
-0.3231031378103691 
0.4788913750144488 
0.06089339498865146 
0.0757557780098157 
-0.3981440543081699 
-0.3170198929124497 
-0.027998913774826 
0.09993983963957366 
-0.06955916884686415 
0.09876874877267762 
-0.01105200589442881 
-0.2394055198378163 
0.1554722721779836 
-0.03373635563481563 
0.05245744618876527 
0.2157062382015252 
0.138460798255409 
0.8313588828389126 
-0.03823573402700674 
0.01221322470973588 
-0.2691956836471092 
-0.4875284827862003 
-0.391082900315481 
-0.4767705930083972 
-0.1350699043857989 
0.1075213582476483 
0.2048160702423366 
-0.1048828901090004 
0.5203867160659621 
-0.1778895978186484 
0.2077528134228744 
0.1513360714296203 
-0.8123161902432035 
0.02537201106680354 
-0.1019107777244274 
0.564376563767602 
0.2608252606082099 
0.068294981559316 
0.4302013573994015 
0.1352295981639467 
0.003990278411554532 
-0.4555475755406799 
0.07546706385682334 
0.1399202809361651 
-0.5100239670208412 
0.7757100320917441 
0 
-0.1673336853876558 
-0.5354665186833774 
0.08779802903592039 
0.007263852618037496 
0.1240304574600931 
0.05041590550002346 
0.382712797324716 
0.2800806860304391 
0.1005600873479476 
0.05178065860664933 
0.2253761384973841 
0.02655482535191801 
-0.2592778317109768 
0.373710977030727 
0.05101671768683128 
0 
0.1165414542298817 
0.1058651308217176 
-0.07564067147198154 
0.04700627509253873 
-0.1010938508660043 
-1.09787871651814 
0.13641334970446 
-0.7532688475718482 
-0.08266905011074853 
-0.3298504166534962 
0.07344554247278852 
0.3546558628514921 
0.03201704031313365 
-0.1835596449907867 
-0.03322478599859716 
-0.06230117906479725 
-0.6157763059204937 
-0.07323474648334621 
-0.4642125495728148 
0.9159327011314025 
-0.2970158864590395 
-0.4149181402172105 
0.02291537412439986 
-0.2118638820985037 
-0.005859884752149267 
-0.4812088778780731 
-0.4751850062979903 
0.09967476915440865 
0.295246949247591 
0.3157696533305673 
0.09525507277731642 
-0.3709397669727813 
0.3907070224957439 
-0.2198513883433648 
0.01751483430144362 
-0.0251814501879822 
-0.2049193215741659 
-0.2646352059875686 
-0.218336767105454 
-0.1355447867041847 
-0.2033291752237387 
-0.1596647366580633 
-0.300150110532324 
-0.3503730986189236 
-0.2025185352145388 
-0.2179993501571796 
-0.0608453616714751 
0.2143308315523073 
0.2350677636324912 
-0.7751399381012695 
-0.4021985135128014 
-0.02012641738568667 
0.2807282935359888 
0.6842343083507136 
0.1034377637299402 
0.3053544545490454 
0.3360029613256559 
0.3206323338023864 
0.5928649046477515 
-0.1259679739787349 
-0.1118669982593837 
0.05901541414273821 
-0.9688063928773617 
0.3112157795387994 
0.03599501054392064 
0.04457113764777435 
-0.1138929633699311 
-0.1445109740647831 
0.8532559494759164 
0.5612997966347103 
-0.6598080482187696 
-0.1364234483342134 
-0.2218287451230948 
-0.2601283189927486 
-0.0238159402785477 
-0.09584348068021011 
-0.05659746218075357 
-0.5273395165469069 
0.2543145200539282 
-0.4059224589101932 
-0.232732529137529 
0.6954175030754132 
-0.121303807173409 
0.04884491498088959 
0.008850632800762093 
-0.1816107160466328 
0.3487658141085381 
0.3604131269384839 
-0.3965807327030655 
0.5521231969844442 
-0.03129306667344086 
-0.2118063565086122 
-0.05013504023461115 
-0.04102758050137763 
0 
-0.3621299547004967 
0.3904359119488259 
0.07306580758724464 
0.1402849861065516 
0.09185324059344757 
-0.0008948080930742915 
0.3694291473710014 
0.1482498564133514 
0.0009002884243265829 
-0.503451017211162 
0.05641204139325987 
0 
-0.7756725274937787 
0.1345908129823501 
0.1573321103428165 
0.09390455367023914 
0.1015387021543729 
-0.4510228427792021 
0.02816330551616988 
-0.1603848337674534 
-0.06964519417207944 
-0.2866846833401869 
-0.6131359909213796 
-0.4165719892025294 
-0.02573689805078113 
0.06382547456113045 
0.153369758866459 
0.3508914474858839 
0.8740790766401996 
0.2127599276169901 
0.392375545733545 
0.03068010580053115 
0.1028117743401732 
0.2040691583746244 
0.1330238445358543 
0.474645871624152 
0.02930389759494333 
0.1819495259521876 
0.1489087893137336 
0 
0.2563682812522163 
0.08349708037522593 
-0.7057100294669462 
0.2802517271194549 
-0.06020281622686735 
-0.3548323768073301 
-0.2303376638581163 
-0.1004056964786551 
-0.3913569656868141 
-0.3474385958843714 
0.08280198061348064 
0.2839281180710425 
0.7665699959790184 
-0.5450556919919305 
0 
-0.1858296348545358 
0.05428254500422387 
0.2126015907807907 
0.255933748286394 
-0.5432407829516002 
0.1104658215695108 
-0.1175082258367351 
0.1280952180292519 
-0.2932628306240849 
-0.760769328906913 
-0.6121205624276019 
-0.2931661752830388 
0.1054475831194953 
-0.1848360816329477 
-0.2582127447585569 
0.4789455095655624 
0.007238090177499868 
-0.207217143475376 
-0.4370127895164311 
0.08355965449014456 
-0.009591311718628957 
-0.115914412998077 
0.1116195951899118 
-0.2589803823054914 
0.4077050662013242 
-0.2475387430102376 
0.7034727672497826 
0.4240133127871571 
-0.3469572117425661 
-0.05258401916695953 
0.2147936314039871 
-0.02858472008761773 
-0.112856485862617 
-0.1612694661904377 
-0.1043880585827096 
-0.04272733845167498 
0.02198422893310511 
-0.005125969412090261 
-0.4593075401787705 
0.04517870738514774 
0.01571984266753942 
0.09133337525344491 
-0.14793967566822 
0.2532284717986739 
0.1521788395219096 
0.4251131013374278 
-2.645453300864631e-17 
0.03749236905363772 
0.5412668207372728 
0.4978785047338122 
0.3644177662256201 
0.2018492260449555 
0 
0.01089172077913905 
0.1777965372462953 
-0.008675367086342032 
0.1217002194644515 
-0.1144536726125101 
-0.2299196298591915 
0 
-0.3914993054214624 
0.3171939835120149 
-0.172210982577561 
-0.08342121712328286 
-0.2193534645337323 
-0.4358369708975989 
-0.07655737547628071 
0.7666387877122449 
0.3536072835221456 
-0.01815672963554192 
0.2612935238250754 
0.1325148387625554 
0.06661079880621518 
-0.1814119617461326 
0.1357521492197648 
0.5529381384043004 
0.05165521653941581 
-0.2068904211818585 
0.01126749771594909 
0.2484860701673275 
0.1529849770406151 
-0.5503076092291199 
-0.09327941598043382 
0 
-0.008711565857757026 
0.2184056367070228 
-0.2581372220455655 
-0.2358070823191929 
-0.1350304432962799 
-0.01818279371992016 
-0.2612647891026123 
-0.002769908053696059 
0.5688691628872462 
0.4035566975095321 
-0.1931096674547495 
0.004279264824327243 
0.08570644346596618 
0.5794932407172736 
-0.5278884786378431 
-0.2034748067437123 
0 
0.2566982022079513 
-0.03402606147812823 
0.2926487277939903 
0.06377798102340916 
-0.2318067242846134 
-0.03669908766453028 
0.09102109268587444 
0.4981302677793076 
-0.03758068742218788 
0.1655976154128901 
0 
-0.3855299978470725 
-0.3909642210663781 
0.05079454336936307 
0.5641373205117274 
0.06141713165211717 
0.0250272681072684 
0.01282787648026464 
0.1792405022193129 
0.2393639378819282 
0.004798822597422875 
0.1911075804693462 
0.01456657786921449 
0.02758836868211072 
-0.4285515099165581 
-0.4450572613627084 
-0.4984972508911608 
-0.01763328801047388 
-0.3389295804882953 
-0.03365533562555034 
-0.1983736066952727 
-0.5790691544897385 
-0.104882152835619 
0.1066640541533101 
0.08881454790182731 
0.45610004899596 
0.06296274559160034 
0.2871453757126834 
0.9731032218144783 
0.2115898037457284 
0.430927784763704 
-0.4453910072848002 
-0.5387515595516635 
0.3217469022448151 
-0.3119966526028975 
-0.4758501873252376 
-0.02891997514551572 
-0.1777871509971369 
0 
0 
-0.2014211770143442 
-0.04966119821847659 
-0.2901344652699635 
0 
-0.299436733254727 
-0.175371016523178 
0.2157797320053653 
-0.1156456520159544 
-0.2087423205124752 
-0.5742273196751339 
-0.3368638858788532 
-0.0521444146973088 
-0.9415275939465932 
0.05927206256103743 
0 
0.4805802179970229 
0 
-0.8990973773566405 
-0.06133444098097869 
0.2426713567455908 
-0.2954670300956075 
0.6079758923618779 
0.1994687013595407 
0.03929181024771312 
-0.240553755359335 
0.0606034689731806 
0 
-0.02691852201586679 
0.1600049709694505 
-0.08086160295339218 
0 
0 
0.09561320049209567 
-0.07419664310768258 
-0.07817796025808439 
-0.6753709909311848 
0.2704424435001068 
0.3541774999378005 
0.3195678605547564 
0.09507208189951877 
0.1901441637990374 
0.09507208189951877 
0.09507208189951877 
0.09507208189951877 
0.1633720017430123 
-0.7867941420885403 
0.1275549145814767 
0.2628661804311913 
0.2957616305660125 
-0.3612990021628716 
-0.6263379498864716 
-0.2315241349672952 
-0.07049158662434667 
0.5351392933836486 
-0.0509648477578611 
-0.2254407765910451 
0.01020600251390093 
-0.08217273792579136 
-0.262079714815639 
-0.03418745692618717 
-0.1633863520131937 
-0.002522817881104744 
0.04671515079312164 
0.09467167600120693 
0.2980655244390524 
0.4549313465811717 
-0.06875921018483101 
0.04163701982039585 
-0.2677742286377915 
0.3817562453462383 
0.204569529663874 
0.6897707161312493 
0.1035306193605017 
0 
0.08600675680371617 
0 
0.3339676042567665 
0.04087390659612985 
0.1537767543463855 
0 
0.1433137693808811 
-0.00785457572064348 
0 
0.3585332180034653 
0.08957607487254138 
-0.1265987679953658 
0.01945756030276764 
-0.5299127719619743 
-0.2386565565215474 
-0.01770186716993575 
-0.04768599062348568 
0.2481265281089761 
-0.1457034899482235 
-0.0009346997410862309 
-0.4136127233387485 
-0.3951154635137206 
0.0175141317741123 
0 
-0.142377875209403 
-0.2801800500378707 
-0.3803962997636125 
0.1994555611050549 
-0.1749675709887946 
0.02901326514442952 
0.6554117630210321 
0.3612300697754647 
0.2595295112460654 
0.1194264042884809 
-0.7118154318930617 
-0.05965539954357819 
0.1944430419224026 
-1.024848624246238 
0.4203143753548851 
0.3402643857069296 
0.2050769084828389 
-0.06731058535426368 
0.9708695264716054 
0.4903220490848525 
0.4880234532961467 
-0.04557977085542425 
0.126485438769179 
0.3265293192006826 
-0.1997881710939388 
0 
-0.01547779908402585 
-0.09656014425582496 
0.06647971011229939 
-0.3884986618800004 
-0.02825703251428755 
-0.3334389037586453 
-0.4310551213346931 
0.3370495713847247 
0.5438422048411515 
-0.1824280523412584 
0.3500627131351688 
-0.4007571560789567 
-0.00775309809207658 
0.03123325116504341 
0.02999431276069094 
0.2552684055078885 
0.636295321583523 
0.4073185815407261 
0.5698319139629429 
0.2981369164733197 
0 
-0.06673639221674961 
-0.08770361957977563 
-0.4065266204356026 
-0.003247755727711808 
-0.1771223938752083 
-0.4913197023154985 
0.6144796533027254 
0.07298508159316242 
0.323586131787796 
0.2506667351888875 
0.09250624978086665 
-0.3857613855446743 
-0.5053921782549647 
0.00137079091136223 
0.1088009370929117 
0.1332842623337936 
0.3052887107988565 
0.8530378309775968 
-0.01709606567780866 
0 
0.5530013364581587 
0.521873084914845 
0.04828647078831073 
0 
-0.0258962579859746 
0.7140402362882995 
0.06531021702963768 
-3.469446951953614e-18 
0.532850965996847 
-0.02283393357431516 
0.09359466214351156 
0.1212680783262188 
0.09484816703576722 
0.5799154312823259 
0.01808441860274504 
0.9114659143954978 
-0.9995922367317988 
-0.1696640870035817 
0.6679168677174904 
-0.2369301077937931 
-0.6806076090601911 
-1.090656598544683 
-0.2301932556991424 
0.8523486614510234 
0.09802012937619514 
0.02555289117833685 
-0.007847794711772273 
-0.220548432813181 
-0.5121771223495796 
-0.1482962984367314 
-0.001673614345104143 
-0.8178487849546625 
-0.1330953096033877 
-0.2147002319802293 
0.04764570610053514 
-0.08436094082987011 
-0.09603046462533946 
-0.8052609281634036 
0.4346041274826765 
0.08298260925068726 
0.06299890595156904 
0.2290271955976229 
0.1109087992845808 
-0.1921778661767853 
-0.008606416381994145 
0.1955230275196075 
0.1664575893147519 
-0.1176188986367702 
0.09300271276944737 
0.02714924424580157 
0.3610188752561898 
0.2215770513287806 
0.07094902823623142 
0.5061643967446018 
0.2982594449048195 
-0.2171361253900873 
-0.03065637095393146 
0.2807433819935142 
0.03201751039882247 
-0.2132910285670667 
-0.1756170853380609 
-0.02648717387488863 
-0.1570830860714685 
-0.4439078764655675 
-0.00254437604362513 
0.1849737468187475 
-0.3691066608413422 
-0.5654769387196242 
-0.4406743928690375 
0.2573118416128958 
0.3015037897500146 
0.09657923184359808 
-0.101024901480382 
0.01151599885646171 
0 
0.118410538156748 
0.007573772040160401 
-0.2620305702084527 
-0.08664991543705459 
0.1157189765109828 
0.002097498777191107 
-0.007466399508008241 
-0.09832456294952387 
-0.04410828190766266 
0.1794604837926638 
0 
-0.09129758225057964 
-0.3859841935009108 
-0.2454978991289049 
0.1541848745508421 
0 
0.03356784240379024 
0.9351331477690065 
0.01822161668133157 
0.2260805352842421 
0.2601760275113142 
0.1664179742554264 
-0.008185817019241908 
0.2914568471115725 
0.2780174511706612 
-0.3361487529435723 
-0.5560663078394634 
0.1774383448460757 
0.1359564069230511 
-0.6509732656039936 
-0.7171411520092256 
0.1758288488417466 
0.008641209088072192 
0.02701420992419597 
0.1740924092592776 
0.7639451661017229 
-0.01346615662582039 
0 
0.1838460777384269 
0.07256433873099369 
0.3561473120481597 
0 
0.20252211458611 
0.07119768523708091 
0.2929856355860145 
-0.2316672326593772 
-0.447366078695156 
0.2368530808914671 
-0.425203111324215 
-0.2649935186270874 
-0.00425167838276021 
0.2481883477691668 
0.1440147963023382 
0.418628018349638 
-0.4158738111890983 
-0.332161610325877 
-0.1475974350977584 
-0.0296405095611732 
-0.3666969442233759 
0 
-0.1613072440408096 
-0.06592407153518667 
-0.3816942783839994 
0.6125174870676522 
0.2627938314923349 
0.408005376444825 
0.2470739411806012 
0.2003952559156783 
0.4878828751337858 
0.1663494427563708 
-0.1810008104801001 
0.1767924366754307 
0.3401860021904983 
-0.006018854999158668 
0 
0 
-0.138590821276675 
0.3401449999156503 
0.0033218425956833 
4.336808689942018e-19 
0 
-0.2351785298648065 
-0.2249604185705358 
-0.6136868541893757 
0.01756670861027909 
0 
-0.02701182184537081 
0.1794196768850216 
0.2154208786206121 
-0.1832229350187721 
0.1994820517419868 
-1.042221453953802 
0.6313457055332445 
-0.007090116765624191 
0.2538792825080284 
0.01522360475665571 
0.355090045479731 
0.0734464656188414 
0.4529400318765052 
-0.08819929740888111 
0.38012740592466 
0.04124903653131493 
0.5604282890491185 
0.1402385519155945 
0.001366075455718316 
-0.08568163935166553 
0.1142346255798341 
0.1942969577688712 
-0.1932757896211501 
0.3179928131125663 
0.4466062766736634 
-0.08956682165194253 
-0.04081377240296925 
-0.1701203205253597 
0 
-0.09372858298723076 
-0.0113541276412358 
-0.2310733491834943 
0.02611326617995184 
-0.256418229083147 
0.0990534669262237 
-0.1536757457632061 
0.1031745570488901 
0.1623151970182991 
0.086163743266156 
-0.3715505711502068 
-0.1419390815048399 
-0.08364154189493403 
0.1145195224829218 
0.1279848759862977 
-0.2111604784241444 
0.2041170088389489 
0.4339174952318983 
0.2419846405299693 
0.3870309550192159 
0.09189283572529303 
0.4418050534342644 
0.02860621690955682 
0.3179050918313998 
0.4528312143174753 
0 
0.05831520577425776 
0.4293605240892291 
-0.01060202483171725 
0.1737804582512274 
0.2657543842851953 
0.1063479253091442 
0 
-0.7276948050922059 
-0.0624663592719077 
-0.3247857037639101 
0.00748054751678924 
-0.09389995501306297 
0 
-0.4189932886391315 
0.4754904701288575 
0.2330614435406831 
-0.06867056087872798 
0.4047667902145646 
0.5270174884522422 
0.5803943245240331 
-0.5954430204412432 
-0.2923284263117905 
-0.5639454944255387 
0.232690679185378 
0.4537297116822668 
-0.2604045565060542 
-0.2973204875797014 
-0.4289784514022396 
0.08954976033317091 
0.01069994606608638 
0.189040372224459 
-0.3988420567679976 
0.2679058162438712 
0.003055857323595138 
-0.03029675596466779 
0.07533340928486026 
0.1241632409498533 
-0.1058362694160806 
-0.00624333112514066 
-0.4196092668759142 
-0.2657899805758474 
-0.1161055745021916 
-0.4347233826031655 
-0.1066337392620412 
-0.2565657302680961 
-0.2847360301284408 
-0.03645579402556422 
-0.2620349391444408 
-0.4197675908621737 
-0.1369418972802009 
-0.382628469388306 
0.2053754972659484 
0.5688523334246363 
0.4686957372923192 
0.3187176377024653 
0 
0.1190203053298741 
0.5898328484470312 
0.003767273952980746 
-0.6196010615422275 
-0.3282386317652478 
-0.3968457097593664 
-0.2599609080282637 
0.7036447320875936 
-0.3253622103466616 
0.08139111975648132 
0.2974961003475077 
0.1799939019320132 
0.03276217042263273 
-0.1080755910727072 
0.8191722197178259 
0.3730228528876542 
-0.08255574643446018 
0.09279693020130377 
0.819231903051166 
0.6331862897547719 
-0.3758150712884028 
0.8934676188997847 
-0.01921628629107383 
0 
-0.2928320109370631 
-0.04668339659013724 
-0.01487785896339912 
-0.190051306664612 
0.01824099566645315 
-0.2039017083223706 
-0.1818649617003296 
0.3049267461314256 
0.104815756070426 
0.1528249732007853 
-0.4684197754999624 
0.347267362158571 
0.3320147745697246 
-0.08259915163948452 
-0.08259915163948452 
-0.2888889974730551 
0.2823033833218585 
-0.09090617660103599 
-0.05756248517916929 
0.1115807553759682 
0.0878497622456945 
-0.2383042680344911 
0.09443758933294218 
-0.116565115753078 
0.05556135482716917 
0.1891413872739575 
-0.3594724932278222 
0.1552422294962952 
-0.3364167652545838 
0.1049965887257813 
-0.1712391614330236 
-0.164288139886431 
-0.1164274451130689 
-0.2621728246319698 
-0.3465083920853176 
-0.7259591745742103 
-0.005373200008211308 
0.1185418740379989 
0 
-0.004702764689639707 
0.1457071982195803 
-0.01725190026778738 
0.02083794235126869 
0.1853920120275871 
0.4338437851968079 
0.3554943253521639 
0.02217700407702563 
1.083408395034051 
0.2478621133389583 
-0.001873205532398837 
-0.3455772904430212 
-0.2009662939864563 
0.01034683742720891 
-0.3121984211468895 
0.00373097207263099 
-0.4752798653301298 
0.4712047744775291 
0.07896728126147616 
-0.2041272614904064 
-0.4926804350401546 
-0.1567647403784237 
-0.5548965302369329 
0.6290183172418694 
-0.0265937584113329 
-0.2159039996559249 
-0.2650932465895005 
-0.3764877058245623 
0.002882382996043645 
-0.1238942504215396 
-0.1521821630349857 
0.1416741685834912 
-0.2589802951328313 
-0.2501602028508387 
0 
0.1316185928965994 
0.04616458526917587 
-0.1762319081834171 
-0.5091837115651459 
0.3319419288034058 
-0.2144842008889534 
-0.5360693507667658 
0.1325007004107409 
0.1422944565399151 
-0.564733596572834 
0.03564882015607322 
0.002797806910362305 
0.2550333873456171 
0.124374912143127 
0.2331607620299785 
-0.1255263597996066 
-0.2013094731642589 
-0.1856148506792938 
0.2496571242908809 
-0.0313851399716474 
0.005879441551094419 
0.09872147171291114 
0.04153342562292726 
-0.2725261766444553 
-0.3754120672994521 
0.4414153943590828 
-0.4742782077318244 
0 
-0.2596261742522348 
-0.09743371253929832 
-0.4659953257308204 
-0.09709598597388845 
-0.2698648902934696 
-0.1536023061256113 
-0.1020800145176326 
-0.1440749369742703 
0.01898118024957863 
-0.3448370114504235 
-0.1934675067317706 
-0.3018267937928459 
0.01839697562166682 
0.2980567683001767 
0.1123028187127892 
0.9580411306390291 
-0.0115985331571021 
0.02874267955661744 
0.0125669947769214 
-0.4583432242204138 
0.580464636312879 
0 
-0.3114691369069225 
0.359060115912673 
0.3253327780485927 
0.1077136412367407 
0.2253162442109553 
-0.1591962316076644 
-0.05237876897755363 
-0.06546346138036684 
-0.1354599568140873 
-0.2131786759106939 
-0.01860033491016663 
0.1678580875240844 
0.4187102101679673 
0.4831298235716536 
0.01531061695710706 
-0.481205679492355 
-0.08015504528847026 
-0.2894759942019784 
-0.5725528204737391 
-0.01044168004024318 
0 
-0.0344295716303434 
-0.09776771831435944 
-0.2348183973246707 
-0.2438194045341079 
-0.1413783138827718 
-0.3825539137489187 
-0.02226987342711961 
-0.2790696546767454 
0.07284255764382434 
-0.5375596531825753 
0.1275479151122682 
0.551940474662965 
0.281165434883491 
0.05947750954678006 
0.00455229796593938 
3.030345072096985e-17 
-0.004727749909392115 
0.3320418294191885 
-0.05079002599452696 
-0.04344927021888914 
0.1731322666792942 
0.3459785025894833 
0.05133635144933946 
0.1457467049596421 
0 
0.1464813229328674 
0.1464813229328674 
0.1464813229328674 
0.1939711534864733 
0.09165603088120515 
0.6927340916448482 
0.469474984879631 
0 
0.316680152718837 
0.2985422468342128 
0.3313410590177812 
0.1653293347725138 
0.002213624166494275 
-0.08892570006956609 
-0.2775083415683014 
-0.1382487802700625 
0.3256614394048534 
-0.388873362953325 
0.7476225365790746 
0.02026187458083795 
0 
-0.3249743664925929 
-0.41889323154688 
0.249427190758674 
0.134034452028069 
-0.2026927011094889 
-0.1485730229072094 
0.1207846756785632 
0.3083863880653572 
0.3345318089836658 
0.1420993653527894 
0.3098356210217441 
0.2717249006854748 
-0.07936766712641286 
-0.352014605260016 
-0.05195596786438824 
0 
-0.322886490503482 
-0.06717423108367822 
0.4155461431522978 
-0.2025940662249075 
-0.08295082210759282 
-0.2607039953756763 
0.1099802816682832 
0.006403285526339604 
0.08478968387176566 
0.1083100575913118 
0.06041358380062222 
0.2343349142862192 
0.06656827601414275 
0.02323577706585296 
-0.1240779474788277 
-0.1811445952173348 
-0.0186646809710109 
-0.07596440476996751 
0.2529431731000287 
0.2058597914145627 
-0.04352905202198414 
-0.1129725976232979 
-0.06204727083475919 
-0.4062068314892304 
-0.02677102415252208 
-0.08837411982127463 
0.4866824154550674 
0.07998861802210872 
0.299067467376797 
0.05547661921555726 
-0.7146469829404706 
0.4134246897176267 
-0.450489908017865 
0 
0 
-0.5626041929541056 
0.01168466981506279 
-0.002606979855194488 
-0.002606979855194488 
-0.002606979855194488 
-0.005213959710388976 
-0.8203152714788259 
0.04581715157546237 
0.2840234870325168 
0.03083636900645195 
-0.007271644849663821 
0.4788504170052666 
0 
0.3803216850773882 
0.332538551783622 
0.289286324447446 
0.4395473387706613 
0.1150471159383502 
-0.09155869452855352 
-0.004875046760378012 
0.02761262621466691 
0.3716384958288269 
0.05025109185403684 
0.6010430399827076 
0.05628069604520022 
-0.4664390890741275 
0.02614257324868003 
-0.12358761514829 
0.0841987630117674 
0.1591993635608124 
0.109720645167769 
-0.3288441459463474 
0.04823699858547167 
-0.5735100904486413 
-0.5506933495880204 
-0.01050444748510741 
-0.01050444748510741 
0 
-0.1548275145609631 
0 
-0.2925641493033697 
0.06412029976028334 
-0.6175367066418975 
0.1995310954113505 
0.116749180299681 
0.2633602316406441 
0.02414317452922876 
-0.4139024122358702 
0.1613928067211407 
0.1624412876700009 
0.2471224147970039 
0.1938629259397479 
0.03725876759168592 
0.4352377040784489 
-0.004753845941308336 
0.1459524853870193 
0.3428223088201517 
0.03719674029757209 
-0.05691793036937266 
-0.02084442545521384 
0.08824681308321788 
0 
0.1477129097307448 
0.1477129097307448 
0.4147368809446723 
0.2727939254933428 
0.2528981860897711 
0.1683672329720484 
0.1652576580979515 
0 
0.3858760371187239 
-0.3067983501379485 
0.3998319367560554 
0.19335224271916 
0.05449538479478588 
-0.114723403379634 
0 
-0.3808515296290169 
0.01550121359979928 
-0.5122836505117065 
-0.3309123487165819 
-0.1812967141295846 
-0.1713726310259447 
-0.2669550293071977 
-0.1466088589173651 
-0.06761060916832658 
0 
0 
0.0179905947605734 
-0.6621462031208356 
0.2312415161166218 
-0.425696458870135 
0.6836654945653893 
0.2799255725264558 
0.4002311486929697 
0.02974898082033142 
0.1191147293990434 
0.255857875087206 
-1.387778780781446e-17 
0.05726788530798959 
0.2370594645440331 
0.3932945083888011 
-0.0143150958390391 
-0.1215750568881216 
-0.06535038421177441 
-0.3894117757576495 
0.4697505412428424 
0.3773171566188162 
0.7386441028547059 
0.02238231911792474 
-0.07917799412302148 
-0.4361190333555992 
0.3732102439175401 
0.3675092909634723 
-0.4165516325891853 
-0.01620000597122843 
-0.1407242690726533 
0.2220410336648733 
0.1379362227112278 
0.09444920823537346 
-0.4424371795118348 
0.009416002114349696 
-0.173372489289951 
-0.6353772146113856 
0 
-0.3273127463695957 
-0.05147094597694884 
-0.0842469042239367 
-0.1019086798961316 
-0.06433582625229033 
0 
0.5298671380240753 
-0.009162531693500517 
0.06317650347167195 
0.1112694108847484 
-0.01117335559227402 
0.1211809219643429 
0 
0.7164877567281108 
0.03338990638127973 
0.02167231910664839 
0.8375821461652146 
0.4223949228538166 
0.04270451006499945 
0.0983265137375029 
0.09029651973275811 
-1.273110650730078 
-0.2118859356785691 
-0.02763666373668601 
0.005679633876423286 
0.6964878017010736 
0.3091298415609756 
0.2399764020486637 
0.2080997217524174 
0.1426634697661194 
0.1299773582726869 
0.004877675358779093 
0.3697797950447311 
0.03285262908489086 
-0.3611959868879268 
-0.1863115658400844 
-0.139246603705508 
-0.126140341976318 
-0.05799301932013561 
-0.1814260853964332 
-0.06484262653050819 
-0.37477610010354 
-1.028760826178167 
0.01062001010164135 
0.3074143450561377 
-0.04948888041804057 
-0.6960438913299832 
0.01595113479617796 
0.1289743712970575 
0.6948114224471375 
-0.05450771489761464 
-0.2468093432803579 
-0.4657197093574131 
0.1595473072161507 
0.09165039463235751 
0 
0.03055013154411916 
0.0002687554772921153 
0 
0.4224716426914095 
0 
0.1952995881288888 
0.1772635111411269 
0.06050876898104209 
0.2374064597491217 
0 
0.04300840822384783 
0.05118741802192443 
-0.03441982429415286 
0 
0.3769647093650366 
-6.938893903907228e-18 
0.3290080851485493 
0.1190455495394643 
0 
0.3067672533635448 
0.1671969508160523 
-0.009072706859880965 
0.4273076362812649 
0.3327974146501096 
-0.2010652144295074 
-0.2087874660362369 
0.4005046370294573 
0.1184978074872595 
-0.1971738217939054 
-0.02297807972186467 
-0.02297807972186467 
-0.2504144658251645 
-0.03807189699510416 
-6.938893903907228e-18 
0 
-0.2452274919373682 
-0.6572020502468399 
0.1198232561285557 
0.09975145876232293 
-0.1480000537605189 
0.1694187804567693 
-0.02310815868448441 
0.1464628969959143 
0.2204562385847875 
0.1095546360583839 
-0.06749847502389622 
0.08105526485595628 
0.04992640175941111 
0.1523552879536974 
-0.08012731941065956 
0.01954304734653199 
0.1235162348809352 
-0.01060202483171725 
0.1139509901245516 
-0.04373194206006509 
0.7476192501443795 
-0.1258331231512849 
0.0115244787950632 
0.4221131594512849 
-0.1939638458738925 
0.03057529937360117 
0.03126328577638605 
-0.4667309392602482 
-0.4027890013993642 
0.3643205485316978 
-0.3859171218994157 
-0.07955334036193017 
-0.6686604354725693 
0.2364149006406481 
0.1362941861516568 
-0.08010945516475292 
0.006229970109520741 
0.1380424065299815 
0.03185329784973294 
-0.1041624704270293 
-0.2356208589298305 
0.5043670353103488 
0.5597082316404658 
0.1400510450910441 
0.3392553018796234 
0.2524553780425552 
0.2215530474547248 
-0.04890748881033701 
0.5142674916441579 
0.04873957277705693 
-0.005955850549510414 
0.4844321403422925 
0.01271849608370323 
0 
0 
-0.01332901292162782 
0 
-0.2091866265979666 
-0.4294378460531061 
-0.2299143130279016 
0.004626412440363008 
-0.1354094121494294 
0.4360414155301879 
-0.4625898406604226 
0.2257962572410373 
0.02689816622724897 
0.6372664270051152 
-0.01605105708449491 
0.1445827446763037 
0.03364739058136962 
0.2328395340254967 
0 
0 
2.602085213965211e-18 
-0.0429959639404246 
-0.3833583698029299 
0.0948322123729621 
0.2096382235407596 
-0.4311137101545037 
0.592637817398014 
-0.02842228535750472 
0.4727413117656669 
0.604140769555611 
0.2846686564853061 
-0.01198495104596487 
0.1038767567407185 
0.1132733482134333 
0.37187735225935 
0.09562084314542946 
-0.07687629902008107 
-3.469446951953614e-18 
-0.2611229994446153 
-0.4332047196739665 
0 
3.035766082959412e-18 
-0.07517130705646274 
0 
-0.4838653287351062 
-0.1682659826410365 
-0.1826006862739148 
-0.03299095396251402 
-0.4082411779245497 
0.1041450053693442 
-0.005841005778642924 
0 
-0.8079705988334379 
-0.05436925067428877 
1.063166864658564 
0.1237084201626227 
0.1914444065568775 
-0.09005060117373088 
0.0449973000092272 
-0.05950521000612501 
-0.129150277861509 
0.07662720842928747 
0.1611554232316474 
0.4259837080439543 
0.2051634392056452 
0.4871905535800058 
0.6895185885706796 
0.09102851317165776 
0.7425532989938899 
-0.704695022702599 
-0.3023584205112786 
-0.2796612310305813 
-0.05108091569661493 
0.03073315127958106 
0 
-0.02512643875773082 
0.01303440072986021 
0.1149310091206203 
0.8201558830333268 
0.5026760468543672 
0.6516914870203858 
0.03818763747401064 
0.1317452629173068 
0 
0.5603912945217072 
0 
0.3877346449711729 
0.2086815034873841 
0.2605035818701374 
0.01600789547972641 
0 
0.06162345127493944 
0.0549628328866938 
-0.04887504874727604 
-0.07460696511493692 
-0.6600749438949186 
0.08032774270385251 
-0.1510568398817099 
-0.0446589372870773 
0 
0 
-0.1079982851152897 
-0.1776720162894362 
-0.1334870657796731 
0.01023074534443745 
0.09704908251217788 
0.3081652935062578 
0.1352188158350125 
0.001129711301025565 
-0.1596891154994396 
-0.3091905317923654 
-0.1496685145550387 
-0.09198166022941172 
0.02284643368800334 
0.0685825036034812 
-0.490529863459169 
0 
0.1327644272373192 
0.1646749852649544 
0.2170390965478834 
0.09958678833465326 
0 
0.6015511022658924 
0.3707840240551742 
6.938893903907228e-18 
0.1024512650675177 
0.2558837564472742 
-0.06420502790408328 
-0.332882446871068 
-0.2406105260477655 
-0.1211794574077243 
0.1211621380318127 
-0.2892139769050004 
0.01208603164296705 
0.1346561210160561 
-0.232380772936904 
-0.05060976374811246 
-0.1534380790509983 
-0.2789066880333623 
-0.1716407160651349 
-0.1716407160651349 
0.04702935728919082 
-0.04475898320665152 
-0.1031946556961433 
-0.1337296276552552 
-0.2244826147456234 
0 
-0.1063837014555804 
-0.7834492841984911 
0.3355669887335304 
-0.2464407808097208 
-0.3364309467424325 
0.1746145587240113 
0.1574028618365159 
0.09820355930774298 
0.04262715182680916 
-0.006840098424746442 
-0.1223423283173104 
-0.2444726059588433 
-0.1175326262619482 
0.4531461470186987 
0.2586384059950063 
-0.7039907862057621 
-0.0184193620337321 
0.1317400442618133 
0.05323272237922993 
0.2380315225314682 
0.006209009816406943 
0.1769020448470186 
-0.01507805668173657 
-0.003605982177558794 
-0.6171596074693966 
-0.07921042133170064 
0.1036010674159766 
-0.00257920889483201 
-0.2415828659627626 
-0.3407455684396808 
-0.02004271155949366 
-0.002497338552915528 
0.05945203938956523 
0.02673744822957295 
-0.2732249679213826 
-0.05221604458685192 
-0.2498383787967737 
-0.2498383787967737 
-0.3038030927533443 
0 
-0.008531148919524098 
-0.1616075080158472 
-0.6101411687253521 
0.1797066502678465 
0.01132127577925611 
-0.01475649480145513 
0.3993005698443799 
-0.1877388920997433 
-0.04623644355620694 
-0.08345901977447856 
-0.2666761074936116 
-0.416741047579764 
-0.1934837581996948 
-0.5634586241697157 
0 
0.1266720277385852 
-0.1665914052768131 
-0.2181387209188542 
-0.4007848666286614 
1.042041858113609 
0.4674481472589603 
0.007559777287681763 
0.1930008845731973 
-0.07484189523038108 
0.1145689943475462 
-0.8146750488614385 
-0.1148926141836255 
-0.06821376727406879 
0.9796337010459238 
0.5884262148543105 
0.06877691480316651 
-0.07347872396757933 
0.3094500687760592 
-0.2154958764963834 
-0.7222172284362193 
0.2362502475934592 
-0.2240421917363425 
-0.03386473145343756 
-0.3063375012841181 
0.6812800859614957 
0.08841340764281791 
0.05722459497275995 
0.3381923936749352 
0.3039337239121835 
-0.03489917639359483 
0 
0.02382055749993258 
0.007298415190391241 
-0.05343541018049416 
-0.1747693839418217 
-0.6115461273841106 
0.1035957562277579 
0.4213304352893366 
3.035766082959412e-18 
0.5022394404943474 
0.01997247901547344 
0 
0 
0.2301688627413523 
0 
0.3022066346717107 
0.160707608974013 
0.0655939967998518 
0 
0.2147241797213752 
0.03096827347798532 
0 
-0.0484752090094546 
0.294078096290457 
0.2289100385954399 
0.7939025955595856 
0.00405696062795205 
0.01701316897874588 
0.1659844451875072 
0.1390189433404484 
0.06680460569763944 
-0.09991904848993367 
-0.09228246813049758 
-0.2502298142272885 
-0.206671304457259 
-0.2909750970283915 
0.5264560379188169 
0.2027104819842222 
-0.8186782907246666 
-0.2569443195813412 
0.5870469858175899 
-0.668274912306267 
0.209030851898131 
0.2360735196448573 
0.3714531788372564 
0.2072657116025693 
0.1201166607169509 
-0.03686559305266665 
-0.3722725520418137 
0.5498200430746459 
-0.005038760426146141 
0.3154208317497991 
-0.004727749909392115 
0 
0 
0.1469020460943626 
0.4780435674489771 
0.262760009459293 
-0.004922339567969974 
-0.2422429179266186 
0.1049478384467514 
-0.09588673831775177 
-0.06600121399786896 
0.1252474378972505 
0.5990329737194174 
0.3241458540701301 
0.2946517382357627 
0.008176199323039403 
0.3546114985489657 
-0.2072170212973461 
0.3961133960845535 
0.6782372947507975 
-0.1678980540014179 
-0.008840746520093949 
-0.05293552206645199 
-0.1175396631941352 
0.4545424895478598 
-0.2320713421431489 
-0.1738537158339784 
-0.185325003090381 
0.003397204223284982 
0.1736566220178086 
0.2682536533717994 
0.1225078521028864 
-0.1077960568703655 
0.007992902302419079 
0.1555904255992 
0 
0.246765466217353 
0.338762441419536 
-0.09285497253248381 
0.01984362377032728 
0.121374768625831 
0.04708073042769817 
0.002553328462522583 
0.2390013288262681 
0.4757026024139933 
0.0731591381119962 
0.1044159073379168 
-0.05842308176126518 
0.5600836389355843 
0.09599185092791122 
-0.5114666011669139 
-0.7756759657972573 
0.07426851408339306 
-0.2099190279920051 
-0.01476603424617379 
-0.02919981988562014 
-0.05254525978865277 
-0.3094003900541135 
0 
-0.5076840009908491 
-0.1344584084987268 
-0.219735814380859 
-0.01459306207953966 
-0.5447746683882863 
0.1146066203462984 
0.05981037049468306 
0.7252061204120891 
-0.563250371950974 
0.2470336393115155 
-0.05256120867647718 
0.2699808449806804 
-0.1161113052308869 
-0.2987476245891434 
-0.2530254565572521 
0.541040968121955 
-0.5583406372968137 
-0.1295356200065177 
0.436627195395406 
0.161468321679953 
0.02761297428971754 
0.2603179308412885 
0.173676678158756 
0.3102138054335143 
0.3022037503127313 
0.8664170526661064 
-0.4569193938029058 
-0.2030447572410626 
0.5884722796060528 
0.0001319273701151846 
0.2688870950199808 
-0.1077539432913974 
-0.1578766681430593 
-0.3799449517563659 
0.02272597127837996 
-0.08198568152041162 
-0.03430504901158659 
-0.06299910854963496 
-0.1237042695132302 
-0.1160343252144142 
-0.4974991488713644 
-0.06496747251322711 
-0.0586801938247558 
0 
-0.101425026571922 
-0.53191731078378 
0.3967911288285147 
0.02151324662586114 
0.850554864531832 
-0.1818922901834546 
0.07704492240314512 
0.2945553335663881 
0 
0 
0 
0.4636054741286769 
0.05641962461358837 
0.4142711245412687 
0 
0 
0.1662241737003742 
0 
0 
0.3949991279207077 
-0.01107779895058867 
0 
0 
0.3961236190704172 
0 
0.1612549327136577 
0 
-0.001931797303077323 
0.1818844795958687 
0.1697292381492044 
0.4309668386123041 
0.08428841752575836 
0 
0.1047119528907215 
0.7705039110402767 
0.1710347194854078 
0.3142896944323372 
0.02706904073781412 
0.2885139344755951 
0.01621649202786284 
0.01715205843081558 
-0.1917257642586432 
0.3981667282826817 
0.136420241376268 
0.2551765272721403 
-0.0008511668918560374 
-0.009692016927447651 
0.1105856452565592 
0.1333534311723955 
-0.2115512575945224 
-0.1204491659931024 
0.481211713317468 
0.1293009571255252 
0.01534202527608902 
0.6598460378794035 
0.03775608574321452 
0.4739540077828072 
0.07189936153519409 
0.2190871327082021 
-0.2271260387413746 
0.5333764009264272 
-0.8424837175523154 
-0.1666936643052935 
0.01238457382417295 
0 
-0.5188857447338248 
0 
0 
-0.006398334081472988 
-0.1163174292093918 
-0.5172294837481024 
0.07253820858991825 
-0.1754650154281199 
0.1789474960439186 
0.7483644367902011 
0.3111569652794314 
0.3717526537293113 
0.38994114668401 
0.5926357106118718 
0.01552833326686512 
0 
0 
0.4024544573804443 
-0.03152434569507834 
-0.9669396907851729 
0.3654070041287327 
-0.07643606714373512 
-0.02345012536484628 
-0.1326203752702064 
-0.01407879716062531 
0.273666096030363 
0.106970224576461 
0.04275742356871833 
0.0117977375640164 
0.504454527026107 
-0.3566294975455726 
-0.09412064760838015 
0.5411840361040594 
0.03487188230454961 
-0.03887321366584544 
0.2613339122337862 
0 
0.01161760231514136 
0.3203368708543852 
-0.09975152159977323 
-0.4174065233904871 
-0.07022922887042859 
0.008797946184904724 
-0.1786857687620421 
-0.2549040326944825 
0.3161856212485912 
-0.01041297318871702 
-0.09245102143672314 
-0.09463643763012958 
-0.2238352789950439 
-0.1433629335031922 
-0.09143424598737593 
-0.6444319491456658 
-0.1048864178507836 
-0.1395677327827205 
0.06388561188756042 
0.4698769018925435 
0.2102112200595306 
0.1586545067525647 
0.2665521262444583 
0.2689300855089181 
0.02429935657413758 
0.3590005709280583 
-0.1363664525915357 
0 
-0.08020258148259655 
0.03629218644097363 
0.07490327426447947 
-0.3367859453253216 
-0.2079591860162315 
0.157300089277237 
0.5644757780585055 
0.03476723516730558 
-0.5964194609382063 
-0.5341869271290237 
0.114454589307415 
-1.124570907114014 
0.02397934222746341 
-0.2671422035333736 
3.469446951953614e-18 
-0.2532557264835379 
-0.3507854716919921 
0.2700764294462429 
-0.3475053195055707 
-0.5586113357428414 
0 
-0.2906267134248644 
-0.3609175061041582 
-0.234669524402788 
0 
-0.2118491451443366 
-0.1277125013165228 
-0.1903073511128304 
-0.1093975709517886 
-0.3259138910474323 
-0.04234509091095397 
0 
-0.1626526540522138 
-0.4562752426795225 
0.09662070873533884 
0.0225983997678202 
-0.3452316023006499 
0.05954999769977393 
0.1757354256737113 
-0.6047797357477185 
-0.5098856589390237 
0.02830418987757773 
0 
0 
0.2028445011446155 
0.4794435894670565 
-0.001327170016421465 
0.3878780160331053 
0.7060027698134977 
0.1436048100544538 
0 
0.3741905676680704 
0 
0.000494274845728419 
-0.02359339248103922 
-0.02359339248103922 
0 
0 
0.2475365278392163 
0.1425066659255621 
0.2212351580308963 
0 
0 
0.2034530100413837 
0.07965543836538942 
-0.02838079157841944 
0.1974316088888326 
0.03520964961034803 
0 
0 
0.03252620351930548 
0 
0 
0.2977972831116433 
0.03128713121035957 
0.08842421228615681 
0 
0.1554293906988533 
0 
0 
-0.0719019843459123 
-0.1530194031644869 
0.1150325436786282 
0.07810392595094297 
-0.216146554524225 
-0.6422434373118738 
0.06794770354748567 
0.1144858247132082 
0.447220652010145 
0.6030049999464172 
-0.02486253985103392 
0.01294507619127658 
0.6017514630422572 
-0.1559916772720321 
0.2285468732339266 
0.09670016209774668 
6.938893903907228e-18 
0.1911059074548592 
-0.2727195051219297 
-0.3450683321267084 
0.6760446685659335 
0.1405219697712351 
0 
0 
0.1073216084169879 
-0.05448423006809857 
-0.2139559446775482 
-0.1404003423843569 
0.06160653869165931 
0.05404389863412524 
0.3613631241700019 
-0.7194505960602218 
0.1104388983350758 
-0.2812781248023282 
-0.6903640359878122 
0 
-0.009722116435385687 
-0.2379102587320045 
-0.3161837824650148 
-0.111431120342209 
0.02047417117727279 
0 
0 
0.01183881514033729 
0.02254898985893518 
0.2033595339598842 
0.1424467497755446 
0.2364209366694576 
0.3151152627809379 
0.175563013745398 
0.5357478935252455 
-0.0488134617302453 
0.910065706390137 
0.07866287585837302 
-0.09337433916715913 
0.1143150017112109 
0.4078967981381039 
-0.4411599698931339 
-0.07358643061015782 
0 
0.2385894171384681 
0.3225505668459843 
0.3049829153748782 
-0.07177917176116098 
0.4120690561687037 
-0.01375806702151293 
0.2610698807310233 
-0.5620259717240759 
-0.03452260882534484 
-0.07490464223583389 
-0.2108399492080386 
-0.02351365307524084 
0 
-0.2667725848931066 
-0.06637965088278273 
0.1282084919869213 
0.01808523031130544 
0.0312646884256285 
-0.0465635378354683 
-0.02891493770233489 
0.0003795685658835609 
0.0589311298866602 
-1.102149848911227 
-0.1924865065609092 
-0.05561105895612042 
-0.02606767749240633 
0 
-0.2506106168808553 
0 
0 
0.01050151448204434 
0.003693485016568969 
-0.0983486715765972 
-0.1420586976224636 
0.515089981318226 
0.5779653897510524 
0.1311180785913461 
0.07255816063148131 
0.06389571491839026 
-0.03307912194495533 
0.09211377741441573 
-0.59765573570625 
-0.1891047718947825 
-0.0458300072648063 
-0.07363599537496841 
-0.01251268724808849 
0.2427064330035807 
0.4509303281295627 
0.4281727846153905 
-0.2422457307848301 
0.4427719688364637 
0.05895402071465911 
0.02031224130829094 
-0.4222590049416949 
0.3451959531147549 
0.0124028802875643 
-0.4594615953541307 
0.2842058887325081 
-0.007251053106902444 
0.005806386850090607 
0.2417567958570932 
-0.7205775142470039 
-0.1709063983660652 
-0.6150165383883507 
-0.0154089446660673 
0.09624804800654953 
0.2466385786510482 
0.9321532476652274 
0 
-0.4064576195181608 
-0.03037923376493397 
-0.1411703847952907 
-0.2005617400559046 
0.1664435761892696 
0.05471372689253038 
-0.2853195726739085 
-0.1841517003134412 
-0.1931670451367056 
-0.1202101471794829 
0 
-0.06549791947964478 
-0.001496024890061062 
-0.3629784816884235 
0 
-0.6932740255651741 
-0.2071586498379966 
-0.5428050888755857 
-0.1557543103722015 
-0.05958249621335519 
-0.4218943461428966 
-0.119634369209832 
-0.2701632160582705 
0.2109334621986667 
0.03403621304992867 
-0.01062905910155088 
0.1055863996160038 
0.587671590593006 
-0.6353019877885837 
-0.8104661710443581 
0 
-0.3429879264833621 
0.04840866531890445 
-0.1956841157379937 
0.1920616600872028 
-0.2220108195157685 
-0.03053759462800336 
-0.02735762383669031 
-0.1402780464388484 
0.08238332996872759 
0.9586815377245206 
0.09093285348871488 
0.119829107628152 
0.2785059248992799 
-0.03454500969163997 
-0.03807841076293436 
0.08763355744432531 
0.1035834402098773 
0.5063923179459986 
0.6151550532886553 
0.01388087243808292 
0.06113776324835558 
-0.1143419649462039 
0.2092684340482017 
0.2483454588049588 
0.01504737820977987 
0 
0.1769832360131707 
0.1009771320607756 
0.1889323274314196 
0.1635437174002859 
0 
-0.008378606551744949 
0.5295668816434544 
0 
0.2247511400206034 
0.224624875635812 
0.001831691361808347 
0.3424291608543584 
0.05011872219793687 
0.1765696775814717 
0.1853757380355929 
-0.01778455005089512 
0 
0.1635437174002859 
0.1635437174002859 
0.1635437174002859 
0.1499789998893754 
0.5382412109198759 
0 
0.9185505292604045 
-0.01700296193497718 
-0.05133044235245053 
0.003428538675825541 
0.687995406830878 
0 
0.2617652236952387 
0 
0.06261701882804681 
0.01511200193565319 
0 
0.326029731320492 
0 
0.01278272466428949 
0.1792074175972543 
0.1728604747504238 
0 
0.04526692177268084 
-0.1223842780715729 
-0.2727822992221736 
-0.2005667182798693 
-0.1284595783582778 
-0.09637378892913009 
0.01822225616034449 
0.03581568777671769 
0.2043269337832241 
0.01451502100241126 
0 
0.1015515760434551 
-0.0008869387539801163 
0.254605840374044 
0.1849947412463498 
0.3170863081356957 
0.05149407161822142 
0.07854311643231392 
0.02833965160327757 
-0.03581629253321778 
-0.0431957503593971 
0 
0.06858497826060339 
0 
0.1417117096181456 
0.01378958095188888 
0.4784584873368466 
-0.1812378586897856 
0.3965974030955232 
0.251051955897505 
0.0356433098525813 
0.3317439147947238 
0.01397069270781289 
-0.6547689080324901 
0 
0 
0 
0.02213450638795475 
-0.04422534752889426 
0 
0 
0.000160979985739983 
-0.2662706170881539 
-0.289682343021768 
-0.1139095861432774 
-1.122883412589909 
0.1831826116779096 
0.3429758113918063 
-0.05272313630155276 
0.2562935000232524 
0.5828950042911557 
0.2041912025121425 
0.5854114415507092 
0.04574729742990207 
0.09770000565048854 
0 
-0.03083038863930587 
0.3482306090293958 
0.01144458710161214 
-0.0455745919521854 
-0.4387728010729343 
-0.03893882297716277 
-0.3808256431384736 
0.6567274636718478 
0.03344829871943156 
-0.094825437026946 
0.1385462952688502 
-0.8574499013424112 
0.361421142443331 
0.4270413577063795 
-0.3356629859720149 
0.9341611807085629 
0.5238258193463259 
0.1485694588603081 
0.2912188076989847 
0.2818633284356755 
0.04089827528534666 
-0.1812864292440383 
0.006433307963933655 
-0.02881973984261597 
-0.01623665021035529 
-0.09050593789666979 
0 
0.003173946758865406 
-0.2174529524182939 
-0.1461277419160128 
-0.005386128565268779 
-0.4958029078429911 
0.01119448468432643 
-0.1739719946583958 
-0.0923962029242518 
-0.1500227877753734 
0 
-0.5267138071798207 
-0.2459079182018581 
-0.5968631936416551 
0.05029193266901227 
0.1083966923633113 
-0.3240208478727108 
0.02878867081219242 
0.1885256462258116 
0.2973976494443624 
0.4112738013680211 
0.4317379770934092 
0.1918378157119073 
0.11711224629145 
-0.1983144788185693 
-0.5996552200754264 
0.5133874979382854 
-0.3976137944995109 
-0.4335111977586066 
-0.1077768736226701 
0.2122834148170532 
-0.169576900737464 
0.008818525354638835 
-0.227844356523205 
-0.2824711872639428 
0 
-0.03630087512176885 
-0.03045713356234824 
-0.1346193177127169 
0.3813326536050486 
0 
0.04053570874159381 
0.2632776240928846 
0.0377901449507823 
0.7411209067177604 
-0.3992315340270542 
-0.4215585708993819 
-0.2071947255114098 
-0.004957208511122146 
0.1328074861385374 
0.08431249336975308 
0.1345910691189821 
-0.241758568733219 
-0.1174509336934013 
0.02377036635366314 
0 
-0.06188131156057161 
-0.2990314856802845 
0 
-0.6144169840452355 
-0.3504076462971202 
0 
0 
-0.1812703559811942 
-0.323320826077311 
-0.004249494293793871 
-0.05613397831823078 
-0.4141177233223209 
0.04132466435126479 
0.1099656497166889 
-0.648284953257098 
-0.008114857345267772 
-0.75395475255553 
-0.2217218009244848 
-0.1964166983179938 
-0.007207191593133528 
-0.06037193545337151 
-0.06520417231253983 
0 
0.2506120449396598 
0.471168593346458 
0.5403637381254022 
-0.02860284644776624 
0.03207738275885812 
0.4234824471009114 
0.1455845462912334 
0 
0.1030014673610438 
0.4405817705532593 
0.1061347878719395 
0.01374481045296643 
0.01308539250463429 
0.01240650873425818 
0.2457034654702764 
0.3585662700709357 
0.3229729902540147 
-0.4005057155541739 
0.07068723669033941 
-0.3889509166740356 
-0.2984374261052073 
-0.3494013319460111 
-0.05067356131442909 
0.09171122545881143 
0.2005223307723682 
-0.2559763628898816 
-0.1051011097697214 
-0.4281871000206161 
-0.2895574823536394 
-0.06331237144916463 
-0.4834198797794121 
0.1901498309519702 
0.1686823891426815 
0.1832675391233784 
0.1832675391233784 
0.3626128583774943 
0.7284942002844436 
0 
0.1711227321232729 
0 
0.2789658572153682 
0 
0 
-2.602085213965211e-18 
0.02129519587802785 
-0.01049870569477144 
-0.02431602674852465 
0.001774090239351694 
0.2485545330144276 
0.07646724427412163 
0 
0 
0.001816297179164084 
-8.673617379884035e-18 
0.09029082996376307 
-0.003109983927278582 
0.05484293794065083 
0.3377544971222725 
0 
0 
0.004911461718431966 
0 
0.2155698582878304 
0 
-0.04100809440970199 
0 
0.008277631698962505 
0.09217596220872341 
0.006759474056102863 
-0.005183604911179688 
0.06388265102468388 
0 
0.4155607388213478 
0.4122812241097752 
0.0870433528742951 
0 
0.462434093142116 
-0.3450879555946067 
-0.4575445911226986 
-0.1484841561116481 
0.004433573836487837 
-0.06618587533415116 
0 
0 
0 
-0.1940148513088779 
-0.2085246451543049 
0.01435502120807695 
-0.1627429638471315 
-0.2742669716414181 
-0.2066416637138292 
0 
0.07762941150233618 
0.1327575061603123 
-0.00494950968756809 
0.2591811033500167 
0.2047730958090138 
0 
0.1767041812362761 
0 
-0.1670059049551145 
0.03258139415852683 
-0.08819408680442432 
0.01084104249987337 
-0.207261592529651 
-0.02485935857766119 
-0.3775575636583108 
-0.3889079817283229 
-0.2081723030684039 
0.05619163958023971 
-0.1883593014897458 
-0.3111453132816876 
-0.02503295606975723 
0.02572351528160784 
0.2593694711946832 
-0.05086122789018148 
0 
0.02719405501159168 
0.0602481132312121 
0.3962604462805741 
0.02169006472795611 
-0.1987179424419879 
-0.2239888132945284 
0.595708682354209 
-0.01257362462410332 
-0.2590261096318865 
-0.1310950200661868 
-0.1505419700874637 
-0.8759248813785064 
0.548029422549026 
-0.390616882807606 
0.2679255529309943 
-0.05453109121126615 
0.05642701957380111 
0.3170496050741509 
-0.2093498915609872 
-0.002659759206746904 
0 
-0.3702659053997117 
-0.3585532009122767 
-0.2797434878397163 
-0.05317182405475643 
0 
-0.6724480722717145 
-0.1754513212343614 
-0.01597515091610988 
-0.1167129648264249 
0.4856323253624399 
0.2117228406678885 
-0.1162407172986765 
0.8073353283159499 
0.04699406302311824 
0.2466087276546646 
-0.2346969229033031 
-0.6459712096576029 
-0.04447055908869588 
0 
-0.565975026555098 
-0.3030672359837593 
0.1735796720135503 
0.03735258733223308 
-0.6517593507812133 
0.01098798969492589 
0.01308172346586025 
0.09191466060216162 
0 
0.2439176334501963 
-0.1454975629083929 
-0.2906976459396294 
0.1247403234426259 
-0.08118309887715817 
0.205706637071262 
-0.07062377261728441 
0.008533515949448329 
0.07618159108944622 
-0.03819878255806687 
0.02903235182685867 
-0.3845368019656344 
-0.1766521772513635 
-0.02974468339443855 
-0.03981585994734774 
-0.566266320703933 
-0.1902525276009395 
-0.5470499888622734 
-0.03943733941510844 
0.1582273236889239 
0.2247008070187165 
-0.05862588775026654 
-0.06944349880482158 
-0.01344652808230953 
0.296605536948903 
-0.4413969971439975 
-0.1280606914302631 
-0.174947966677284 
0.1189308187124054 
-0.5909544470001942 
-0.07472616543245293 
-0.003964076767245304 
0.01838695355422023 
0.05374743304161895 
3.469446951953614e-18 
-0.1484503195505344 
-0.4716413281604402 
-0.3792184803299627 
0.07196623335345574 
-1.062058289482875 
0.1259745358518202 
0.1281816950637721 
0.248828697963566 
-0.2797253735202878 
0.001509941474666897 
0 
-0.1651208854162702 
0 
0 
-0.1745633787775364 
-0.01686405598887117 
-0.1968165855121002 
0 
0 
-0.102370499479598 
-0.4407019256117488 
-0.3734156528160133 
-1.271878194733963 
0.429755389204991 
0.3247384664307386 
-0.002273334449031188 
-0.00489632598050051 
0.3394179794036244 
0.1077574154697195 
0.3006590867007289 
0.09220810963731417 
0 
0.5458220181596656 
0.4632690970015231 
0.4418472834126941 
-0.09874482394639726 
0.1585150359972731 
0.1236753245539536 
-0.4002264294095172 
-0.1459329529637962 
-0.3274270154155464 
-0.02117741962943072 
0.04957757928771611 
0.08214719899487916 
-0.8356854552289252 
0.2989362322977141 
-0.1638388808512482 
-0.2570928442599795 
-0.2952234825443181 
0.5746064521328793 
0.2831189277199473 
-0.2870701981493584 
0.02690284010954152 
0.006225243245105353 
0.3720770308212938 
-0.971794017999443 
0.3612863822714986 
0.2539474639472151 
0.545935370541978 
0.007230789262277893 
0 
0.4348853991718296 
0.1145796039362201 
-0.02850515132295808 
0 
-0.05786323585008667 
0.004674306025130693 
-0.5085082206296048 
-0.1204793658208071 
-0.09752558315525338 
-0.09604363872311755 
0 
-0.5965951714009243 
0 
0 
-0.2197702884081672 
-0.1323317805258774 
-0.4378157730328484 
-0.3165463882097497 
0.02534437108534185 
-0.002976982573146566 
0 
-0.1026762022726558 
-0.1026762022726558 
-0.1026762022726558 
-0.3214796231627212 
0.4054127324619913 
-0.002595793360715062 
0.08851885588943852 
0.120298775193615 
0 
0.4767076479623922 
0 
0.02118529486869829 
0.06397188044985888 
0 
0.03101344658436139 
0 
-0.3032830540193557 
0 
0 
0.03207109623215108 
0 
0 
0.1229471159548496 
0.3613834731981744 
0 
0.07942129132480752 
0.1762715658262456 
0 
-0.002472411945796582 
0 
0.04831406600763222 
0.1799465313581113 
0 
0.1399541442903171 
0 
0.1331696750359544 
0.1331696750359544 
0.3531804682718067 
-0.003100884877636385 
0.4429031898328097 
0 
0.2463654748208352 
0 
0 
0 
-0.03015651364245289 
0 
0 
0.3624656970421519 
0.0291837465124075 
0 
0 
0.6183816443023347 
0.2077478097638482 
0 
0.1898683066650616 
0 
0 
0.07099218133525691 
0 
0 
0.1493491038300024 
0 
0.09504864471090396 
0.1062874842940706 
0.05424566696289318 
0 
0 
-0.03595948304677322 
0.006700354989758303 
-0.007775065009677262 
0.01402225906063079 
0.01402225906063079 
0.01402225906063079 
0.01402225906063079 
0 
0.4256920364257279 
0.4256920364257279 
0.1159101248394521 
0 
0 
0 
0.1390051860755067 
0.05797391247919843 
0 
0.2720276194567907 
0.1062124387971056 
0.1136603257757217 
0.5460280289827696 
0.1160353985591652 
0 
-0.1485781225547426 
-0.002772071086818689 
